1.110989227890968323e-02
1.168437302112579346e-02
-5.669504404067993164e-03
1.070633530616760254e-02
-1.444694399833679199e-02
2.022976242005825043e-02
1.734401844441890717e-02
1.507828943431377411e-02
1.102356240153312683e-02
7.468226249329745770e-04
1.710204989649355412e-03
-1.201530359685420990e-02
-7.217681035399436951e-03
1.938055269420146942e-02
-5.973120220005512238e-03
-1.584721263498067856e-03
1.318930648267269135e-02
1.225018501281738281e-02
2.131760679185390472e-02
-7.456802763044834137e-03
1.981707476079463959e-02
-9.013323113322257996e-03
3.082714742049574852e-03
5.206920206546783447e-03
-1.519223093055188656e-03
1.455131731927394867e-02
-2.126405574381351471e-02
1.351978443562984467e-02
-9.984161704778671265e-03
9.009616449475288391e-03
-3.156785853207111359e-03
-4.693344701081514359e-03
-2.371503505855798721e-03
-3.472459735348820686e-03
-1.676100073382258415e-03
-1.366472244262695312e-02
-1.937192864716053009e-02
7.175698876380920410e-03
-1.962929032742977142e-02
-1.433544233441352844e-02
-1.900607533752918243e-02
6.294609978795051575e-03
-8.014684543013572693e-03
-7.187797687947750092e-03
-1.949143595993518829e-02
-1.924761012196540833e-02
1.601944677531719208e-02
-3.346254117786884308e-03
4.456816241145133972e-03
-9.592977352440357208e-03
-1.711030118167400360e-02
8.639207109808921814e-03
9.358279407024383545e-03
2.608387032523751259e-03
1.421249657869338989e-02
-8.798401802778244019e-03
1.748506538569927216e-02
-1.279606483876705170e-02
1.608913950622081757e-02
1.259371824562549591e-02
1.109990105032920837e-02
-1.211684942245483398e-02
-1.152821909636259079e-02
1.029091700911521912e-02
-7.355701178312301636e-03
-5.341137759387493134e-03
6.051740492694079876e-04
4.347254580352455378e-04
-9.018708020448684692e-03
1.065151207149028778e-02
4.961795173585414886e-03
-1.258022896945476532e-02
-8.835489861667156219e-03
1.037211529910564423e-02
9.163532406091690063e-03
1.004095003008842468e-02
5.222890991717576981e-03
-4.733898676931858063e-04
-8.295469917356967926e-03
7.109129801392555237e-03
3.063883399590849876e-03
5.928320810198783875e-03
1.078305579721927643e-02
-5.507952999323606491e-03
-2.095950767397880554e-02
-3.829666413366794586e-03
-1.063800416886806488e-02
-3.783722873777151108e-03
-1.752377487719058990e-02
4.368970170617103577e-03
-1.469199312850832939e-03
2.484815428033471107e-03
-2.047746814787387848e-02
9.758988395333290100e-03
1.090576755814254284e-03
3.462197957560420036e-03
-8.821048773825168610e-03
-1.455585844814777374e-02
-4.456137772649526596e-03
1.353901810944080353e-02
-7.563336403109133244e-04
5.975103005766868591e-03
-4.035343881696462631e-03
-2.085840562358498573e-03
-1.068787556141614914e-02
1.326511614024639130e-02
-1.097090262919664383e-02
-2.095722407102584839e-02
1.044408651068806648e-03
1.943104667589068413e-03
1.001312397420406342e-02
-5.049507133662700653e-03
1.595792360603809357e-02
-3.347781021147966385e-03
-1.071231905370950699e-02
-7.758912630379199982e-03
-4.705406725406646729e-03
1.513001159764826298e-03
1.026395335793495178e-02
1.812076382339000702e-02
4.241356160491704941e-03
1.926711387932300568e-02
1.945636607706546783e-02
1.170510053634643555e-02
3.691328456625342369e-03
7.512036710977554321e-03
1.321303285658359528e-02
1.742397062480449677e-02
7.103072479367256165e-03
7.821494713425636292e-03
-6.378407590091228485e-03
-8.578756824135780334e-03
-2.368014305830001831e-03
1.633666642010211945e-02
2.287482202518731356e-04
-1.241986453533172607e-02
5.761566106230020523e-03
1.727242954075336456e-02
1.444998569786548615e-02
-4.287227988243103027e-03
2.406995976343750954e-03
1.272539980709552765e-02
-2.047296427190303802e-02
-1.806567981839179993e-02
-1.462085917592048645e-02
-2.596833743155002594e-03
-1.060553360730409622e-02
-3.224396612495183945e-03
1.383933611214160919e-02
-1.652885926887392998e-03
2.807061420753598213e-03
-1.430084556341171265e-02
1.385937817394733429e-02
-2.105134725570678711e-02
-1.210448332130908966e-02
1.214456744492053986e-02
-1.190421078354120255e-02
-9.909629821777343750e-03
1.222125627100467682e-02
-1.470881700515747070e-02
1.527799107134342194e-02
-6.991882808506488800e-03
1.026688702404499054e-02
-1.607475429773330688e-02
1.159250922501087189e-02
1.081025414168834686e-02
4.693377763032913208e-03
-9.747452102601528168e-03
-8.777327835559844971e-03
1.626141183078289032e-02
-1.046951673924922943e-02
6.336513906717300415e-03
5.764443427324295044e-03
2.122749947011470795e-02
-5.792824551463127136e-03
-1.217727363109588623e-02
-9.270407259464263916e-03
2.133691124618053436e-02
1.021342352032661438e-02
4.166775848716497421e-03
1.331591233611106873e-02
1.900155283510684967e-02
4.351394309196621180e-04
-1.383356563746929169e-02
-1.178022660315036774e-02
1.384424977004528046e-02
1.709515787661075592e-02
1.580018736422061920e-02
-1.139792893081903458e-02
-1.132347062230110168e-02
1.817572675645351410e-02
-9.598249569535255432e-03
1.900327391922473907e-02
1.804882474243640900e-02
4.715260118246078491e-03
-5.170356016606092453e-03
-1.104619260877370834e-02
-1.285903039388358593e-03
-1.243658363819122314e-03
5.567951127886772156e-03
1.349342800676822662e-02
1.507752947509288788e-02
-1.175077632069587708e-02
1.478279195725917816e-02
-5.252886563539505005e-03
-9.462887421250343323e-03
3.375716973096132278e-03
-2.357946010306477547e-03
-1.700530201196670532e-02
8.011105237528681755e-04
6.538491696119308472e-03
3.867171471938490868e-03
-6.954942829906940460e-03
2.475641900673508644e-03
-7.813949137926101685e-03
-2.083809301257133484e-02
8.444145321846008301e-03
-1.815263740718364716e-02
1.029397733509540558e-02
-1.777132786810398102e-02
5.083989817649126053e-03
9.727416560053825378e-03
-1.343959383666515350e-02
-1.459184475243091583e-02
-1.109810825437307358e-02
-1.561471261084079742e-02
-1.052212901413440704e-02
-9.492228738963603973e-03
-6.801415234804153442e-03
6.826322525739669800e-03
6.544312927871942520e-03
1.354107819497585297e-02
2.043275628238916397e-03
-1.191591471433639526e-02
1.775824232026934624e-03
5.083113908767700195e-03
-1.027146447449922562e-02
1.971119455993175507e-02
8.128123357892036438e-03
5.968222860246896744e-03
-6.666077300906181335e-03
5.824897903949022293e-03
-8.711947128176689148e-03
4.523578565567731857e-03
1.867773197591304779e-02
-4.210351034998893738e-03
-7.093169726431369781e-03
-1.749189454130828381e-03
1.441305316984653473e-02
7.503848522901535034e-03
9.505597874522209167e-03
-1.716666482388973236e-02
1.220488362014293671e-02
-1.000234112143516541e-02
-2.028574049472808838e-02
-1.350277848541736603e-02
8.608216419816017151e-03
-2.462881617248058319e-03
-6.041761953383684158e-03
-2.601915039122104645e-03
1.330485753715038300e-02
4.098663106560707092e-03
-1.181181799620389938e-02
9.957714006304740906e-03
1.179108209908008575e-02
4.605796188116073608e-03
9.909996762871742249e-03
3.589435480535030365e-03
-1.446738559752702713e-02
1.040464267134666443e-03
1.038870774209499359e-02
-1.760502159595489502e-02
-1.507069543004035950e-02
-2.663181163370609283e-03
3.253052243962883949e-03
-1.742415130138397217e-03
8.967170491814613342e-03
-1.157287135720252991e-02
-1.065018679946660995e-02
-1.208403334021568298e-02
1.406683353707194328e-03
-1.972577162086963654e-02
-1.589221507310867310e-02
-5.260896286927163601e-04
1.803389377892017365e-02
-4.332898184657096863e-03
1.455549709498882294e-02
9.278217330574989319e-03
4.970412235707044601e-03
1.697682403028011322e-02
1.815793476998806000e-02
-5.894487723708152771e-03
-1.322500593960285187e-02
-5.362766794860363007e-03
-1.350907608866691589e-02
9.808285161852836609e-03
-9.852506220340728760e-03
-9.679634124040603638e-03
-1.001230627298355103e-02
1.654876582324504852e-02
1.292490214109420776e-02
3.120799083262681961e-03
-4.075201228260993958e-03
-5.670855753123760223e-03
9.380502626299858093e-03
-3.084267373196780682e-04
2.053740434348583221e-02
1.643280126154422760e-02
5.305260419845581055e-03
-1.032159943133592606e-02
-1.539315283298492432e-02
2.191515173763036728e-03
1.905002514831721783e-03
-5.972846411168575287e-03
6.309896707534790039e-03
-8.180960081517696381e-03
8.055634796619415283e-03
-5.154679995030164719e-03
1.018063165247440338e-02
-7.831239141523838043e-03
-7.320926524698734283e-03
1.530048437416553497e-02
-5.983725190162658691e-03
-1.383855938911437988e-02
-1.787898875772953033e-02
-1.138551160693168640e-02
-1.584632880985736847e-02
-7.556137628853321075e-03
1.365927420556545258e-02
-8.182015269994735718e-03
7.172631099820137024e-03
1.202834211289882660e-02
1.765572465956211090e-02
2.691792557016015053e-03
-2.528495620936155319e-03
9.655714035034179688e-03
-1.337569765746593475e-02
1.845899783074855804e-02
-4.637477919459342957e-03
3.885112702846527100e-03
8.882613852620124817e-03
2.126367948949337006e-02
1.838896237313747406e-02
1.089485920965671539e-02
1.049933396279811859e-02
2.046903409063816071e-02
-8.195444010198116302e-03
1.771879009902477264e-02
9.716842323541641235e-03
2.043458167463541031e-03
1.930397585965692997e-03
7.517896592617034912e-03
1.689459197223186493e-02
8.903969079256057739e-03
3.138397820293903351e-03
5.509575712494552135e-04
2.441777382045984268e-03
1.609447784721851349e-02
-1.398693956434726715e-02
1.382754929363727570e-02
-1.509738713502883911e-02
4.491730593144893646e-03
8.306620642542839050e-03
-6.756107322871685028e-03
-1.941272616386413574e-02
2.369144931435585022e-03
1.387840695679187775e-02
-1.028241217136383057e-02
-1.589036919176578522e-02
1.448576338589191437e-02
-2.127000130712985992e-02
-1.234888099133968353e-02
-9.551211260259151459e-03
-2.020083181560039520e-02
8.482768898829817772e-04
3.564213402569293976e-03
3.054376458749175072e-03
-7.808474474586546421e-04
-9.144996292889118195e-04
-9.881395846605300903e-03
-9.604425169527530670e-03
-1.829191856086254120e-02
-1.867854408919811249e-02
-5.587314255535602570e-03
-2.114571817219257355e-02
-1.693955436348915100e-02
-9.226968511939048767e-03
-1.446445938199758530e-02
6.404321640729904175e-03
1.476331241428852081e-02
2.702359110116958618e-03
-1.026504486799240112e-02
1.470800116658210754e-02
-1.459692954085767269e-03
-1.042153313755989075e-02
-9.629651904106140137e-03
-5.180163308978080750e-03
2.072345651686191559e-02
-1.701434724964201450e-03
1.451133377850055695e-02
1.142974570393562317e-02
-2.740014344453811646e-03
1.516153104603290558e-02
5.585845559835433960e-03
9.518833830952644348e-03
-1.517744921147823334e-02
9.711818769574165344e-03
-1.286566071212291718e-02
-1.012372039258480072e-02
1.575326360762119293e-02
4.134861228521913290e-04
-6.532977335155010223e-03
-7.403220981359481812e-03
7.120508700609207153e-03
-1.050429791212081909e-02
1.885629142634570599e-03
-2.035629935562610626e-02
-1.628022268414497375e-02
-2.144364081323146820e-02
1.310913451015949249e-02
2.143013756722211838e-03
-2.504347823560237885e-03
1.739925588481128216e-03
1.205244101583957672e-02
-1.460747979581356049e-02
-3.239728044718503952e-03
-2.027557790279388428e-02
8.538143709301948547e-03
1.160495914518833160e-02
-1.509039313532412052e-03
-1.133660878986120224e-02
-2.479790709912776947e-03
-1.754643954336643219e-02
-1.336780283600091934e-02
5.221443250775337219e-03
3.935221582651138306e-03
3.159767016768455505e-03
-6.825637072324752808e-03
4.992784932255744934e-03
4.863847047090530396e-03
1.321223936975002289e-02
1.244267635047435760e-02
-1.901192963123321533e-02
-3.490179078653454781e-03
9.643146768212318420e-03
1.136601157486438751e-02
-3.452998353168368340e-03
1.596377231180667877e-02
1.619674265384674072e-03
1.447555050253868103e-02
-1.107219257391989231e-03
-8.754949085414409637e-03
-1.478300616145133972e-02
6.222576834261417389e-03
5.803456995636224747e-03
5.264041479676961899e-03
-1.697743893601000309e-03
-9.763040579855442047e-03
2.031335316132754087e-04
8.193556219339370728e-03
1.217577606439590454e-02
-1.270219800062477589e-03
3.181168343871831894e-03
-6.208965554833412170e-03
1.266277581453323364e-02
8.486988022923469543e-03
1.996358670294284821e-02
-2.401850651949644089e-04
1.654627360403537750e-02
-4.944673739373683929e-03
1.718069077469408512e-03
3.458402818068861961e-03
4.983153194189071655e-03
2.551734913140535355e-03
-4.576751962304115295e-04
3.769980045035481453e-03
3.280848963186144829e-03
1.586187281645834446e-03
-1.712381257675588131e-03
-4.223624244332313538e-03
-1.100022718310356140e-02
-1.320072822272777557e-02
-1.313286460936069489e-02
-1.839521341025829315e-02
8.835261687636375427e-03
1.095967181026935577e-02
1.588973216712474823e-02
-1.883975788950920105e-02
1.596559770405292511e-02
8.148849010467529297e-03
1.545851863920688629e-02
-9.011720540001988411e-04
1.177419163286685944e-02
-1.096562854945659637e-02
-1.892136409878730774e-02
-1.100973319262266159e-02
-1.781794056296348572e-02
8.982662111520767212e-03
-1.791160553693771362e-02
-2.622259315103292465e-03
6.559893488883972168e-03
-1.088390033692121506e-02
1.506260596215724945e-02
-5.287799867801368237e-04
-1.784111373126506805e-04
-3.951317630708217621e-03
-1.468187570571899414e-02
1.739259250462055206e-02
1.522569102235138416e-03
1.324444822967052460e-02
1.969231478869915009e-02
1.305171102285385132e-02
1.588412187993526459e-02
-1.591092534363269806e-02
-1.522472500801086426e-02
9.353611618280410767e-03
-9.987780824303627014e-03
-1.807985827326774597e-03
-1.218045502901077271e-02
-7.074277848005294800e-03
8.723275735974311829e-03
-1.456270110793411732e-03
2.966747619211673737e-03
-1.081489957869052887e-02
-9.296370670199394226e-03
-1.581050455570220947e-02
-1.585549558512866497e-03
-6.122226826846599579e-03
-1.053610350936651230e-02
3.054711734876036644e-03
7.629301398992538452e-03
-3.709519049152731895e-03
-1.536951027810573578e-02
-5.791303236037492752e-03
1.017164252698421478e-02
-1.775338500738143921e-02
1.276255585253238678e-02
-7.780439220368862152e-03
-3.208444919437170029e-03
-6.240650545805692673e-04
7.635972579009830952e-04
-6.152010988444089890e-03
3.541669808328151703e-03
-9.990372695028781891e-03
-3.650163998827338219e-03
2.200787421315908432e-03
-4.561505280435085297e-03
-4.417846910655498505e-03
-1.112951990216970444e-02
-2.065335400402545929e-02
-1.035519689321517944e-02
1.368630118668079376e-02
-5.032857414335012436e-03
-5.072341766208410263e-03
-1.927396468818187714e-02
1.388509385287761688e-02
-7.707936689257621765e-03
-1.548032835125923157e-02
-1.636428199708461761e-02
-3.692453959956765175e-03
-8.882484398782253265e-03
1.399034075438976288e-02
-1.200454775243997574e-03
4.649416077882051468e-03
1.447000913321971893e-02
8.019737899303436279e-03
1.531771756708621979e-02
1.813116483390331268e-02
-1.360332220792770386e-02
-6.932860240340232849e-03
1.911668665707111359e-02
4.141248296946287155e-03
1.240301877260208130e-02
-4.020258784294128418e-03
-1.993509009480476379e-03
-1.263151969760656357e-02
8.328376337885856628e-03
-5.751182325184345245e-03
-4.656800068914890289e-03
1.077220216393470764e-02
1.050717197358608246e-03
-1.489468105137348175e-02
1.091463118791580200e-02
1.158886402845382690e-02
-8.875709958374500275e-03
8.261226117610931396e-03
-2.694263821467757225e-03
1.842764951288700104e-02
1.890251995064318180e-03
-5.529362708330154419e-03
2.177622867748141289e-03
-1.017507538199424744e-02
-7.301765494048595428e-03
5.319209885783493519e-04
-1.419692113995552063e-02
1.765157841145992279e-02
1.874697767198085785e-02
-1.544654555618762970e-02
-1.557449623942375183e-02
-6.052256561815738678e-03
-8.025368675589561462e-03
-9.474661201238632202e-03
-2.017746120691299438e-02
-3.242322010919451714e-03
8.702024817466735840e-03
-2.033444866538047791e-02
-2.239711582660675049e-03
1.153028686530888081e-03
-1.495186879765242338e-04
-1.196796438307501376e-04
-7.256550714373588562e-03
-1.405671052634716034e-02
1.541790179908275604e-02
1.512999646365642548e-02
6.360897794365882874e-03
1.471282355487346649e-02
-2.648054389283061028e-03
-2.083173766732215881e-02
-3.158618696033954620e-03
1.938008819706737995e-03
-1.499129226431250572e-03
-3.463937609922140837e-04
5.921000411035493016e-05
1.407478936016559601e-02
-1.840708032250404358e-02
8.426191052421927452e-04
-1.266425661742687225e-02
1.049841754138469696e-02
-1.547656022012233734e-02
-1.803888194262981415e-02
-5.079415161162614822e-03
-7.854169234633445740e-03
-9.500796906650066376e-03
-2.222908893600106239e-03
9.861942380666732788e-03
1.586935482919216156e-02
-7.685460150241851807e-03
1.144482381641864777e-02
-3.873169887810945511e-03
1.337887905538082123e-02
1.331110484898090363e-02
9.560237522237002850e-04
1.564352400600910187e-02
-2.322026062756776810e-03
-1.551769115030765533e-02
1.522660441696643829e-02
1.452668337151408195e-03
-7.732068188488483429e-03
1.201300136744976044e-02
-1.760929636657238007e-02
6.642524152994155884e-03
-2.065233699977397919e-02
-2.043502591550350189e-02
-5.185902584344148636e-03
1.585747487843036652e-02
-6.176403723657131195e-03
-1.433430239558219910e-02
-7.967111654579639435e-03
1.383029855787754059e-02
-4.342712054494768381e-04
-8.149967528879642487e-03
-1.143634598702192307e-02
1.275967992842197418e-02
5.293669179081916809e-03
-1.449177227914333344e-02
8.675282821059226990e-03
5.804508924484252930e-03
-9.098662994801998138e-03
-4.696683026850223541e-03
-1.254972815513610840e-02
-8.566129952669143677e-03
-1.225186139345169067e-02
-3.089332312811166048e-04
9.497798164375126362e-04
-2.221101662144064903e-03
-2.315603662282228470e-03
-1.648787059821188450e-03
1.645563356578350067e-02
1.025019213557243347e-02
-1.275883242487907410e-02
-1.629639300517737865e-04
-4.853136837482452393e-03
9.584808140061795712e-04
1.043017953634262085e-03
2.094832248985767365e-02
4.140770528465509415e-03
-6.673569791018962860e-03
-1.284079044125974178e-03
1.011432707309722900e-02
-7.984605617821216583e-03
1.839741948060691357e-03
-1.637561945244669914e-03
-8.549991063773632050e-03
1.596795953810214996e-02
-1.621273159980773926e-02
-2.736870199441909790e-03
-2.490099752321839333e-03
2.067842520773410797e-02
5.137188825756311417e-03
1.687253452837467194e-02
9.740963578224182129e-03
1.983126066625118256e-02
1.156921312212944031e-02
-5.272878333926200867e-03
-7.679986767470836639e-03
2.003687433898448944e-02
-1.305122114717960358e-02
2.985704049933701754e-04
2.899052342399954796e-03
-1.065768674015998840e-02
4.059195052832365036e-03
1.961351744830608368e-02
1.208889670670032501e-02
5.886664730496704578e-04
-5.516819655895233154e-03
-1.556929200887680054e-02
-9.837386198341846466e-03
-1.913674920797348022e-02
-4.966384731233119965e-03
7.148573175072669983e-03
6.370792165398597717e-03
2.122759353369474411e-03
9.053779765963554382e-03
-1.328903809189796448e-02
-1.834992505609989166e-02
1.170027442276477814e-02
-1.727502234280109406e-02
2.126179169863462448e-03
1.670568250119686127e-02
1.182723976671695709e-02
-1.926326379179954529e-02
-5.592981353402137756e-03
7.574358955025672913e-03
3.938499838113784790e-03
-5.640237592160701752e-03
1.166502572596073151e-02
4.145953571423888206e-04
-1.555506698787212372e-02
1.553403399884700775e-02
-6.051658652722835541e-03
6.228516343981027603e-03
-7.914927788078784943e-03
-2.206793753430247307e-03
2.120714820921421051e-02
-7.413524203002452850e-03
1.552747376263141632e-02
1.731443963944911957e-02
5.544346757233142853e-03
-1.477811299264431000e-02
1.264439709484577179e-02
1.241799071431159973e-02
2.100617624819278717e-02
2.706867642700672150e-03
7.737800478935241699e-03
6.078740116208791733e-03
-2.860803389921784401e-03
-1.234853453934192657e-02
1.423976756632328033e-02
-1.299196272157132626e-03
3.080452792346477509e-03
1.340861245989799500e-02
2.783524570986628532e-03
1.072916761040687561e-02
3.912149404641240835e-04
-7.194108329713344574e-03
-6.595164537429809570e-03
8.323037996888160706e-03
1.567108742892742157e-02
1.413910277187824249e-02
-2.745494479313492775e-03
-1.174142863601446152e-02
-9.587427601218223572e-03
-3.138474188745021820e-03
-1.288722734898328781e-02
-2.066788822412490845e-02
-1.174129918217658997e-02
-1.868039928376674652e-02
-1.133285090327262878e-02
1.414457149803638458e-02
-5.980855319648981094e-03
9.510245174169540405e-03
-1.283632405102252960e-02
1.030314154922962189e-02
-1.277689449489116669e-02
1.517674140632152557e-02
-2.069317549467086792e-02
1.732294331304728985e-03
-1.117121800780296326e-02
1.420300267636775970e-02
1.595229376107454300e-03
4.259392619132995605e-03
5.092295468784868717e-04
8.102923631668090820e-03
-3.813315124716609716e-04
9.964989498257637024e-03
1.457267813384532928e-02
-1.272781658917665482e-02
-3.324775258079171181e-03
-4.557219333946704865e-03
-9.290905669331550598e-03
-4.373923409730195999e-03
-1.547256717458367348e-03
-2.949431363958865404e-04
-2.615694887936115265e-03
1.054145395755767822e-02
1.239205710589885712e-02
-5.783181637525558472e-03
2.397865289822220802e-03
1.004368998110294342e-02
-8.960728533565998077e-03
1.761014456860721111e-03
9.768052026629447937e-03
1.493057818152010441e-03
2.189355902373790741e-03
-1.468909718096256256e-02
1.573334075510501862e-02
1.951659657061100006e-02
1.190780103206634521e-02
-1.068413257598876953e-02
1.382917910814285278e-02
-1.187457889318466187e-02
-1.656293496489524841e-02
1.518642343580722809e-02
-2.476170891895890236e-03
-5.735729821026325226e-03
1.939598657190799713e-02
-2.525818999856710434e-03
-1.251705083996057510e-02
-1.332715153694152832e-02
-1.488171517848968506e-02
-1.380687206983566284e-02
-1.411321945488452911e-02
6.264694035053253174e-03
1.471433602273464203e-02
-1.573008671402931213e-02
2.877443796023726463e-03
1.689348556101322174e-02
3.211452567484229803e-04
-1.318879518657922745e-02
-1.695498824119567871e-02
-1.268570311367511749e-02
7.080098614096641541e-03
1.158594526350498199e-02
-4.781304858624935150e-03
3.603826276957988739e-03
-1.680923812091350555e-02
8.474281057715415955e-03
-6.211054860614240170e-04
-1.363691687583923340e-02
-7.782861357554793358e-04
1.020187698304653168e-02
9.940162301063537598e-03
1.152968220412731171e-02
-1.511066593229770660e-02
-1.047712005674839020e-02
-4.539386369287967682e-03
-1.594411768019199371e-02
1.097976230084896088e-02
-6.871812045574188232e-03
-7.009794935584068298e-03
7.156532257795333862e-03
-2.196902874857187271e-03
-9.958660230040550232e-03
1.572215743362903595e-02
2.020342834293842316e-02
8.339622290804982185e-04
3.232103539630770683e-03
1.242466643452644348e-02
-1.381270587444305420e-02
7.473219186067581177e-03
-9.127875819103792310e-05
2.080527134239673615e-02
6.115675787441432476e-04
-2.309503965079784393e-03
-7.813132368028163910e-03
1.738130487501621246e-02
-9.079216048121452332e-03
1.264634076505899429e-03
-8.918629959225654602e-03
-2.465642290189862251e-03
-7.961199618875980377e-03
1.742512919008731842e-02
1.385834068059921265e-02
1.862602122128009796e-02
8.738353848457336426e-03
-2.066303417086601257e-02
2.787108533084392548e-03
1.381747983396053314e-02
5.753703415393829346e-03
1.404727110639214516e-03
6.527157500386238098e-03
-1.825179532170295715e-02
9.218705818057060242e-03
-1.188621204346418381e-02
-8.771522901952266693e-03
1.223976723849773407e-02
1.460253261029720306e-02
-1.685874350368976593e-02
-1.388585381209850311e-02
1.358054764568805695e-02
1.681980327703058720e-03
-1.619430445134639740e-02
-1.951454952359199524e-02
1.320695318281650543e-02
-4.748926497995853424e-03
-1.158808078616857529e-02
-2.118781581521034241e-02
5.602827295660972595e-03
-6.291939876973628998e-03
1.595150493085384369e-02
-1.368633098900318146e-02
7.836440578103065491e-03
-1.217451225966215134e-02
5.117278546094894409e-03
1.860044710338115692e-02
2.056121639907360077e-02
1.855663023889064789e-02
-9.631405584514141083e-03
7.382478564977645874e-03
4.030159674584865570e-03
1.704201288521289825e-02
1.246112585067749023e-02
1.624358631670475006e-02
2.440974814817309380e-03
1.874844543635845184e-02
-3.590546548366546631e-03
-5.201447755098342896e-03
-2.400403842329978943e-03
-9.470907039940357208e-03
3.644924378022551537e-03
-8.995167911052703857e-03
1.039277762174606323e-02
1.004580990411341190e-03
9.345635771751403809e-03
1.125577464699745178e-02
-6.538077257573604584e-03
1.580067910254001617e-02
1.373835839331150055e-02
1.850210689008235931e-02
1.139453053474426270e-02
9.114902466535568237e-03
5.480046384036540985e-03
3.357026493176817894e-03
-1.653107628226280212e-02
-1.508124545216560364e-02
-1.960287243127822876e-02
9.778037667274475098e-03
7.730774581432342529e-03
-5.323397461324930191e-03
1.628625579178333282e-02
-7.432851009070873260e-03
1.343205012381076813e-02
-1.708428375422954559e-02
1.500730030238628387e-02
1.324979029595851898e-02
-5.453724879771471024e-03
4.009135067462921143e-03
5.881752818822860718e-03
1.009244285523891449e-02
-9.137307642959058285e-06
-1.874776370823383331e-02
3.730369266122579575e-03
-6.151214241981506348e-03
4.672020673751831055e-03
9.548706933856010437e-03
2.161347772926092148e-03
-7.590891909785568714e-04
2.199030946940183640e-03
-7.363894023001194000e-03
1.965635456144809723e-03
-9.429980069398880005e-03
8.712748065590858459e-03
-1.099812891334295273e-02
1.501688919961452484e-02
-1.134598720818758011e-02
-1.975126750767230988e-02
-1.912819035351276398e-02
-2.260186709463596344e-03
2.852627309039235115e-03
1.323491148650646210e-02
7.620472460985183716e-03
-1.049481611698865891e-02
-1.015782169997692108e-02
8.770888671278953552e-03
5.140834255144000053e-04
6.319196894764900208e-03
-6.495989859104156494e-03
3.701611654832959175e-03
-1.615136675536632538e-02
1.247159577906131744e-02
-1.038591470569372177e-02
-3.569150343537330627e-03
1.735103689134120941e-02
-8.766714483499526978e-03
4.772163927555084229e-03
-9.799269959330558777e-03
-6.789381615817546844e-03
-1.284319628030061722e-02
-9.904685430228710175e-03
-6.287386640906333923e-03
-1.360182091593742371e-02
-9.001521393656730652e-03
3.968082310166209936e-04
-1.432585529983043671e-02
-3.782990854233503342e-03
1.432975521311163902e-03
1.591603271663188934e-02
-1.506682671606540680e-02
-6.586089730262756348e-03
-1.826826110482215881e-02
-6.408101879060268402e-03
-3.247211920097470284e-03
1.138710416853427887e-02
-2.011988777667284012e-03
5.357319489121437073e-03
1.309181936085224152e-02
1.603722758591175079e-02
1.307347603142261505e-02
4.138905555009841919e-03
6.515078246593475342e-03
3.960058093070983887e-03
-1.044282130897045135e-02
4.343118780525401235e-05
-1.492596045136451721e-02
1.458233781158924103e-02
1.247578673064708710e-02
-1.765321381390094757e-02
-1.425980217754840851e-02
-1.349273417145013809e-02
7.873654365539550781e-03
-1.547688059508800507e-02
-1.465127989649772644e-02
-1.111330091953277588e-02
2.703684382140636444e-03
-6.273084320127964020e-03
1.164150796830654144e-02
-8.097732439637184143e-03
-1.225652545690536499e-02
9.577840566635131836e-03
-4.295200109481811523e-03
1.493126712739467621e-02
1.874944753944873810e-02
-4.878723062574863434e-03
-1.390288770198822021e-02
1.510454900562763214e-02
1.677604205906391144e-02
-1.452573761343955994e-02
1.466972753405570984e-02
6.522402167320251465e-03
-8.667472284287214279e-04
-1.348297297954559326e-02
5.192575510591268539e-03
-5.223095417022705078e-03
-1.855912501923739910e-03
-6.861683912575244904e-03
-1.573880203068256378e-02
9.389905259013175964e-03
-2.998940879479050636e-03
8.897643536329269409e-03
-8.304715156555175781e-03
-1.829752139747142792e-02
2.567831892520189285e-03
1.431727595627307892e-02
2.281304216012358665e-03
-7.183485664427280426e-03
5.760859494330361485e-05
-1.165970787405967712e-02
7.933359593152999878e-03
-1.304441690444946289e-02
-1.864856854081153870e-02
1.326728425920009613e-02
7.317084819078445435e-03
1.553724892437458038e-02
-3.321919124573469162e-03
-1.166160404682159424e-02
3.122130408883094788e-03
-1.394339278340339661e-02
-7.312064990401268005e-03
7.933573797345161438e-03
1.007693074643611908e-02
-1.264480222016572952e-02
-1.466600224375724792e-02
-8.961470797657966614e-03
3.090278944000601768e-03
-4.248973913490772247e-03
-3.364900592714548111e-03
-4.342474509030580521e-03
-1.452697254717350006e-02
9.653212502598762512e-03
1.478720642626285553e-02
1.516934670507907867e-02
-4.866416566073894501e-03
1.628814078867435455e-02
2.511599159333854914e-04
1.807661913335323334e-02
2.071926556527614594e-02
-1.064246147871017456e-02
7.257513701915740967e-03
-1.426135562360286713e-02
-1.018648035824298859e-02
1.482972875237464905e-02
1.793922670185565948e-02
-1.474523334763944149e-03
-1.568770408630371094e-02
1.395802199840545654e-02
-5.770815536379814148e-03
-7.775304839015007019e-03
1.703607104718685150e-02
-1.219009794294834137e-02
-7.783869281411170959e-03
1.558712217956781387e-03
8.510757237672805786e-03
1.281254738569259644e-02
-3.982324415119364858e-05
-5.433546379208564758e-03
2.141916658729314804e-03
8.309556869789958000e-04
9.670702740550041199e-03
1.541793160140514374e-02
8.616782724857330322e-03
1.790437730960547924e-03
-1.513744518160820007e-02
-4.749328829348087311e-03
-1.328125782310962677e-02
-6.115962751209735870e-03
6.383463740348815918e-03
-2.003625035285949707e-03
-1.407527131959795952e-03
-1.065907999873161316e-02
1.460454054176807404e-02
8.456518873572349548e-03
-1.113962754607200623e-02
-1.597985997796058655e-02
1.568822003901004791e-02
5.080951377749443054e-03
7.374733686447143555e-03
1.425453089177608490e-02
8.910538628697395325e-03
7.491216063499450684e-03
5.710462108254432678e-03
7.610445842146873474e-03
-3.567314939573407173e-03
7.949501276016235352e-03
4.579301923513412476e-03
-5.538781988434493542e-04
-1.004824414849281311e-02
-9.548593312501907349e-03
3.424531547352671623e-03
-1.203155261464416981e-03
-1.369017548859119415e-02
-1.198456902056932449e-02
-2.053166553378105164e-02
-1.156419748440384865e-03
-1.248751673847436905e-02
-4.071733914315700531e-03
1.500178314745426178e-02
8.164146915078163147e-03
3.757966216653585434e-03
9.716188535094261169e-03
-2.068417891860008240e-02
-6.872234866023063660e-03
-1.873811706900596619e-02
7.587952539324760437e-03
-5.536905955523252487e-03
-2.766760997474193573e-03
1.461411081254482269e-02
-1.219334453344345093e-02
2.263706177473068237e-03
2.975957933813333511e-03
9.659130126237869263e-03
6.623668596148490906e-03
9.194273501634597778e-03
2.302283421158790588e-03
1.225485466420650482e-02
1.790200360119342804e-02
1.931157149374485016e-02
8.359814062714576721e-03
-1.179733499884605408e-02
1.137537881731987000e-02
1.834421418607234955e-02
6.232799962162971497e-03
1.560792885720729828e-02
4.223133902996778488e-03
1.974397711455821991e-02
1.409542746841907501e-02
-8.373103104531764984e-03
-9.646204416640102863e-04
-2.784377895295619965e-03
-1.573964580893516541e-02
6.194114685058593750e-03
4.850029945373535156e-03
-2.823406248353421688e-06
5.511083290912210941e-04
2.554156351834535599e-03
3.784987609833478928e-03
1.112581230700016022e-02
2.399133518338203430e-03
2.671609399840235710e-03
-1.023261249065399170e-02
-1.525096781551837921e-02
1.686704717576503754e-02
-1.749587617814540863e-02
3.119191154837608337e-03
-1.619038544595241547e-02
-1.664660871028900146e-02
1.199843361973762512e-02
2.059496752917766571e-02
-6.568741053342819214e-03
1.373018324375152588e-02
-9.962443727999925613e-04
-4.887340590357780457e-03
1.916747353971004486e-02
2.015786059200763702e-02
-5.000618286430835724e-03
-4.464705474674701691e-03
-1.777441939339041710e-03
-6.886668852530419827e-04
4.441061057150363922e-03
8.509479463100433350e-03
1.695241220295429230e-02
2.162330551072955132e-03
1.724853925406932831e-02
1.320604421198368073e-02
6.624339148402214050e-03
1.359185203909873962e-02
5.165020469576120377e-03
-1.067587733268737793e-02
-1.897384598851203918e-02
4.678377881646156311e-04
-3.390795085579156876e-03
-1.466363482177257538e-02
-1.054250448942184448e-02
7.220646366477012634e-03
-5.286022205837070942e-04
-2.088613994419574738e-02
-1.803702325560152531e-03
-1.100014615803956985e-02
2.442369470372796059e-03
-7.344220764935016632e-03
-7.528981193900108337e-03
-5.498006008565425873e-03
-9.554860182106494904e-03
-7.568964734673500061e-03
-9.520600433461368084e-04
-1.714205741882324219e-02
6.913300603628158569e-03
4.565572366118431091e-03
1.097537693567574024e-03
3.694602521136403084e-03
6.259616464376449585e-03
1.149561814963817596e-02
-1.207124907523393631e-02
1.247830502688884735e-02
-2.463092096149921417e-03
-1.748203858733177185e-02
1.229018904268741608e-02
1.161167211830615997e-02
1.769068278372287750e-02
-1.591731049120426178e-02
-1.355707459151744843e-02
2.036218158900737762e-02
-1.376122795045375824e-02
-4.124097526073455811e-03
1.282150484621524811e-02
9.743582457304000854e-03
-1.618313370272517204e-03
1.856020279228687286e-02
6.670854985713958740e-03
1.742240600287914276e-02
-1.076043117791414261e-02
-1.464133895933628082e-02
1.822550036013126373e-02
-6.741621531546115875e-03
-3.894751658663153648e-03
1.076616160571575165e-02
-6.963642314076423645e-03
-5.179543048143386841e-03
-9.922657161951065063e-03
-1.115212682634592056e-02
-8.519459515810012817e-03
1.070531271398067474e-02
-1.389049924910068512e-02
6.455975119024515152e-03
1.086123846471309662e-02
3.444052534177899361e-03
1.130420155823230743e-02
-2.732221037149429321e-03
-1.021187985315918922e-03
6.653241813182830811e-03
4.899122286587953568e-03
3.582048462703824043e-03
-1.619858667254447937e-02
-1.203303597867488861e-02
-2.761990763247013092e-03
-1.026441156864166260e-02
5.862619727849960327e-03
-1.510304585099220276e-02
-9.853400290012359619e-03
-1.317724026739597321e-02
1.587622053921222687e-02
-8.481198921799659729e-03
-4.279960878193378448e-03
1.118713058531284332e-02
-1.484237238764762878e-02
-9.417028166353702545e-03
-6.122082471847534180e-03
-1.914374157786369324e-02
7.359728217124938965e-03
-1.367128267884254456e-02
-1.872263289988040924e-02
-2.020209655165672302e-02
-8.099202997982501984e-03
-8.348626084625720978e-03
-1.495275460183620453e-02
9.945807978510856628e-03
8.020125329494476318e-03
1.239642687141895294e-02
-6.485525052994489670e-03
3.763380926102399826e-03
-1.074379961937665939e-02
2.336470410227775574e-03
-1.809323765337467194e-02
-1.247201580554246902e-02
-1.726777106523513794e-02
-1.364245824515819550e-02
1.501689292490482330e-02
1.147781149484217167e-03
-5.100376438349485397e-03
-1.654902100563049316e-02
2.535834209993481636e-04
-2.025826275348663330e-02
-1.090775243937969208e-02
-2.175543457269668579e-03
5.803827196359634399e-03
-6.538492627441883087e-03
-5.200527608394622803e-03
-9.257760830223560333e-03
-1.345680444501340389e-03
-1.187008433043956757e-02
2.173177665099501610e-03
-1.009499467909336090e-02
-8.006691932678222656e-03
1.789461635053157806e-02
5.702595226466655731e-03
4.237121436744928360e-03
-2.343016676604747772e-03
1.610872708261013031e-02
1.739767962135374546e-03
-9.202495217323303223e-03
3.277881536632776260e-03
-5.883188714506104589e-05
3.957786597311496735e-03
-6.693273782730102539e-03
9.510315954685211182e-03
8.101340383291244507e-03
-6.643525324761867523e-03
-1.046892534941434860e-02
-8.937118691392242908e-04
-5.544739775359630585e-03
2.304785884916782379e-03
2.729419618844985962e-03
1.434810832142829895e-02
-7.971913553774356842e-03
1.121555455029010773e-02
4.467625170946121216e-03
-9.032037109136581421e-03
-1.636339165270328522e-02
-2.930232789367437363e-03
1.499245129525661469e-02
1.265052519738674164e-02
9.276414290070533752e-03
-1.543929427862167358e-02
7.592083886265754700e-03
1.492018438875675201e-02
-8.009843528270721436e-03
-1.125623751431703568e-02
-1.346512883901596069e-02
1.997591741383075714e-02
2.084076963365077972e-02
2.157756872475147247e-02
1.149345561861991882e-02
1.530282385647296906e-02
1.052098348736763000e-02
9.675614535808563232e-03
-1.001050882041454315e-02
1.579331420361995697e-02
-3.236189717426896095e-03
-1.166615076363086700e-02
1.757396571338176727e-02
7.219379767775535583e-03
1.154651120305061340e-02
-2.509476151317358017e-03
1.130762696266174316e-02
-1.013660989701747894e-02
1.592815737240016460e-03
-8.653497323393821716e-03
-6.598519394174218178e-04
1.515928842127323151e-02
1.013811491429805756e-02
-1.516344025731086731e-02
4.556221887469291687e-03
-8.746419101953506470e-03
9.206688031554222107e-03
4.914017044939100742e-04
-1.493028015829622746e-03
7.668793201446533203e-03
-3.705600043758749962e-03
7.602527737617492676e-03
8.866634219884872437e-03
-8.837826550006866455e-03
1.061922870576381683e-02
-1.635890640318393707e-02
-5.768398288637399673e-03
4.493463784456253052e-03
2.843535738065838814e-03
-4.477170761674642563e-03
1.316513679921627045e-02
-8.615279570221900940e-03
-1.897280104458332062e-02
-4.706545732915401459e-03
-9.941932745277881622e-03
1.340327225625514984e-02
-2.045448124408721924e-02
-3.444673959165811539e-03
-1.196676399558782578e-02
7.387915626168251038e-03
-1.167008653283119202e-02
-3.706501447595655918e-04
1.859136112034320831e-02
1.098472811281681061e-02
-5.624366924166679382e-03
-8.168824715539813042e-04
-6.602766923606395721e-03
1.772285066545009613e-02
2.007162384688854218e-02
4.591058008372783661e-03
-1.487151137553155422e-03
-9.847264736890792847e-03
7.728910713922232389e-05
8.284877985715866089e-03
1.488934457302093506e-02
1.475754752755165100e-02
-9.890797547996044159e-03
4.630510229617357254e-03
-1.399019919335842133e-02
-1.327895745635032654e-02
1.713249273598194122e-02
4.078076686710119247e-03
-8.967906236648559570e-03
1.853355951607227325e-02
1.625580899417400360e-02
1.275560818612575531e-02
7.013149559497833252e-03
1.388113014400005341e-03
1.212657988071441650e-02
-1.148180686868727207e-03
1.496533164754509926e-03
2.815065206959843636e-03
1.704006339423358440e-03
4.143957048654556274e-03
-1.095406152307987213e-02
-7.597945630550384521e-03
-1.593845710158348083e-02
4.764607176184654236e-03
1.618741638958454132e-02
-1.090655382722616196e-02
-1.201002951711416245e-02
2.028803573921322823e-03
-1.571235992014408112e-02
6.102317944169044495e-03
1.065752469003200531e-02
-7.988583296537399292e-03
1.535433717072010040e-02
1.522579230368137360e-02
4.990773275494575500e-03
-1.530088670551776886e-02
1.382896490395069122e-02
-1.626218669116497040e-03
-1.104614231735467911e-02
-9.639919735491275787e-03
-1.511784736067056656e-02
-6.529421545565128326e-03
-1.122600492089986801e-02
1.620152406394481659e-02
-1.635245280340313911e-03
-1.808574236929416656e-02
1.617773808538913727e-02
1.028333790600299835e-02
-4.812549799680709839e-03
-2.487662946805357933e-03
1.140362210571765900e-02
1.201046630740165710e-02
1.990696415305137634e-03
-1.422588527202606201e-02
-1.441339962184429169e-02
-7.816347293555736542e-03
1.028080657124519348e-02
7.078405469655990601e-03
1.124843209981918335e-02
6.660187616944313049e-03
-9.656435810029506683e-03
1.075069792568683624e-02
-1.154507230967283249e-02
1.847350783646106720e-02
-8.139081299304962158e-03
2.086057094857096672e-03
9.771184995770454407e-03
-7.708569173701107502e-04
1.827065460383892059e-02
1.506951265037059784e-02
1.324156485497951508e-02
9.757193620316684246e-04
5.036568269133567810e-03
6.549855694174766541e-03
3.515149466693401337e-03
-1.337379217147827148e-02
-4.106542561203241348e-03
-9.582030586898326874e-03
-1.427782792598009109e-02
-4.157526884227991104e-03
5.135618150234222412e-03
-1.534318644553422928e-02
3.166718408465385437e-03
1.871952437795698643e-03
-1.342486962676048279e-02
-3.015120513737201691e-03
1.213773898780345917e-02
1.169556006789207458e-02
-1.263347081840038300e-02
-6.026648916304111481e-03
7.190421223640441895e-03
-3.181724809110164642e-03
-8.026072755455970764e-03
-1.142401434481143951e-02
-2.341250889003276825e-03
1.863568089902400970e-02
-3.343289252370595932e-03
-3.627159865573048592e-03
-1.053636078722774982e-03
-1.454607024788856506e-02
2.132396958768367767e-02
3.867942839860916138e-03
-1.451180316507816315e-02
7.103879004716873169e-03
1.522638089954853058e-02
-1.265930756926536560e-02
1.319126971065998077e-02
-2.201616298407316208e-04
1.558449305593967438e-02
1.722359098494052887e-02
1.884001679718494415e-02
1.199395954608917236e-02
-1.105849072337150574e-02
-1.285949908196926117e-02
2.426442457363009453e-03
1.529026962816715240e-02
2.182966098189353943e-03
-8.018987253308296204e-03
4.234387539327144623e-03
-4.090415779501199722e-03
1.355181448161602020e-02
-1.073186192661523819e-02
-1.103106699883937836e-02
-3.479934763163328171e-03
1.359814591705799103e-02
8.968031033873558044e-03
8.461631834506988525e-03
3.135161474347114563e-03
-2.091782866045832634e-03
-1.471381820738315582e-02
1.237604953348636627e-02
8.660744875669479370e-03
-1.105336379259824753e-02
9.876476600766181946e-03
-6.458486896008253098e-04
6.895603612065315247e-03
1.556693576276302338e-02
-1.522725913673639297e-02
2.572745550423860550e-03
-1.900003477931022644e-02
1.589007861912250519e-02
1.029040478169918060e-02
7.500644773244857788e-03
-8.593157865107059479e-03
-5.859017255716025829e-04
-1.921674609184265137e-02
2.070104004815220833e-03
-8.874652907252311707e-03
2.876819344237446785e-03
1.626325584948062897e-02
2.326092508155852556e-04
1.527833752334117889e-02
-8.266997523605823517e-03
2.843088703230023384e-03
-7.546500419266521931e-04
-1.599266938865184784e-02
3.888061270117759705e-03
1.594141707755625248e-03
-4.562903195619583130e-03
-1.323699206113815308e-02
1.374857127666473389e-02
-1.865483704023063183e-03
2.950583817437291145e-03
-3.747402224689722061e-03
1.533416844904422760e-02
-1.017624791711568832e-02
-1.346288993954658508e-02
1.699053682386875153e-02
6.911210715770721436e-03
8.503861725330352783e-03
-9.737212210893630981e-03
-3.623398253694176674e-03
3.454680263530462980e-04
2.300271065905690193e-03
6.431582383811473846e-03
-1.226500840857625008e-03
-7.983622141182422638e-03
3.960816189646720886e-03
-3.073023399338126183e-03
-7.507135160267353058e-03
1.439817436039447784e-02
-1.012078765779733658e-02
-1.730194129049777985e-02
3.192264586687088013e-03
-5.721076391637325287e-03
-6.257343105971813202e-03
4.952931776642799377e-03
5.370901897549629211e-03
4.409133689478039742e-04
1.565751247107982635e-02
2.125450875610113144e-03
1.410792209208011627e-02
-1.338545791804790497e-02
-1.448190771043300629e-02
-8.464247919619083405e-03
-1.393717434257268906e-02
-8.396548219025135040e-03
6.570996716618537903e-03
-1.743086613714694977e-02
-6.019677501171827316e-03
-1.292794477194547653e-02
6.704678758978843689e-03
1.314645074307918549e-02
-5.413842853158712387e-03
-2.317859325557947159e-03
-6.729343906044960022e-03
-1.324926409870386124e-02
-7.741601206362247467e-03
1.858416013419628143e-02
2.565602539107203484e-03
9.753014892339706421e-03
1.771752350032329559e-02
9.711643680930137634e-03
1.677573658525943756e-02
-1.126095093786716461e-02
1.418582908809185028e-02
1.856133155524730682e-02
7.347406819462776184e-03
-4.335471428930759430e-03
-1.075669098645448685e-02
-1.676983782090246677e-03
6.634179502725601196e-03
-1.090987585484981537e-02
1.338369771838188171e-02
9.244378656148910522e-03
1.863981969654560089e-02
5.283020436763763428e-03
1.783380098640918732e-02
-2.187235746532678604e-03
5.133617203682661057e-03
1.159705035388469696e-02
-6.335914134979248047e-03
7.263202220201492310e-03
-7.203374058008193970e-03
4.224041476845741272e-03
-4.917750135064125061e-03
1.500909961760044098e-02
-1.809959299862384796e-02
-1.184727251529693604e-02
-1.561100222170352936e-02
7.643911987543106079e-03
-8.179399184882640839e-03
7.114298641681671143e-03
4.815079271793365479e-03
-4.981344100087881088e-04
1.531702466309070587e-02
1.761798514053225517e-03
-1.034116279333829880e-02
4.076804965734481812e-03
2.350520342588424683e-03
1.023923419415950775e-02
-1.261943951249122620e-03
1.273689232766628265e-02
-1.551563106477260590e-02
-7.283163256943225861e-03
-8.223614655435085297e-03
1.597680617123842239e-03
-1.078080749721266329e-04
-1.625752262771129608e-02
1.698068343102931976e-02
-1.269432599656283855e-03
-1.078107021749019623e-02
1.899101771414279938e-02
4.459186457097530365e-03
-2.090008230879902840e-03
-1.187713164836168289e-02
8.786169812083244324e-03
1.978917978703975677e-02
1.168653927743434906e-02
1.124983839690685272e-02
5.736962426453828812e-03
-1.534454524517059326e-02
5.634572822600603104e-03
-1.007934473454952240e-02
-5.692110396921634674e-03
-1.516737416386604309e-02
2.022903226315975189e-02
-1.552743092179298401e-02
-1.991369761526584625e-03
1.508097723126411438e-02
4.229982849210500717e-03
1.585179008543491364e-02
9.411169216036796570e-03
1.362769119441509247e-02
1.216987706720829010e-02
1.043794490396976471e-02
9.282357990741729736e-03
4.679260018747299910e-05
-3.364764619618654251e-03
1.610527746379375458e-02
-3.550651716068387032e-03
-6.871867924928665161e-03
1.079540888895280659e-04
8.430909365415573120e-03
-1.561230747029185295e-03
-4.429684020578861237e-03
4.006184637546539307e-03
-1.792944967746734619e-02
-1.523097977042198181e-02
9.117422625422477722e-03
2.319829538464546204e-03
6.679587066173553467e-03
1.270998828113079071e-02
-2.142949728295207024e-03
1.313181780278682709e-02
-7.570887915790081024e-03
-1.475822832435369492e-02
-1.747004128992557526e-02
-6.750759668648242950e-03
-2.085180580615997314e-02
-8.111329749226570129e-03
-1.488193124532699585e-02
7.846511900424957275e-03
1.383440382778644562e-02
-1.388893462717533112e-02
-1.045869756489992142e-02
2.117052208632230759e-03
1.214953511953353882e-02
8.604535833001136780e-03
-6.572059355676174164e-03
1.595855690538883209e-02
-7.112250663340091705e-03
-1.009545521810650826e-03
1.758315600454807281e-02
1.448360085487365723e-02
9.734736755490303040e-03
9.438343346118927002e-03
-1.583725586533546448e-02
8.163288235664367676e-03
-4.398852586746215820e-03
-1.030410267412662506e-02
1.787539385259151459e-02
1.127956807613372803e-02
2.037154976278543472e-03
4.062391817569732666e-03
1.672919653356075287e-02
-8.222531527280807495e-03
2.107827924191951752e-02
9.002421051263809204e-03
-8.966728113591670990e-03
1.131511293351650238e-03
1.971641369163990021e-02
-6.737969815731048584e-03
-3.022801596671342850e-03
-1.420662447344511747e-04
-8.782819844782352448e-03
-2.068042196333408356e-02
-3.173789242282509804e-03
5.501970648765563965e-03
9.962465614080429077e-03
5.777012556791305542e-03
1.217977143824100494e-02
8.355082944035530090e-03
5.444940179586410522e-03
-1.462023518979549408e-02
1.289283670485019684e-02
-2.753364620730280876e-03
-1.994516700506210327e-02
-5.915148067288100719e-04
4.467079415917396545e-03
-1.504211500287055969e-02
-1.807532273232936859e-02
1.497823931276798248e-02
-1.172638032585382462e-03
-1.871495880186557770e-02
-2.127513661980628967e-02
6.838481873273849487e-03
4.891978576779365540e-03
-1.621276885271072388e-02
-1.928045041859149933e-02
5.005702376365661621e-03
5.006525665521621704e-03
-1.833986118435859680e-02
1.025939360260963440e-02
4.484115634113550186e-03
9.916154667735099792e-03
1.515690796077251434e-02
-1.099996361881494522e-02
-8.167575113475322723e-03
-1.545442454516887665e-02
1.194997131824493408e-02
1.058152504265308380e-02
-9.556723758578300476e-03
9.910109220072627068e-04
-1.451347954571247101e-02
-4.441945813596248627e-03
1.212700456380844116e-02
-1.438253186643123627e-02
8.866022108122706413e-04
-8.122172206640243530e-03
1.830133236944675446e-02
-1.006275415420532227e-02
-1.361210271716117859e-02
1.186355482786893845e-03
-1.140557229518890381e-02
8.178647607564926147e-03
-1.892559602856636047e-02
-1.094369776546955109e-02
1.228339783847332001e-02
1.202272437512874603e-02
-1.527959387749433517e-02
6.581053137779235840e-03
1.239776844158768654e-03
-8.420647121965885162e-03
1.196340285241603851e-02
1.200852729380130768e-02
-1.717506907880306244e-02
-1.868963055312633514e-02
-1.583791524171829224e-02
5.173724144697189331e-03
-7.416129112243652344e-03
1.538288034498691559e-02
-9.838260710239410400e-03
1.419276930391788483e-02
4.350982606410980225e-03
-1.547647174447774887e-02
-4.590746480971574783e-03
-8.744439110159873962e-03
-1.203123596496880054e-03
-1.203943789005279541e-02
-1.694830250926315784e-03
3.445573151111602783e-03
-1.388359442353248596e-02
2.568425843492150307e-03
1.717139966785907745e-02
-1.131398044526576996e-02
1.661746762692928314e-02
1.244632713496685028e-02
1.628529839217662811e-02
1.359592564404010773e-02
-5.850686691701412201e-03
-3.889693645760416985e-03
-1.158141065388917923e-02
6.783070508390665054e-03
-7.638496346771717072e-03
3.195846511516720057e-04
8.674254640936851501e-03
-7.041903212666511536e-03
4.559324588626623154e-03
-1.355184055864810944e-02
6.102295126765966415e-03
-1.464288868010044098e-02
2.226323587819933891e-03
2.015327848494052887e-02
1.482331193983554840e-02
2.134483121335506439e-02
3.689963137730956078e-03
1.664983667433261871e-02
1.940404437482357025e-02
-1.197679899632930756e-03
2.739103743806481361e-03
-1.331334561109542847e-02
-9.195054881274700165e-03
9.634541347622871399e-03
-1.021279385895468295e-04
-1.794832386076450348e-02
-1.393213681876659393e-02
-1.191403251141309738e-02
-1.557832211256027222e-02
-9.671091102063655853e-03
-2.001657709479331970e-02
1.397329010069370270e-02
-1.551220379769802094e-02
-1.624147407710552216e-02
-8.942329324781894684e-03
9.809836774365976453e-05
-1.142107974737882614e-02
-1.676527410745620728e-02
-1.972692273557186127e-02
-1.153676863759756088e-02
-1.373788155615329742e-02
4.170009866356849670e-03
-2.029410563409328461e-02
6.701797246932983398e-03
5.249274545349180698e-04
-1.993701606988906860e-02
-3.594150068238377571e-03
2.528379205614328384e-03
5.133559927344322205e-03
1.428135298192501068e-02
-1.627533580176532269e-03
5.596966017037630081e-03
1.502437284216284752e-03
-1.539634354412555695e-02
5.316807888448238373e-03
-8.802659809589385986e-03
-1.136413216590881348e-02
1.856218092143535614e-02
2.808505087159574032e-06
6.505635567009449005e-03
-1.838120631873607635e-03
-4.351628944277763367e-03
8.742930367588996887e-04
-3.562958911061286926e-03
-1.296554808504879475e-03
-4.937768244417384267e-05
3.032374428585171700e-03
-1.551854796707630157e-02
1.739332266151905060e-02
-8.235796354711055756e-03
-2.530015539377927780e-03
-2.548538614064455032e-03
-1.620586216449737549e-02
-2.850988181307911873e-03
-1.019559055566787720e-02
9.630758315324783325e-03
1.328251697123050690e-02
8.885106217348948121e-05
7.414393126964569092e-03
1.083055324852466583e-02
-6.642531603574752808e-03
6.040435284376144409e-03
5.703739821910858154e-03
1.302976720035076141e-02
1.139075495302677155e-02
-2.031752653419971466e-02
-7.184132933616638184e-03
-5.929652135819196701e-03
1.389608019962906837e-03
-1.954311504960060120e-02
9.054351598024368286e-03
2.310654148459434509e-03
-1.532181538641452789e-02
1.597287692129611969e-02
-3.789983224123716354e-03
-4.429179243743419647e-03
-7.412530481815338135e-03
1.386797986924648285e-02
-1.949215494096279144e-02
-9.768083691596984863e-03
4.807291552424430847e-03
-7.640562020242214203e-03
-1.752155274152755737e-02
-3.917066380381584167e-03
-4.467120394110679626e-03
9.147902950644493103e-03
1.316043175756931305e-02
-8.998380042612552643e-03
-1.333507336676120758e-02
-1.507807639427483082e-03
1.150908879935741425e-02
1.318502053618431091e-02
1.378251798450946808e-02
-8.048968156799674034e-04
1.911216787993907928e-02
1.522947289049625397e-02
-1.043089944869279861e-02
-1.502497866749763489e-02
-8.791719563305377960e-03
-3.513103350996971130e-03
2.059830538928508759e-02
1.135032437741756439e-02
1.757005043327808380e-02
5.464173387736082077e-03
1.826458610594272614e-02
1.942321099340915680e-02
-6.244020536541938782e-03
9.351141750812530518e-03
1.410421915352344513e-02
1.457896269857883453e-02
-3.295494476333260536e-03
7.440207526087760925e-03
-7.692079991102218628e-03
1.033678837120532990e-02
-2.025046199560165405e-02
-1.643826067447662354e-02
1.446506567299365997e-02
5.421601235866546631e-03
-1.387962419539690018e-02
-2.071203850209712982e-02
1.347708143293857574e-02
-1.165730226784944534e-02
-1.145866233855485916e-02
8.870152756571769714e-03
8.122390136122703552e-03
1.460731588304042816e-02
-7.424552924931049347e-03
1.297131367027759552e-02
-1.697049289941787720e-02
-1.689102686941623688e-02
-2.080009691417217255e-02
-1.091297343373298645e-02
1.055439561605453491e-02
-5.238968878984451294e-03
-8.472926914691925049e-03
-1.526574045419692993e-02
-1.529660448431968689e-02
4.837086889892816544e-03
1.039806939661502838e-02
-1.413127174600958824e-03
9.436056017875671387e-03
-1.252409443259239197e-02
-4.998794756829738617e-03
2.108124457299709320e-02
1.101032458245754242e-02
5.103232339024543762e-03
1.112238876521587372e-02
1.540438644587993622e-02
-5.627542734146118164e-03
9.434567764401435852e-03
1.829936541616916656e-02
6.854142993688583374e-03
-3.767398651689291000e-03
-4.018133768113330007e-05
-8.085310459136962891e-03
1.536871306598186493e-02
8.841792121529579163e-03
7.756473496556282043e-03
-1.183080859482288361e-02
1.761885546147823334e-02
-2.673275535926222801e-03
1.332916878163814545e-02
1.859602145850658417e-02
1.782656647264957428e-02
2.868137555196881294e-03
1.454759202897548676e-02
1.415058784186840057e-02
9.282207116484642029e-03
-4.793568048626184464e-03
-3.469478106126189232e-03
8.147543296217918396e-03
-1.237712241709232330e-02
8.680503815412521362e-03
-1.765321008861064911e-02
1.427547447383403778e-02
1.254648901522159576e-02
1.421277038753032684e-02
6.979951635003089905e-03
-1.296408195048570633e-02
-5.851328838616609573e-03
4.891535267233848572e-03
4.491373896598815918e-03
1.278715766966342926e-02
-1.440423820167779922e-02
-1.948193646967411041e-02
-8.088653557933866978e-04
4.827596247196197510e-03
-1.401451043784618378e-02
1.102930493652820587e-02
-1.977675780653953552e-02
-3.892519976943731308e-03
-1.984684169292449951e-02
1.745217107236385345e-02
1.587233878672122955e-02
1.963917724788188934e-02
-1.000468060374259949e-02
-1.451396197080612183e-02
7.505234330892562866e-03
-1.588446553796529770e-03
-8.913639932870864868e-03
-8.943047374486923218e-03
1.898814924061298370e-02
1.036811061203479767e-02
-1.061464473605155945e-02
2.007592655718326569e-02
1.812477968633174896e-02
7.417265325784683228e-03
-1.371345296502113342e-02
9.788921102881431580e-03
-5.559378303587436676e-03
6.785326171666383743e-03
-5.814756266772747040e-03
-8.053651079535484314e-03
-2.148091327399015427e-03
1.901367865502834320e-02
-2.852372126653790474e-03
3.340515075251460075e-03
-1.152531243860721588e-02
2.876874059438705444e-03
-1.493017747998237610e-02
1.784043945372104645e-02
-1.898291520774364471e-02
-5.213103722780942917e-03
-1.198472338728606701e-03
-7.787505164742469788e-03
-1.266881264746189117e-02
9.609356522560119629e-03
1.376498304307460785e-02
-2.510061953216791153e-03
8.195765316486358643e-03
-5.523250438272953033e-03
-9.484257549047470093e-03
-9.286622516810894012e-03
-2.056658454239368439e-02
-1.561459340155124664e-02
-1.770479232072830200e-02
-1.096643321216106415e-02
-6.052515003830194473e-03
5.146171897649765015e-03
1.006612367928028107e-02
-2.423059893772006035e-03
-1.714439876377582550e-02
9.026691317558288574e-03
9.563624858856201172e-03
-1.528349705040454865e-02
9.446298703551292419e-03
-9.360699914395809174e-03
-9.275265969336032867e-03
1.359699852764606476e-02
9.689614176750183105e-03
-1.317417435348033905e-02
1.304358057677745819e-02
2.032007463276386261e-02
6.095403805375099182e-03
1.990409009158611298e-02
-7.548754103481769562e-03
1.334081403911113739e-02
7.852636277675628662e-03
-3.939951770007610321e-03
-4.810165264643728733e-04
-7.577626965939998627e-03
1.129020936787128448e-02
1.976673491299152374e-02
1.183957606554031372e-02
5.334001500159502029e-03
2.232821658253669739e-03
-6.103496067225933075e-03
-1.586757134646177292e-03
-1.035403180867433548e-02
-1.246743369847536087e-03
-5.830991081893444061e-03
1.301413401961326599e-02
3.024173434823751450e-03
-1.228624023497104645e-02
-6.512153893709182739e-03
8.922899141907691956e-03
-2.246423624455928802e-03
-1.286245137453079224e-02
-1.077350601553916931e-02
-1.389154931530356407e-03
-1.540317898616194725e-03
3.677957924082875252e-03
2.775833941996097565e-03
-2.095710113644599915e-02
-1.806155033409595490e-02
9.350713342428207397e-03
-1.218488905578851700e-02
-7.522150874137878418e-03
-1.221505925059318542e-02
8.472857996821403503e-03
-8.638560771942138672e-03
-1.211169827729463577e-02
-1.161834038794040680e-02
6.893124431371688843e-03
-1.797843724489212036e-02
-1.592768356204032898e-02
-3.993495833128690720e-03
5.790894851088523865e-03
-1.958930678665637970e-02
-8.410445414483547211e-03
-1.509520597755908966e-02
-1.379591785371303558e-02
-3.464445238932967186e-03
-2.190718892961740494e-03
-5.376217886805534363e-03
-1.461993553675711155e-03
-1.964609138667583466e-03
9.049855172634124756e-03
6.694070994853973389e-03
-7.280101068317890167e-03
2.061874978244304657e-02
1.066923886537551880e-02
-8.686815388500690460e-03
-1.466702669858932495e-02
1.630821265280246735e-02
1.594004593789577484e-02
-1.475631608627736568e-03
1.943146996200084686e-02
-1.347254961729049683e-02
1.412084512412548065e-02
1.089849136769771576e-02
1.888290862552821636e-03
1.015390269458293915e-02
-1.099376007914543152e-02
-5.068720318377017975e-03
1.933587901294231415e-02
9.337687864899635315e-03
-9.238431230187416077e-03
5.869555752724409103e-03
-1.139780133962631226e-02
1.019328273832798004e-02
1.680936105549335480e-02
7.529489230364561081e-04
-1.092088222503662109e-02
-9.930063970386981964e-03
-6.317744962871074677e-03
-1.132497191429138184e-02
-7.498777471482753754e-03
-1.543038233648985624e-04
-2.538644766900688410e-04
-1.308917440474033356e-02
-8.714475668966770172e-03
-8.500179275870323181e-03
-2.669063862413167953e-03
-1.879228651523590088e-02
1.546025462448596954e-02
4.761133342981338501e-03
-1.770517043769359589e-02
1.379918120801448822e-02
-1.482564210891723633e-02
-1.456473674625158310e-02
7.589481770992279053e-03
-1.731367968022823334e-02
-1.563107036054134369e-02
-1.885929703712463379e-02
7.549466565251350403e-03
1.958030276000499725e-03
1.452238671481609344e-02
-1.032706256955862045e-02
4.086724016815423965e-03
1.777425967156887054e-02
-1.398144103586673737e-02
5.183491855859756470e-03
1.252694614231586456e-02
1.259983703494071960e-02
-1.324873790144920349e-02
1.804267801344394684e-02
2.989291679114103317e-03
-2.655460266396403313e-03
1.421869173645973206e-02
1.318494975566864014e-02
1.363945193588733673e-02
-1.496531069278717041e-02
8.118992671370506287e-03
6.024926900863647461e-03
1.490071043372154236e-02
1.776556484401226044e-02
-9.468528442084789276e-03
2.081764303147792816e-02
-1.562505401670932770e-02
6.300273817032575607e-04
-1.126276142895221710e-02
3.531556110829114914e-03
5.757462698966264725e-03
-9.007545188069343567e-03
-1.681483536958694458e-02
-1.440839096903800964e-02
1.405007950961589813e-02
9.702838957309722900e-03
-1.856765896081924438e-02
-5.751360673457384109e-03
-8.873593993484973907e-03
8.362409425899386406e-04
2.638087375089526176e-03
-1.966538093984127045e-02
1.301705278456211090e-02
-5.712692160159349442e-03
-1.876131631433963776e-02
3.380647394806146622e-03
-1.207144651561975479e-02
3.243848914280533791e-03
9.657686576247215271e-03
-1.570800505578517914e-02
-1.970043033361434937e-02
-1.054542977362871170e-02
5.078027024865150452e-03
1.039744354784488678e-02
-2.135571651160717010e-02
9.758474305272102356e-03
-5.558961071074008942e-03
8.439011871814727783e-03
4.699504002928733826e-03
-1.109006814658641815e-02
2.411568770185112953e-03
3.516289405524730682e-03
2.313733100891113281e-03
-1.740900054574012756e-02
9.896805509924888611e-03
1.336806267499923706e-02
6.894716992974281311e-03
5.018000956624746323e-04
-1.279200240969657898e-02
1.090881600975990295e-02
1.545106060802936554e-02
-7.077570073306560516e-03
1.841326989233493805e-02
1.207561045885086060e-02
-8.614093065261840820e-03
-1.130001805722713470e-02
9.344970807433128357e-03
-1.223469525575637817e-02
9.992096573114395142e-03
5.220456514507532120e-04
1.082800142467021942e-02
4.223401658236980438e-03
-5.304692313075065613e-03
-7.639568299055099487e-03
-3.021476557478308678e-03
1.610673405230045319e-02
1.363132335245609283e-02
-5.772665143013000488e-03
-1.197123527526855469e-02
-4.107910208404064178e-03
-1.167565956711769104e-02
-1.001140289008617401e-02
-6.839519366621971130e-03
1.385954208672046661e-02
-9.512644261121749878e-03
3.165790811181068420e-03
-1.680526509881019592e-02
-1.159642543643712997e-02
-8.899047970771789551e-03
2.946314867585897446e-03
-5.446224939078092575e-03
1.124150492250919342e-02
-1.472050696611404419e-02
-2.228599973022937775e-03
-3.914348781108856201e-03
1.838709227740764618e-03
-1.340197771787643433e-02
-1.469749584794044495e-02
-1.855152368079870939e-04
4.768561571836471558e-03
-2.743151970207691193e-03
4.086639732122421265e-03
-5.800390616059303284e-03
-2.765266923233866692e-03
-4.788001533597707748e-03
-3.505161730572581291e-03
-1.852322183549404144e-02
-1.954441703855991364e-02
3.196736797690391541e-03
5.401881877332925797e-03
-1.332544605247676373e-03
-9.216108359396457672e-03
2.678243676200509071e-03
6.661105901002883911e-03
-1.602432876825332642e-02
1.844392903149127960e-02
-1.255677267909049988e-02
1.807847060263156891e-02
1.272789202630519867e-03
-9.179720655083656311e-03
1.066570729017257690e-02
-6.248444318771362305e-03
1.506234332919120789e-02
2.490720944479107857e-03
8.024903014302253723e-03
1.126483082771301270e-02
-1.487999223172664642e-02
-1.070822472684085369e-03
1.204184815287590027e-02
2.273614751175045967e-03
1.424086280167102814e-02
-1.218946650624275208e-02
1.547002606093883514e-02
-3.399943467229604721e-03
1.274912059307098389e-02
-9.609742090106010437e-03
1.136317849159240723e-02
1.755350269377231598e-02
2.329725772142410278e-03
-1.451493334025144577e-02
6.859432905912399292e-03
7.023990154266357422e-03
-7.970145903527736664e-03
-1.908748038113117218e-02
-9.746941737830638885e-03
2.831275807693600655e-03
1.300113834440708160e-02
2.163655590265989304e-03
-1.551616750657558441e-02
-9.975986555218696594e-03
1.125284470617771149e-02
-7.817903533577919006e-03
8.195331320166587830e-03
3.335645888000726700e-03
-8.348628878593444824e-03
-1.664915762376040220e-04
-1.635272242128849030e-02
7.602091878652572632e-03
-5.845619365572929382e-03
-6.155913579277694225e-04
1.061041466891765594e-02
1.264706812798976898e-02
-1.939945109188556671e-02
-1.444445364177227020e-02
1.948649622499942780e-02
7.354928180575370789e-03
-4.781491123139858246e-03
1.984858419746160507e-03
-1.227646879851818085e-02
3.603188088163733482e-03
1.680828072130680084e-02
-1.085771340876817703e-02
-1.165501028299331665e-02
8.424408733844757080e-03
1.445871777832508087e-02
4.613951779901981354e-03
-1.140687731094658375e-03
1.301176473498344421e-02
2.163033001124858856e-02
9.695876389741897583e-03
-7.294866256415843964e-03
1.462340354919433594e-02
7.384119555354118347e-03
-1.267936266958713531e-02
1.456455094739794731e-03
8.357688784599304199e-03
1.633894257247447968e-02
2.656899450812488794e-04
-1.383302174508571625e-02
1.510724984109401703e-02
-1.601448096334934235e-02
1.556080766022205353e-02
-1.942559145390987396e-02
5.650212988257408142e-03
-1.916789263486862183e-02
-1.561543159186840057e-02
-6.348524708300828934e-03
-1.045257225632667542e-02
-1.705542020499706268e-02
1.439943350851535797e-02
-1.216126233339309692e-02
-9.134040214121341705e-03
1.018425682559609413e-03
-1.648761518299579620e-02
3.888206323608756065e-03
-1.417160849086940289e-03
-2.104438655078411102e-02
-2.013906650245189667e-02
-1.705720648169517517e-02
8.520347997546195984e-03
5.227297544479370117e-03
-1.867557875812053680e-03
-2.909387927502393723e-03
7.770113646984100342e-03
1.547897793352603912e-02
1.268486841581761837e-03
-8.395482785999774933e-03
-4.469044040888547897e-03
-3.275610739365220070e-03
4.971067421138286591e-03
-3.384521114639937878e-04
4.272312857210636139e-03
1.610449515283107758e-02
-1.165709365159273148e-02
2.117558382451534271e-02
3.345302306115627289e-03
-1.299581117928028107e-02
-1.173573918640613556e-02
1.725160283967852592e-03
-1.556263305246829987e-02
-1.160597801208496094e-02
-4.274027422070503235e-03
1.200611889362335205e-02
8.738217875361442566e-03
1.967182196676731110e-02
-1.428626012057065964e-03
-7.266612723469734192e-03
1.780134998261928558e-02
1.294200494885444641e-02
-3.364791627973318100e-03
-1.117567182518541813e-03
1.647155173122882843e-02
-8.952434291131794453e-04
-1.975151710212230682e-03
1.818080432713031769e-02
1.768318586982786655e-03
-8.734538219869136810e-03
9.145174175500869751e-03
-1.288541313260793686e-02
-5.930326296947896481e-04
-8.333605714142322540e-03
1.095650158822536469e-02
-1.421527005732059479e-02
-2.091302722692489624e-02
5.393084720708429813e-04
-1.153275743126869202e-02
-2.460430609062314034e-03
-1.663983426988124847e-02
-2.061948366463184357e-02
4.654865711927413940e-03
1.001879014074802399e-02
-1.033560372889041901e-02
-1.568469777703285217e-02
-1.883575320243835449e-02
5.392767488956451416e-03
-1.164983958005905151e-02
-1.218849793076515198e-02
5.230162292718887329e-03
-1.551084860693663359e-04
-2.233309904113411903e-03
-1.431960554327815771e-04
-3.014564281329512596e-03
-1.837446540594100952e-02
-1.402580528520047665e-03
-1.518725976347923279e-02
1.353985257446765900e-02
6.319148465991020203e-03
-1.343967276625335217e-03
8.851749822497367859e-03
-1.148204877972602844e-02
-1.329571940004825592e-02
9.803991764783859253e-03
3.138247644528746605e-03
-3.467789618298411369e-03
-4.619825631380081177e-03
-6.456341594457626343e-03
1.052529364824295044e-02
-1.405016705393791199e-02
7.994212210178375244e-03
1.986049301922321320e-02
-8.648548275232315063e-03
-5.863550119102001190e-03
-7.727724500000476837e-03
-1.278188079595565796e-02
-1.112753711640834808e-02
-3.313982742838561535e-04
3.653774270787835121e-03
-1.461221254430711269e-03
2.105058543384075165e-02
9.290333837270736694e-03
2.316752448678016663e-03
-1.024520397186279297e-02
1.739641302265226841e-03
-1.522589288651943207e-02
-4.383858758956193924e-03
4.719931632280349731e-03
-1.385874114930629730e-02
-3.095335327088832855e-03
-1.018339116126298904e-02
-1.822380907833576202e-02
1.006006961688399315e-03
-1.327727828174829483e-02
-8.077369071543216705e-03
-1.190601289272308350e-02
-6.166877225041389465e-03
-6.031127646565437317e-03
3.428111551329493523e-03
7.229935377836227417e-03
-1.261205971240997314e-02
1.441665925085544586e-02
-1.337283290922641754e-02
-8.100878447294235229e-03
-7.548213936388492584e-03
5.839964374899864197e-03
6.526680663228034973e-03
6.609860807657241821e-03
-9.055262431502342224e-03
5.964303389191627502e-03
1.619805209338665009e-02
-7.170019089244306087e-04
1.610854826867580414e-02
-3.895176341757178307e-03
2.946151420474052429e-03
1.609653793275356293e-02
-9.748689830303192139e-03
-8.869199082255363464e-03
-6.143735721707344055e-03
1.171817444264888763e-02
-6.946991197764873505e-03
-7.823921740055084229e-03
2.037365920841693878e-02
-3.557184711098670959e-03
-1.303421519696712494e-02
4.375542979687452316e-03
1.955311186611652374e-02
1.405441015958786011e-02
1.939352042973041534e-02
9.399954229593276978e-03
9.682938456535339355e-03
-2.916765864938497543e-03
-1.272706501185894012e-02
-1.059981249272823334e-02
1.770378835499286652e-02
5.718990578316152096e-04
-5.639069713652133942e-03
3.798381891101598740e-03
1.354764914140105247e-03
4.845071583986282349e-03
8.197741582989692688e-03
4.848642856813967228e-04
-2.009702660143375397e-02
-1.944345049560070038e-02
-1.040101330727338791e-02
-1.295801345258951187e-02
-2.302455250173807144e-03
-1.006063655950129032e-03
1.080265827476978302e-02
-9.421015158295631409e-03
5.195727571845054626e-03
-1.479693502187728882e-02
-1.282652281224727631e-02
1.316776848398149014e-03
6.073366850614547729e-03
-1.352053973823785782e-02
-1.800317689776420593e-02
1.154767908155918121e-02
-2.032140456140041351e-02
-9.902049787342548370e-03
-9.676312096416950226e-03
-1.590387523174285889e-02
-1.080718240700662136e-03
4.273366183042526245e-03
-1.317514292895793915e-02
5.638878792524337769e-03
-1.214941497892141342e-03
1.821279060095548630e-03
-5.036970600485801697e-03
9.611696004867553711e-03
-1.460370980203151703e-02
-1.090844348073005676e-02
1.584043912589550018e-02
1.877423189580440521e-02
-6.220403127372264862e-03
1.135671511292457581e-02
1.836493797600269318e-02
1.136271655559539795e-02
1.388602890074253082e-02
-5.264811217784881592e-03
4.572573117911815643e-03
-7.785580120980739594e-03
1.896424777805805206e-02
-3.759238403290510178e-03
1.632848940789699554e-02
2.132830582559108734e-02
-6.904577836394309998e-03
-5.085304379463195801e-03
2.943853614851832390e-03
1.257735677063465118e-02
1.071902737021446228e-02
1.617082022130489349e-02
-4.978312179446220398e-03
-5.701840273104608059e-04
-8.515564724802970886e-03
-3.320412244647741318e-03
-1.762298517860472202e-03
-2.037835307419300079e-02
7.295597344636917114e-03
-2.241386799141764641e-03
8.494583889842033386e-03
6.084730848670005798e-03
-1.020994689315557480e-02
8.127491921186447144e-03
8.846921846270561218e-03
-1.441953331232070923e-02
1.001393236219882965e-02
1.090869121253490448e-02
1.243440248072147369e-02
-3.742672270163893700e-03
-2.056152001023292542e-02
-6.711405701935291290e-03
-1.228940393775701523e-02
-7.833152078092098236e-03
-1.403093687258660793e-03
1.095317862927913666e-02
-1.750499941408634186e-02
1.378642581403255463e-02
4.164693877100944519e-03
-7.787024602293968201e-03
-1.708942092955112457e-02
-1.307939924299716949e-02
-1.002819836139678955e-02
-7.318098098039627075e-03
-7.141744717955589294e-03
1.760865561664104462e-02
1.562872342765331268e-02
-9.062469936907291412e-03
-2.986089792102575302e-03
2.098372019827365875e-02
-1.564383879303932190e-02
-4.712231457233428955e-04
1.747727207839488983e-02
1.854620315134525299e-02
-5.711456178687512875e-04
4.027666524052619934e-03
1.175747066736221313e-02
2.008643932640552521e-02
-9.357960894703865051e-03
-1.553033292293548584e-02
1.819766126573085785e-02
-7.172930054366588593e-03
1.551216654479503632e-02
1.352561824023723602e-02
-1.591484621167182922e-02
1.213463954627513885e-02
-1.663874485529959202e-03
6.802204996347427368e-03
-1.192388497292995453e-02
1.504677347838878632e-02
4.683496430516242981e-03
-1.617247425019741058e-02
-1.347224786877632141e-02
-4.710740467999130487e-04
-5.429845768958330154e-03
-1.039098389446735382e-02
-9.055290138348937035e-04
-1.935383304953575134e-02
-6.178507581353187561e-03
-3.321710741147398949e-03
-8.722568862140178680e-03
-5.227906629443168640e-03
1.571505703032016754e-02
-1.112048514187335968e-02
-6.715599913150072098e-03
8.623097091913223267e-03
-7.003581151366233826e-03
-1.357731129974126816e-02
-1.309211272746324539e-02
-2.065152302384376526e-02
-1.524520758539438248e-02
-1.957265660166740417e-02
-2.055887132883071899e-02
-8.974691154435276985e-04
3.691471414640545845e-03
-1.765026152133941650e-02
-7.999300025403499603e-03
-1.071426738053560257e-02
-1.149237900972366333e-02
1.807730831205844879e-02
-1.577466167509555817e-02
-4.885255359113216400e-03
6.156150717288255692e-03
1.240294985473155975e-02
-1.255696732550859451e-02
-4.526087082922458649e-03
4.065534099936485291e-03
-6.186783313751220703e-03
1.403950969688594341e-03
8.478561416268348694e-03
8.393967436859384179e-05
1.519037783145904541e-02
1.469605788588523865e-02
6.562894675880670547e-03
8.073018863797187805e-03
1.834058575332164764e-02
1.719473488628864288e-02
1.432554610073566437e-02
7.127923890948295593e-03
1.975244097411632538e-02
-6.935602053999900818e-03
-5.318786948919296265e-03
1.032819226384162903e-02
-1.489041745662689209e-02
3.516581840813159943e-03
3.274744609370827675e-03
-6.578844971954822540e-03
7.833272218704223633e-03
6.736408919095993042e-03
-1.194089837372303009e-02
4.118453711271286011e-03
-1.210694294422864914e-02
8.091127499938011169e-03
-1.437847130000591278e-02
-2.529410703573375940e-04
-4.457756411284208298e-03
-1.256898976862430573e-03
5.351571366190910339e-03
2.686560852453112602e-03
-2.658027689903974533e-03
-9.008469991385936737e-03
-1.815064996480941772e-02
-1.464803051203489304e-02
-3.123946255072951317e-03
-2.068064920604228973e-02
-2.358621452003717422e-03
-1.801122352480888367e-02
-1.326508726924657822e-02
2.672291360795497894e-03
-7.951582781970500946e-03
5.325001198798418045e-03
-1.603137888014316559e-02
-1.241551805287599564e-02
-1.417647302150726318e-02
3.493289928883314133e-03
1.017292961478233337e-02
-5.885292775928974152e-03
1.165881194174289703e-02
1.196400448679924011e-02
2.128087915480136871e-02
1.996248029172420502e-02
1.481337100267410278e-02
2.123337052762508392e-02
-7.386383600533008575e-03
-1.408688258379697800e-03
-7.828897796571254730e-03
-1.032502623274922371e-03
8.287778124213218689e-03
-1.222402416169643402e-02
1.902481773868203163e-03
2.838364569470286369e-03
4.389616660773754120e-03
-8.248263038694858551e-03
-1.553467288613319397e-02
-3.011561697348952293e-03
1.461226679384708405e-02
1.560701988637447357e-02
-1.416786015033721924e-02
7.258262485265731812e-03
4.122631624341011047e-03
-6.814048625528812408e-03
2.703270642086863518e-03
1.823210157454013824e-03
-1.195041555911302567e-02
-9.154329076409339905e-03
-8.648792281746864319e-03
-1.938906684517860413e-02
-2.966554602608084679e-03
-8.660675026476383209e-03
3.167526796460151672e-03
-2.063149958848953247e-02
1.571906916797161102e-02
-1.703600771725177765e-02
6.570765748620033264e-03
1.014825887978076935e-02
-1.278378721326589584e-02
-1.252188626676797867e-02
-3.752292832359671593e-03
4.845511168241500854e-03
3.218442434445023537e-03
-1.279794517904520035e-02
-1.308360230177640915e-02
-1.591347716748714447e-02
-1.665354520082473755e-02
9.551357477903366089e-03
-1.298311748541891575e-03
-1.351091079413890839e-02
-4.951458424329757690e-03
-5.517669022083282471e-03
-1.394694438204169273e-03
4.379401914775371552e-03
5.799570586532354355e-03
-4.309639334678649902e-03
5.498795304447412491e-03
1.111773587763309479e-02
-1.576735079288482666e-02
1.138019375503063202e-02
1.241243816912174225e-02
-6.389145739376544952e-03
-7.041480392217636108e-03
1.433494873344898224e-02
7.272258400917053223e-03
-8.343514055013656616e-03
-7.100992836058139801e-03
-2.877845661714673042e-03
5.378857254981994629e-03
4.273805767297744751e-03
-5.634128116071224213e-03
-5.698601715266704559e-03
-1.038570515811443329e-02
4.999034106731414795e-03
-4.152251640334725380e-04
4.713832400739192963e-03
2.770305844023823738e-03
1.765703968703746796e-02
1.626475341618061066e-02
-4.426883533596992493e-03
-5.049261264503002167e-03
1.086108200252056122e-02
4.576539620757102966e-03
-3.298263065516948700e-03
1.365292258560657501e-02
-4.407177679240703583e-03
7.662110030651092529e-03
1.427473314106464386e-02
-5.655006505548954010e-03
-1.859353855252265930e-02
1.488244510255753994e-03
1.509612612426280975e-02
1.555745117366313934e-02
7.459608837962150574e-03
-1.905139721930027008e-02
-1.396294590085744858e-02
-1.520726829767227173e-02
-9.215266443789005280e-03
-1.605793461203575134e-02
-2.872723387554287910e-03
8.347325026988983154e-03
-1.833990961313247681e-02
1.049245707690715790e-02
-5.777179729193449020e-03
-1.779949665069580078e-02
-1.241417694836854935e-02
-1.185266068205237389e-03
1.870849914848804474e-02
2.906855952460318804e-04
1.453000865876674652e-02
1.043537817895412445e-02
9.433280676603317261e-03
7.649112492799758911e-03
6.323152221739292145e-03
2.085985429584980011e-02
1.477106288075447083e-02
-7.193312980234622955e-03
-1.373123750090599060e-02
8.237550035119056702e-03
-1.060837600380182266e-02
5.165784154087305069e-03
-4.646193236112594604e-03
-5.130776204168796539e-03
-3.075778367929160595e-04
-7.891392335295677185e-03
-9.789209812879562378e-03
6.198312039487063885e-04
6.222997326403856277e-03
-1.109257526695728302e-02
-3.292965004220604897e-03
1.967753283679485321e-02
3.294715657830238342e-03
1.144315861165523529e-02
-9.383114054799079895e-03
-1.579611748456954956e-02
6.990058347582817078e-03
-2.051028050482273102e-02
3.668233053758740425e-03
3.165503963828086853e-03
-1.101526711136102676e-02
1.226116903126239777e-02
-1.424143742769956589e-02
1.342477463185787201e-02
1.194408163428306580e-03
3.052185988053679466e-03
1.282432116568088531e-02
1.318861148320138454e-03
-7.124569267034530640e-03
5.305919796228408813e-03
-1.939246430993080139e-02
7.937288610264658928e-04
4.328329116106033325e-03
-9.103578515350818634e-03
1.278564147651195526e-02
-5.615329369902610779e-03
-1.962658762931823730e-02
8.767994120717048645e-03
-1.057426631450653076e-02
1.783503405749797821e-02
4.045849200338125229e-03
1.645917631685733795e-02
-1.638562791049480438e-02
-1.253563538193702698e-02
1.360015571117401123e-02
-3.054586006328463554e-03
-1.316888071596622467e-02
2.131266228388994932e-04
5.559598095715045929e-03
-1.372038573026657104e-02
1.356549188494682312e-02
3.855073824524879456e-03
-8.878735825419425964e-03
1.896298862993717194e-02
-1.590652391314506531e-02
-1.385855115950107574e-02
-1.545755192637443542e-02
-6.500685587525367737e-03
-4.445823840796947479e-03
5.944788455963134766e-03
1.235082000494003296e-02
-4.154209978878498077e-03
7.116962224245071411e-03
-6.472814828157424927e-03
3.769648494198918343e-03
4.389150533825159073e-03
-6.904539652168750763e-03
7.430993020534515381e-03
-6.228782236576080322e-03
-1.941412314772605896e-02
4.078157246112823486e-03
9.558519348502159119e-03
1.502629555761814117e-02
-1.970003545284271240e-02
-1.337001565843820572e-03
-4.971760790795087814e-04
1.600170321762561798e-02
-2.159694582223892212e-02
-1.237575616687536240e-02
-5.228921771049499512e-03
9.737493470311164856e-03
3.596921451389789581e-03
3.196509554982185364e-03
4.749333485960960388e-03
4.593691119225695729e-05
1.100953109562397003e-02
-2.152257412672042847e-02
4.435017704963684082e-03
3.042734926566481590e-03
1.472842134535312653e-02
-1.183142047375440598e-02
1.028097979724407196e-02
-1.556062698364257812e-02
6.325706839561462402e-03
1.239029131829738617e-02
6.875641993246972561e-04
-7.691524922847747803e-03
9.376585483551025391e-03
-1.388268917798995972e-02
1.511057955212891102e-03
-1.457593217492103577e-02
8.203916251659393311e-03
-1.126265153288841248e-02
-1.481147296726703644e-02
-9.658122435212135315e-03
-9.706049226224422455e-03
1.069270819425582886e-02
-2.955076750367879868e-03
-5.780883133411407471e-03
1.538252457976341248e-02
-2.359039150178432465e-03
-1.136741042137145996e-02
-1.379379816353321075e-02
1.914135925471782684e-02
-1.228033471852540970e-02
-8.980251848697662354e-03
-4.647982306778430939e-03
2.212624065577983856e-03
-1.038412749767303467e-02
1.799624972045421600e-02
8.709652349352836609e-03
-1.197755336761474609e-02
-4.396948963403701782e-03
1.269653998315334320e-02
-9.996755979955196381e-03
-6.588492542505264282e-03
-1.120629813522100449e-02
-6.336003541946411133e-03
-1.307857502251863480e-02
2.003432251513004303e-03
-2.112730778753757477e-02
-1.840759301558136940e-03
-1.356448978185653687e-02
4.277089610695838928e-03
1.220695860683917999e-02
4.431353881955146790e-03
5.202088505029678345e-03
-1.487267948687076569e-02
1.548449881374835968e-02
-1.010724715888500214e-02
1.169554330408573151e-02
3.931336104869842529e-03
-1.944194734096527100e-02
-1.063436083495616913e-02
-2.699156291782855988e-03
-1.985186897218227386e-02
-3.765903180465102196e-03
-1.623396575450897217e-02
-1.612630672752857208e-02
-1.950703561305999756e-02
-2.479888265952467918e-03
8.027132600545883179e-03
-6.081898696720600128e-03
-2.511179540306329727e-03
-1.525806821882724762e-02
-1.226915605366230011e-02
-1.186726335436105728e-02
1.907982863485813141e-02
-1.007851585745811462e-02
-1.544643938541412354e-02
-1.477789133787155151e-02
-2.128691878169775009e-03
1.888887397944927216e-02
-9.525120258331298828e-03
4.611368291079998016e-03
-3.888605860993266106e-03
1.553523354232311249e-02
-1.271455921232700348e-02
8.366024121642112732e-03
1.849419437348842621e-02
1.840484328567981720e-03
3.918593749403953552e-03
1.079908385872840881e-02
-2.361894585192203522e-03
9.680951014161109924e-03
1.828859187662601471e-02
-7.051663473248481750e-03
-1.078078988939523697e-02
1.387711986899375916e-02
-5.529288202524185181e-03
-9.509692899882793427e-03
6.027849391102790833e-03
1.659440458752214909e-03
-1.435536053031682968e-02
1.135882921516895294e-02
1.092201285064220428e-02
9.672427549958229065e-03
-1.386384572833776474e-02
1.265694759786128998e-02
1.391220651566982269e-02
1.049077138304710388e-03
-1.482442836277186871e-03
6.122890859842300415e-03
-1.387306675314903259e-02
-1.991109922528266907e-02
-2.098426409065723419e-02
-1.590954139828681946e-02
1.333617977797985077e-02
1.577558554708957672e-02
3.350545186549425125e-03
-1.048815622925758362e-02
-4.049628914799541235e-04
5.373936728574335575e-04
-1.562056131660938263e-02
-1.032954547554254532e-03
7.007621228694915771e-03
-3.605471923947334290e-03
2.233368286397308111e-05
2.887636423110961914e-03
7.634429261088371277e-03
1.343695633113384247e-02
-1.267219148576259613e-02
1.559008844196796417e-02
-1.311298459768295288e-02
2.035396359860897064e-02
-7.517359219491481781e-03
1.563792489469051361e-02
-1.067360863089561462e-02
9.108284488320350647e-03
4.149168729782104492e-03
-1.102516986429691315e-02
1.794991828501224518e-02
2.031217329204082489e-02
6.826083408668637276e-04
-1.129261124879121780e-02
1.488939858973026276e-02
-7.449149154126644135e-03
-1.491852663457393646e-02
1.609806157648563385e-02
-1.316716056317090988e-02
1.950691454112529755e-02
-6.371749565005302429e-03
9.992606937885284424e-03
-1.729737035930156708e-02
5.848279688507318497e-04
1.351066492497920990e-02
-1.610221341252326965e-03
-7.249048911035060883e-03
-1.014831941574811935e-02
-6.765038706362247467e-03
-4.752433393150568008e-03
-9.905492886900901794e-03
-9.944961406290531158e-03
1.133399643003940582e-02
-2.791439183056354523e-03
-1.519662700593471527e-02
-1.851665601134300232e-02
9.423324838280677795e-03
-4.444842692464590073e-03
-8.528165519237518311e-03
-3.988027572631835938e-03
-1.491142250597476959e-02
1.003162004053592682e-02
-4.396603442728519440e-03
-7.838976569473743439e-03
4.131907597184181213e-03
-8.922387845814228058e-03
-3.747675102204084396e-03
-6.831023842096328735e-03
-1.265203766524791718e-02
-6.290076300501823425e-03
1.603703014552593231e-02
1.170430891215801239e-02
-1.543185301125049591e-02
-3.147454001009464264e-03
1.536620594561100006e-02
-6.232406012713909149e-03
8.483868092298507690e-03
-9.986910969018936157e-03
-1.204087026417255402e-02
-1.392261683940887451e-02
5.050638690590858459e-03
-5.278387689031660557e-04
9.184632450342178345e-03
-4.681451246142387390e-03
1.195823028683662415e-02
1.453159004449844360e-02
-7.574760355055332184e-03
4.241046961396932602e-03
1.763433404266834259e-02
-4.586623050272464752e-03
-1.588449627161026001e-02
-1.199044100940227509e-02
-1.566898450255393982e-02
-1.018625497817993164e-02
1.891036145389080048e-02
1.889735274016857147e-02
1.835258863866329193e-02
-1.767019182443618774e-02
3.600078634917736053e-03
1.233752630650997162e-02
-1.691082841716706753e-03
-1.938235573470592499e-02
1.095256023108959198e-02
-2.112704701721668243e-02
-3.592298598960042000e-03
9.992403909564018250e-03
-2.919406862929463387e-03
1.979070715606212616e-03
-1.237296126782894135e-02
5.516864359378814697e-03
1.547567732632160187e-02
1.014066673815250397e-02
8.100214181467890739e-04
-1.749583519995212555e-02
4.105252446606755257e-04
4.996043280698359013e-04
5.716988816857337952e-03
4.765981808304786682e-03
-4.049492999911308289e-03
-9.593372233211994171e-03
1.142521388828754425e-02
-3.765570931136608124e-03
-1.539536006748676300e-02
1.406142301857471466e-02
7.981374859809875488e-03
1.970697380602359772e-02
-4.835346713662147522e-03
1.728754141367971897e-03
-1.444695750251412392e-03
-4.212533123791217804e-03
1.998725347220897675e-02
-5.401736125349998474e-03
3.017921990249305964e-04
8.620187640190124512e-03
9.428614750504493713e-03
3.516107331961393356e-03
-1.194656454026699066e-02
2.005846612155437469e-02
1.807866431772708893e-02
2.955693518742918968e-03
-2.585181500762701035e-03
1.356893219053745270e-03
-3.265809500589966774e-03
1.122457347810268402e-02
4.715998657047748566e-03
-6.814887165091931820e-04
7.814973592758178711e-03
-4.984478466212749481e-03
9.442433714866638184e-03
6.242033094167709351e-03
7.562929764389991760e-03
5.200457293540239334e-03
1.310222595930099487e-02
-1.475109905004501343e-02
-1.477327756583690643e-02
5.693417042493820190e-03
6.122298538684844971e-03
-1.556880027055740356e-02
6.821215152740478516e-03
-4.556794650852680206e-03
-2.618896774947643280e-03
-3.692036494612693787e-03
1.022761128842830658e-02
-1.966302096843719482e-02
1.386837847530841827e-02
1.465286128222942352e-02
-5.287353997118771076e-04
-1.906925067305564880e-02
8.126337081193923950e-03
1.143736951053142548e-02
1.063097151927649975e-03
-1.377324294298887253e-02
1.502210833132266998e-02
1.019920967519283295e-02
3.236783901229500771e-03
-7.581731304526329041e-03
-7.215651683509349823e-03
1.253877021372318268e-02
-7.939883507788181305e-03
2.935882657766342163e-03
1.989717222750186920e-02
8.082499727606773376e-03
-8.166384883224964142e-03
-9.627895429730415344e-03
-1.449067518115043640e-02
-4.071514122188091278e-03
2.150087989866733551e-02
4.987514112144708633e-03
1.970612443983554840e-02
2.341572893783450127e-03
-3.369646612554788589e-03
-4.773342981934547424e-03
1.497891172766685486e-02
1.446786336600780487e-03
-2.231557620689272881e-03
3.889950225129723549e-03
5.304718390107154846e-03
1.450644433498382568e-02
-3.832756774500012398e-04
2.012163214385509491e-02
1.076428778469562531e-02
-4.324144683778285980e-03
-1.425843453034758568e-03
1.862170360982418060e-02
-1.104334834963083267e-02
-1.531600952148437500e-02
1.235239580273628235e-02
-1.431290619075298309e-02
1.408488862216472626e-02
-1.661610044538974762e-02
-4.478287417441606522e-03
-9.337646770291030407e-04
1.589019410312175751e-02
1.133913360536098480e-02
-2.055426500737667084e-02
1.314464025199413300e-02
-1.155194360762834549e-03
1.123510114848613739e-02
1.052180118858814240e-02
-2.766312332823872566e-03
3.532630391418933868e-03
5.472579970955848694e-03
1.461879350244998932e-02
-1.066641043871641159e-02
8.814878761768341064e-03
-1.053065760061144829e-03
-1.906847022473812103e-02
-9.753732942044734955e-03
1.672614552080631256e-02
1.602286659181118011e-02
-1.508102379739284515e-02
-1.613928005099296570e-02
-1.486944220960140228e-02
3.809425281360745430e-03
-1.511258259415626526e-02
2.183232456445693970e-03
-1.860108110122382641e-03
-1.178400780190713704e-04
-1.630733162164688110e-02
1.321555115282535553e-02
1.318560540676116943e-02
6.677884608507156372e-03
-3.345610108226537704e-03
-1.302235666662454605e-02
1.470629870891571045e-02
-1.488000154495239258e-02
-1.237980090081691742e-02
-7.815721444785594940e-03
5.222131032496690750e-03
1.954330317676067352e-02
-4.093771800398826599e-03
-5.530368536710739136e-03
1.033435016870498657e-02
1.182185858488082886e-02
6.012152298353612423e-04
-7.351212203502655029e-03
-1.518075726926326752e-02
-1.536280848085880280e-02
-3.835385432466864586e-03
-1.494274183642119169e-04
1.197827979922294617e-03
-7.205491419881582260e-04
-1.419231412000954151e-03
-3.034039400517940521e-03
1.198622770607471466e-02
1.574734412133693695e-02
9.973337873816490173e-03
5.240706726908683777e-03
-7.018430158495903015e-03
-4.715525545179843903e-03
-1.553791482001543045e-02
-9.335687384009361267e-03
2.137369941920042038e-03
-1.188938156701624393e-03
-8.278196910396218300e-04
-4.212012048810720444e-03
-4.544195719063282013e-03
-2.044879086315631866e-02
1.188327092677354813e-03
8.558377157896757126e-04
-1.638307608664035797e-02
-2.596760634332895279e-03
-1.036820560693740845e-02
4.564389586448669434e-03
-9.355567395687103271e-03
-5.329886917024850845e-03
1.161794923245906830e-02
7.738795131444931030e-03
-6.343721412122249603e-03
1.587362773716449738e-02
2.089900709688663483e-02
1.905533485114574432e-02
3.767819376662373543e-03
5.512103438377380371e-03
1.633277721703052521e-02
-6.614337675273418427e-03
3.247608430683612823e-03
-1.264860853552818298e-02
7.339151576161384583e-03
1.028585433959960938e-02
1.153138233348727226e-03
-5.282263271510601044e-03
-5.143444985151290894e-03
1.246139034628868103e-02
-4.479134455323219299e-03
-1.007973589003086090e-02
1.899632252752780914e-02
1.758223585784435272e-02
1.038570655509829521e-03
-4.312940873205661774e-03
3.048122860491275787e-03
-5.867615342140197754e-03
-7.199943996965885162e-03
-9.745463728904724121e-03
1.447623036801815033e-02
1.021938025951385498e-02
-1.949516707099974155e-03
-1.433868985623121262e-02
1.523249782621860504e-02
-1.125423610210418701e-02
9.500898420810699463e-03
1.155762560665607452e-02
1.027077622711658478e-02
-1.508689299225807190e-02
4.128310829401016235e-03
7.985243573784828186e-03
-1.104189734905958176e-02
-8.261922746896743774e-03
-4.252586048096418381e-03
-3.800944832619279623e-04
7.729068398475646973e-03
-1.822219602763652802e-02
1.727179507724940777e-03
-6.067498470656573772e-04
9.302480146288871765e-03
1.553898863494396210e-02
-1.691859029233455658e-02
-3.743407782167196274e-03
-5.389678408391773701e-04
-7.167120464146137238e-03
-1.052553672343492508e-02
9.196314960718154907e-03
-2.050788607448339462e-03
-9.343218058347702026e-03
4.279494751244783401e-03
-6.001934409141540527e-03
-1.276767812669277191e-02
8.536319946870207787e-04
4.172686021775007248e-03
1.414043456315994263e-02
-1.223348267376422882e-02
4.528065212070941925e-03
2.119336463510990143e-02
1.018463075160980225e-02
-3.883124096319079399e-03
-8.338371990248560905e-04
-2.156025264412164688e-03
1.738080941140651703e-02
-9.896604344248771667e-03
1.689232327044010162e-02
1.505794934928417206e-02
-3.679396817460656166e-03
-7.434859871864318848e-03
1.675838045775890350e-02
1.102688349783420563e-02
1.342339627444744110e-02
7.879784330725669861e-03
-6.099325604736804962e-03
9.089501574635505676e-03
-1.406418159604072571e-02
1.245982199907302856e-02
-1.672912016510963440e-02
-1.696271635591983795e-02
3.616211237385869026e-03
1.454166509211063385e-02
1.595261134207248688e-02
-7.497649639844894409e-03
-6.967279128730297089e-03
-7.418029941618442535e-03
-1.217876281589269638e-02
-1.943126902915537357e-03
1.206298731267452240e-02
1.440121792256832123e-02
-1.954188756644725800e-02
1.117649860680103302e-02
6.262635812163352966e-03
1.032424531877040863e-02
-1.551304757595062256e-02
-1.763723045587539673e-02
-9.195022284984588623e-03
1.495813019573688507e-02
1.475954614579677582e-02
-1.842072792351245880e-02
-2.129855751991271973e-02
-1.713996939361095428e-02
-1.767503656446933746e-02
-9.888186119496822357e-03
1.110166124999523163e-02
5.256070289760828018e-03
7.723692804574966431e-03
-5.963491275906562805e-03
-1.353891566395759583e-02
1.778436708264052868e-03
1.578720845282077789e-02
-7.329246960580348969e-03
1.601762883365154266e-02
1.088601350784301758e-02
-1.484508439898490906e-02
5.772108212113380432e-03
1.069026254117488861e-02
-1.124854199588298798e-02
9.966295212507247925e-03
-4.409071058034896851e-03
-1.438261568546295166e-02
1.479142531752586365e-02
5.798554047942161560e-03
3.303833946119993925e-04
1.792628876864910126e-02
2.035459736362099648e-03
-1.401364244520664215e-02
-7.922696880996227264e-03
-1.122193690389394760e-02
1.368959620594978333e-02
1.715726964175701141e-02
5.232110852375626564e-04
8.747536689043045044e-03
1.724849827587604523e-02
-1.281095668673515320e-02
-1.674610562622547150e-02
-8.209367282688617706e-03
1.002106629312038422e-02
-4.857278894633054733e-03
6.454889662563800812e-04
7.003251463174819946e-03
5.151115357875823975e-03
7.570870220661163330e-03
-1.695409789681434631e-02
7.113967090845108032e-03
-2.507268451154232025e-03
-2.064578235149383545e-02
1.127198897302150726e-02
6.571471691131591797e-03
-8.925700560212135315e-03
1.936398912221193314e-04
-1.532687433063983917e-02
1.539270393550395966e-02
-1.148909144103527069e-02
1.236181519925594330e-02
1.340035907924175262e-02
-3.589314641430974007e-03
-1.658073626458644867e-02
-5.298198084346950054e-04
-1.907819067128002644e-03
1.190043799579143524e-02
-6.148782558739185333e-03
9.254861623048782349e-03
-1.339948549866676331e-02
-3.373314160853624344e-03
1.578564010560512543e-02
9.564647334627807140e-04
6.458986550569534302e-03
-8.265541866421699524e-03
-1.282784901559352875e-02
1.317993178963661194e-02
4.090761300176382065e-03
6.697138771414756775e-03
-9.763358975760638714e-04
8.550399914383888245e-03
1.217808946967124939e-02
-1.366072520613670349e-02
-2.665915293619036674e-03
-7.077611982822418213e-03
2.347890753298997879e-03
-1.191430725157260895e-02
-2.901894273236393929e-03
2.616053679957985878e-03
-1.034959405660629272e-02
-1.255183364264667034e-03
1.756162382662296295e-02
-1.396858692169189453e-02
1.977594755589962006e-02
1.023565232753753662e-02
3.673400031402707100e-03
-9.739156812429428101e-03
-1.835330203175544739e-02
-9.317999705672264099e-03
-4.514829255640506744e-03
-1.496403105556964874e-02
-2.089025080204010010e-02
-1.936843851581215858e-03
1.054737158119678497e-02
3.826413070783019066e-03
7.081955671310424805e-03
-2.935574622824788094e-03
-1.233030576258897781e-02
6.933959200978279114e-03
-1.900040358304977417e-02
-1.540603395551443100e-02
-1.890455023385584354e-03
1.449835021048784256e-03
-9.981770999729633331e-03
-1.790579641237854958e-03
-1.254626270383596420e-02
8.523294702172279358e-03
-2.688930835574865341e-03
-6.048356182873249054e-03
7.002884522080421448e-03
1.558718271553516388e-02
-3.541697748005390167e-03
3.460457082837820053e-03
1.106504909694194794e-02
-4.773514345288276672e-03
2.109087817370891571e-02
1.472866907715797424e-02
9.906847029924392700e-03
1.533590443432331085e-02
2.359050326049327850e-03
-6.597892381250858307e-03
1.649122871458530426e-02
-9.664098615758121014e-04
-3.336272668093442917e-03
1.871412061154842377e-02
-1.371263526380062103e-02
-7.576728239655494690e-03
1.202303729951381683e-02
-1.420188322663307190e-02
1.095588691532611847e-02
9.718978777527809143e-03
6.625147536396980286e-03
2.083506248891353607e-02
5.352518986910581589e-03
8.977333083748817444e-03
2.057948149740695953e-02
1.202167198061943054e-02
1.989541109651327133e-03
1.958525739610195160e-02
-1.323364488780498505e-02
-1.349590905010700226e-02
1.705961488187313080e-02
1.564253307878971100e-02
-2.012969180941581726e-02
1.346931792795658112e-02
-2.003501914441585541e-02
-1.350913103669881821e-02
-3.290477208793163300e-03
-1.846557296812534332e-02
8.785415440797805786e-03
-6.101333070546388626e-03
-1.081996969878673553e-02
-1.654012827202677727e-03
-2.119709504768252373e-03
-1.586833677720278502e-04
3.148317337036132812e-03
-4.350266885012388229e-03
6.384624168276786804e-03
-1.579464972019195557e-02
-1.923071965575218201e-02
9.949503466486930847e-03
-1.881568692624568939e-02
9.135864675045013428e-03
9.233940392732620239e-03
-1.127830985933542252e-02
4.654241725802421570e-03
-8.087140158750116825e-04
-5.890096072107553482e-03
-1.738060638308525085e-02
-1.452759490348398685e-03
-4.505823366343975067e-03
1.217274926602840424e-02
1.564145274460315704e-02
2.953289542347192764e-03
1.731326989829540253e-02
-1.535131968557834625e-02
2.734238514676690102e-03
-1.287060789763927460e-02
7.536541670560836792e-03
1.362011767923831940e-02
-1.194332260638475418e-02
1.909499801695346832e-02
1.693696342408657074e-02
-6.419605575501918793e-03
1.649568206630647182e-03
-1.019911281764507294e-02
-7.228459231555461884e-03
-9.507677517831325531e-03
7.953405292937532067e-05
7.209980860352516174e-03
5.883792415261268616e-03
1.418718136847019196e-02
-1.270253676921129227e-02
-1.200465485453605652e-02
6.537161767482757568e-03
-1.349207013845443726e-02
-1.024448964744806290e-02
4.546819254755973816e-03
1.374377403408288956e-03
-1.939575001597404480e-02
-1.761189103126525879e-02
-6.201203912496566772e-03
-6.672776304185390472e-03
1.045280136168003082e-02
-5.201003979891538620e-03
7.996259257197380066e-03
1.032034121453762054e-02
-7.959283888339996338e-03
1.150483451783657074e-02
-1.617038622498512268e-02
7.983649848029017448e-04
-2.171393670141696930e-02
8.690958842635154724e-03
1.549870334565639496e-02
4.294776590541005135e-04
6.073978729546070099e-04
1.312886364758014679e-02
-1.660318858921527863e-02
8.764415979385375977e-03
7.919613271951675415e-03
8.595710620284080505e-03
-1.863469928503036499e-02
-1.366613991558551788e-02
-3.236966906115412712e-03
-1.973913609981536865e-02
-1.108288485556840897e-02
6.359625607728958130e-03
1.331724785268306732e-02
-1.776915742084383965e-03
-2.131818328052759171e-03
-2.362360246479511261e-03
1.533384807407855988e-02
-1.144963689148426056e-02
1.174097135663032532e-02
2.455458976328372955e-03
1.583691500127315521e-02
2.144519425928592682e-02
1.693557016551494598e-02
1.961844228208065033e-02
3.967696800827980042e-03
1.508371904492378235e-02
1.948718912899494171e-03
4.570234101265668869e-03
-3.359430003911256790e-03
-3.341644536703824997e-03
1.727206818759441376e-02
9.224157780408859253e-03
-1.451546512544155121e-02
-1.253746636211872101e-02
-7.007703185081481934e-03
-5.107549019157886505e-03
4.612462595105171204e-03
5.697479005903005600e-03
1.004920899868011475e-02
-8.778560906648635864e-03
-5.357345566153526306e-03
-1.238427963107824326e-02
-1.212286110967397690e-02
-7.346631027758121490e-03
2.089363988488912582e-04
-1.096864137798547745e-02
2.367452252656221390e-04
1.516150496900081635e-02
-1.950123987626284361e-04
9.511150419712066650e-03
7.325153797864913940e-03
-7.823677733540534973e-03
-1.208087895065546036e-02
1.097923703491687775e-02
-1.428754627704620361e-02
-1.054407656192779541e-02
4.736954346299171448e-03
-8.520246483385562897e-03
-1.326082088053226471e-02
8.403697982430458069e-03
1.769003225490450859e-03
-9.865087457001209259e-03
8.590981364250183105e-03
-5.209689959883689880e-03
1.304338313639163971e-02
1.413818635046482086e-02
-1.486892439424991608e-02
8.952217176556587219e-03
7.236259058117866516e-03
-7.553240284323692322e-03
8.831435814499855042e-03
-1.409832155331969261e-03
1.303171622566878796e-03
8.839895948767662048e-03
8.517062524333596230e-04
7.060104981064796448e-03
-8.836881257593631744e-03
-1.525452360510826111e-02
8.040539920330047607e-03
-6.115650758147239685e-03
1.128113269805908203e-02
1.902231015264987946e-02
-7.613921537995338440e-03
1.891771890223026276e-02
-1.001725159585475922e-02
1.037738099694252014e-02
1.318538933992385864e-02
1.453064940869808197e-02
1.802580989897251129e-02
2.009373717010021210e-02
9.455297142267227173e-03
-1.105409115552902222e-02
-4.900716245174407959e-03
1.963719539344310760e-02
1.028805226087570190e-02
1.005535945296287537e-02
-3.882235614582896233e-03
1.226768270134925842e-02
1.241251640021800995e-02
-1.664806716144084930e-02
-1.145858783274888992e-02
6.627634866163134575e-04
-1.805745298042893410e-03
-6.600192282348871231e-04
1.437774859368801117e-02
-9.034095564857125282e-04
-9.680082090198993683e-03
1.544022373855113983e-02
-1.757227815687656403e-03
-1.486635301262140274e-02
-1.032281946390867233e-02
7.595142349600791931e-03
8.126394823193550110e-03
-2.155173383653163910e-02
1.158736832439899445e-02
-1.920454204082489014e-02
-1.638731360435485840e-02
1.386396028101444244e-02
1.228178851306438446e-02
-2.391858492046594620e-03
-1.093472633510828018e-02
-1.626936905086040497e-02
1.581974211148917675e-04
-1.072722300887107849e-02
1.677164621651172638e-02
-7.946780882775783539e-03
7.262125611305236816e-03
1.305841654539108276e-02
7.875804440118372440e-04
1.828387565910816193e-02
1.219188421964645386e-02
-1.296746172010898590e-02
9.600972756743431091e-03
-2.032665768638253212e-03
2.129944227635860443e-02
1.152492500841617584e-02
-1.118243858218193054e-02
-2.301742089912295341e-03
1.240360364317893982e-02
3.507745859678834677e-04
-1.454139500856399536e-02
-1.203813310712575912e-02
1.935856975615024567e-02
1.078143715858459473e-02
-1.332853920757770538e-02
-1.040708646178245544e-02
9.330851957201957703e-03
1.335458829998970032e-02
9.316559880971908569e-03
6.125912070274353027e-03
-6.492201238870620728e-03
1.135477796196937561e-02
-8.209166117012500763e-03
1.520004309713840485e-02
1.048749126493930817e-02
-1.558255031704902649e-02
1.403553225100040436e-02
-7.774458266794681549e-03
1.681723282672464848e-03
1.107736118137836456e-02
9.865639731287956238e-03
5.424540489912033081e-03
1.028829626739025116e-02
-7.448413409292697906e-03
-6.942329928278923035e-03
-2.045178972184658051e-02
-5.592928733676671982e-03
3.319768700748682022e-03
1.110160164535045624e-02
-3.030786057934165001e-03
-1.513274386525154114e-02
1.568294130265712738e-02
-1.097523421049118042e-02
-4.439235664904117584e-03
-7.628836319781839848e-04
7.591785863041877747e-03
1.397035829722881317e-02
-1.215108763426542282e-02
-1.358295138925313950e-02
-1.732901670038700104e-02
-8.494888432323932648e-03
1.458300463855266571e-02
-9.968784637749195099e-03
2.652343595400452614e-03
-6.302399560809135437e-04
4.401543177664279938e-03
-1.553039252758026123e-02
1.098475232720375061e-02
1.133027859032154083e-02
-1.159592531621456146e-02
