-6.241695955395698547e-04
9.012963622808456421e-03
6.433733738958835602e-03
1.483428291976451874e-02
-2.789849415421485901e-03
-5.130219273269176483e-03
-6.372079253196716309e-03
-2.810362027958035469e-03
1.141474395990371704e-02
1.928483135998249054e-02
4.289343953132629395e-03
-6.725306622684001923e-03
-8.095245808362960815e-03
8.216585963964462280e-03
-1.297439076006412506e-02
-8.462528698146343231e-03
4.261588910594582558e-04
-1.657627150416374207e-02
5.538767203688621521e-03
-1.547290012240409851e-02
-1.532052084803581238e-02
-1.972909085452556610e-02
-1.563755050301551819e-02
1.479583419859409332e-02
-2.008789777755737305e-02
-1.085420697927474976e-02
-2.175436588004231453e-03
-1.326802093535661697e-02
-4.358239006251096725e-03
-5.380155518651008606e-03
-1.328532584011554718e-02
1.085367240011692047e-02
5.972004146315157413e-06
9.677877649664878845e-03
-8.244769560405984521e-05
1.044116728007793427e-02
2.309188246726989746e-03
1.053205318748950958e-02
1.164003275334835052e-02
-1.825946092139929533e-04
1.494683674536645412e-03
-4.356662742793560028e-03
1.132665388286113739e-02
4.444657359272241592e-03
-1.453417469747364521e-03
2.040630392730236053e-02
-1.534668169915676117e-02
2.270335797220468521e-03
1.391958794556558132e-03
2.022823132574558258e-02
5.213432013988494873e-03
5.234848707914352417e-03
1.364002749323844910e-02
7.620822638273239136e-03
-6.628142669796943665e-03
9.515408426523208618e-03
1.023331657052040100e-02
2.130500040948390961e-02
8.345691487193107605e-03
-1.440616697072982788e-02
1.162238046526908875e-02
-6.596184102818369865e-04
-8.373431861400604248e-03
9.462838992476463318e-03
8.502351120114326477e-04
2.171126194298267365e-02
5.649893544614315033e-03
1.103906147181987762e-02
1.756031997501850128e-02
4.403893835842609406e-03
-9.374390356242656708e-03
5.435854196548461914e-03
8.305677911266684532e-04
-9.429978090338408947e-04
1.854014466516673565e-03
5.437916144728660583e-03
-1.054917229339480400e-03
1.206064783036708832e-02
-1.150965970009565353e-02
9.876852855086326599e-03
-1.021569222211837769e-02
-1.012924592941999435e-02
5.079541355371475220e-03
-1.566232368350028992e-02
-1.230839546769857407e-02
-1.225476060062646866e-02
-6.430175155401229858e-03
1.041580922901630402e-02
5.798667669296264648e-03
1.259982027113437653e-02
1.014800556004047394e-02
-1.224931422621011734e-02
3.051552688702940941e-03
-2.261577465105801821e-04
-1.403418020345270634e-03
-1.778602041304111481e-02
1.345771737396717072e-02
-8.828301914036273956e-03
1.008941791951656342e-02
4.355045966804027557e-03
8.470576256513595581e-03
1.028402335941791534e-02
1.898053474724292755e-02
4.861501802224665880e-04
5.093581043183803558e-03
-1.581749506294727325e-02
1.145130582153797150e-02
1.687409542500972748e-02
1.828265003859996796e-02
1.563013531267642975e-02
1.825397647917270660e-02
1.312367804348468781e-02
-1.420996617525815964e-03
2.025867067277431488e-02
2.156935818493366241e-02
-1.376309990882873535e-02
-7.271816022694110870e-03
-4.072631709277629852e-03
1.596218533813953400e-02
-1.123668998479843140e-02
-3.235052572563290596e-03
1.202684268355369568e-02
-1.491235196590423584e-02
2.062694542109966278e-02
2.091417647898197174e-02
-4.228006117045879364e-03
1.105903089046478271e-02
-2.799154259264469147e-03
-9.477184503339231014e-04
-7.481036707758903503e-03
9.262485429644584656e-03
1.623096503317356110e-02
4.300726577639579773e-03
1.609534723684191704e-03
-1.770521700382232666e-02
-1.597691513597965240e-02
1.204063184559345245e-02
-1.818746700882911682e-02
-2.032042481005191803e-03
8.426548913121223450e-03
9.939854964613914490e-03
1.001747092232108116e-03
-4.193011671304702759e-03
9.654929861426353455e-03
1.438287831842899323e-02
-2.203763462603092194e-03
-1.983261108398437500e-02
1.444714330136775970e-02
-1.474830787628889084e-02
9.247323614545166492e-04
8.991574868559837341e-03
6.230352446436882019e-03
-5.871454719454050064e-03
8.259128779172897339e-03
2.447612816467881203e-03
2.588846255093812943e-03
6.777239963412284851e-03
1.697437278926372528e-02
-1.553456112742424011e-02
-1.597184501588344574e-02
-9.525007568299770355e-03
-7.294008508324623108e-03
5.306885577738285065e-03
1.228891685605049133e-02
1.248882524669170380e-02
-4.811438731849193573e-03
1.055423729121685028e-02
-9.266305714845657349e-03
9.368114173412322998e-03
-1.128475647419691086e-02
-2.603240776807069778e-03
1.388672739267349243e-02
1.578954420983791351e-02
-5.398662760853767395e-03
-1.299027726054191589e-02
-1.044938154518604279e-02
1.441548950970172882e-02
1.777243055403232574e-02
-1.086136698722839355e-02
-2.089067595079541206e-03
-1.464455015957355499e-02
1.348440721631050110e-02
1.967596821486949921e-03
3.334704320877790451e-03
-2.021218184381723404e-03
-4.160631913691759109e-03
-1.313511189073324203e-02
1.559348590672016144e-02
-9.460789151489734650e-03
-1.400108821690082550e-02
-1.941760070621967316e-02
-1.750421896576881409e-02
-1.651148870587348938e-02
1.423374284058809280e-03
-7.290477864444255829e-03
-1.518376544117927551e-02
2.896032528951764107e-03
9.088264778256416321e-03
-1.727537019178271294e-03
1.393435336649417877e-02
5.063276737928390503e-03
-1.110485009849071503e-02
-1.264302339404821396e-02
4.141850396990776062e-03
-1.659712754189968109e-02
1.411980949342250824e-02
-1.247670035809278488e-02
-1.454461307730525732e-04
1.552056707441806793e-02
5.251297727227210999e-03
-5.160542204976081848e-03
-3.893187385983765125e-04
-9.869053959846496582e-03
7.245851680636405945e-03
3.851880086585879326e-03
1.282339543104171753e-02
1.138916471973061562e-03
-1.545220799744129181e-02
1.190604828298091888e-02
3.064173273742198944e-03
7.113626226782798767e-03
2.104482986032962799e-02
-3.721955697983503342e-03
1.564128138124942780e-02
-1.091231126338243484e-02
3.498542588204145432e-03
1.922735013067722321e-02
6.245314143598079681e-03
8.250877261161804199e-03
1.106515526771545410e-02
7.455084472894668579e-03
-2.175133209675550461e-03
1.995670609176158905e-02
-2.270876197144389153e-03
-9.859703481197357178e-03
9.262595325708389282e-03
-1.170937903225421906e-02
2.989801811054348946e-03
-4.912136122584342957e-03
1.668491028249263763e-02
9.719254449009895325e-03
1.209439150989055634e-02
-1.273226644843816757e-02
-7.066614925861358643e-04
-2.098689787089824677e-02
-2.070297673344612122e-02
6.319975480437278748e-03
6.503220647573471069e-03
2.034540520980954170e-03
-1.557261869311332703e-02
-1.544833648949861526e-02
-9.322090074419975281e-03
4.846192896366119385e-03
-1.390830799937248230e-02
-1.350486464798450470e-02
1.243586279451847076e-02
9.850693866610527039e-03
-4.888984840363264084e-04
-1.735181314870715141e-03
-2.042551059275865555e-03
1.238372363150119781e-02
-1.268960256129503250e-02
-1.893736235797405243e-02
-2.067641727626323700e-02
5.339577794075012207e-03
1.563780196011066437e-02
3.841958707198500633e-03
-1.618671417236328125e-02
-1.319960318505764008e-02
-1.053212399710901082e-04
-8.412992581725120544e-03
1.665415242314338684e-03
8.154384791851043701e-03
-1.104705967009067535e-02
-2.881982596591114998e-03
6.196932401508092880e-03
-1.571700908243656158e-02
1.213649846613407135e-02
-1.269402913749217987e-02
-1.321102865040302277e-02
1.748711429536342621e-02
1.758865080773830414e-02
1.368163526058197021e-02
-1.022474654018878937e-02
1.853035204112529755e-02
-2.879910403862595558e-03
1.837149821221828461e-02
1.103295758366584778e-02
-5.575045943260192871e-03
1.047476939857006073e-02
-1.542558707296848297e-02
-7.870410569012165070e-03
4.726736806333065033e-03
1.271919347345829010e-02
8.182751014828681946e-03
-4.992844536900520325e-03
-7.362307980656623840e-03
-1.051720511168241501e-02
-9.585772641003131866e-03
-8.532869629561901093e-03
-1.253282558172941208e-02
-3.071353770792484283e-03
3.959124907851219177e-03
1.267063431441783905e-02
1.597229577600955963e-02
-1.973783224821090698e-02
-6.724661216139793396e-03
6.536807632073760033e-04
-1.753172837197780609e-02
2.430770779028534889e-03
7.183823734521865845e-03
1.466326974332332611e-02
-1.521054282784461975e-02
-4.475010093301534653e-03
2.242514630779623985e-03
-5.337226670235395432e-03
1.295420341193675995e-02
-1.469690538942813873e-02
6.510961800813674927e-03
-1.531037129461765289e-02
-1.448938436806201935e-02
1.663121045567095280e-03
-1.803737692534923553e-02
-3.035654546692967415e-03
-1.330042141489684582e-03
-1.290555298328399658e-02
1.517906598746776581e-02
1.542277447879314423e-02
1.438037864863872528e-02
1.011713780462741852e-02
-4.026079550385475159e-03
7.962262257933616638e-03
3.685425966978073120e-03
-2.482927637174725533e-03
1.214202120900154114e-02
1.665685512125492096e-02
-9.883225429803133011e-04
3.637384390458464622e-03
8.142707869410514832e-03
9.611172601580619812e-03
-3.147357143461704254e-03
1.923563145101070404e-02
3.560868790373206139e-03
-6.075093522667884827e-03
3.728186129592359066e-06
1.072315126657485962e-02
-1.354381069540977478e-02
9.228264912962913513e-03
1.703429035842418671e-02
4.851013887673616409e-03
1.739611662924289703e-02
-5.735334940254688263e-03
-5.605922080576419830e-03
1.008305815048515797e-03
1.862052944488823414e-03
2.534604165703058243e-03
9.255748242139816284e-03
-1.313139684498310089e-02
-2.433886111248284578e-04
-1.509219035506248474e-02
-1.842947490513324738e-02
1.201152242720127106e-02
-1.751673407852649689e-02
-1.192342117428779602e-02
-2.181077376008033752e-02
2.115575131028890610e-03
-1.407120935618877411e-02
-1.648383773863315582e-02
-2.066588774323463440e-02
1.531610079109668732e-02
4.991697147488594055e-03
8.854163810610771179e-03
-8.333015255630016327e-03
-1.932651922106742859e-02
9.620899334549903870e-03
-8.559345267713069916e-03
9.994095191359519958e-03
-2.054442651569843292e-02
8.019383996725082397e-03
-1.457359455525875092e-02
5.971316248178482056e-03
6.041403394192457199e-04
-3.070015227422118187e-03
-1.225547771900892258e-02
2.883526030927896500e-03
-5.475402809679508209e-03
6.385634653270244598e-03
-5.124208517372608185e-03
-1.573705859482288361e-02
1.971011050045490265e-03
-1.387690566480159760e-02
1.430330798029899597e-02
1.575942523777484894e-02
-6.315172649919986725e-03
4.490423481911420822e-03
-2.464228542521595955e-03
-1.495430245995521545e-02
1.635779626667499542e-02
7.497914135456085205e-03
-1.515784114599227905e-02
-1.235177274793386459e-02
5.201928783208131790e-03
2.177313901484012604e-02
1.023736037313938141e-02
1.691733486950397491e-02
1.292163506150245667e-02
2.033166820183396339e-03
1.033337600529193878e-02
-5.076333880424499512e-03
9.704574942588806152e-03
-3.751369658857584000e-03
-1.992016099393367767e-02
-8.700123988091945648e-03
1.228001900017261505e-03
5.424300208687782288e-03
8.254594868049025536e-04
1.520377211272716522e-02
1.201611571013927460e-02
9.426875039935112000e-03
1.476866938173770905e-02
1.549402065575122833e-02
-1.675716415047645569e-02
3.385609481483697891e-03
-2.136668935418128967e-02
2.282218774780631065e-03
4.383381456136703491e-03
-3.572938730940222740e-03
6.453089416027069092e-03
7.741266861557960510e-03
1.114381663501262665e-02
8.183268830180168152e-03
5.433451384305953979e-03
1.962429843842983246e-03
2.421962562948465347e-04
2.822923706844449043e-03
1.304067857563495636e-02
1.156185753643512726e-02
6.133992224931716919e-03
-1.100493129342794418e-02
1.008767820894718170e-02
-1.265831105411052704e-02
8.500739932060241699e-03
-1.326677016913890839e-02
1.966685242950916290e-02
-1.400212198495864868e-02
4.365875851362943649e-03
-6.580427289009094238e-03
1.110089197754859924e-02
6.832577288150787354e-03
1.229911856353282928e-02
-2.716390416026115417e-03
-7.427869713865220547e-04
8.517913520336151123e-03
4.067679867148399353e-03
1.840375922620296478e-02
1.942471228539943695e-02
1.721479557454586029e-02
1.733100973069667816e-02
-9.997598826885223389e-03
1.006005518138408661e-02
1.871038042008876801e-02
1.158677972853183746e-02
1.068960130214691162e-02
7.467659190297126770e-03
4.757845308631658554e-03
4.087779670953750610e-03
-2.525893971323966980e-03
-1.772796176373958588e-02
-1.960341632366180420e-02
-4.696595482528209686e-03
-1.462563872337341309e-02
-4.776865709573030472e-03
-1.069235149770975113e-02
4.217252135276794434e-03
5.763649940490722656e-03
-1.751455850899219513e-02
-1.531359739601612091e-03
1.269652880728244781e-02
-1.461967173963785172e-02
1.285644806921482086e-02
-1.382333692163228989e-02
2.125655766576528549e-03
4.037145525217056274e-03
-4.089897498488426208e-03
-5.569892935454845428e-03
-1.334961317479610443e-02
-1.987045072019100189e-02
-1.239716354757547379e-02
1.034330017864704132e-02
-3.348750527948141098e-03
-1.588951982557773590e-02
1.393641717731952667e-02
1.347525976598262787e-02
8.217990398406982422e-03
-2.011221460998058319e-02
1.459642685949802399e-02
1.369445212185382843e-02
1.863818801939487457e-02
5.913452710956335068e-03
-5.155623890459537506e-03
-9.856718592345714569e-03
5.096879322081804276e-03
-1.100179366767406464e-02
-8.083576336503028870e-03
1.926509477198123932e-02
2.226077951490879059e-03
5.035296548157930374e-03
-1.528215035796165466e-02
-4.342340864241123199e-03
2.089293487370014191e-02
-7.031492888927459717e-03
-1.845945604145526886e-03
-8.115481585264205933e-03
-1.586614921689033508e-02
9.874435141682624817e-03
-5.274579860270023346e-03
5.528521724045276642e-03
3.090049372985959053e-03
1.702063367702066898e-03
7.207711460068821907e-04
-1.556273922324180603e-02
-4.830224439501762390e-03
4.046784248203039169e-03
-1.179109048098325729e-02
-1.052391715347766876e-02
-1.942045614123344421e-02
7.373917847871780396e-03
-8.204713463783264160e-03
-1.915553584694862366e-02
2.557253930717706680e-03
8.868696168065071106e-03
-1.681267842650413513e-02
5.549304187297821045e-03
-1.718545332551002502e-02
-1.901912875473499298e-02
-1.727304421365261078e-03
1.202053762972354889e-02
1.207856647670269012e-02
-2.081455662846565247e-02
1.334373257122933865e-03
-1.796777069102972746e-04
-2.152417041361331940e-02
-1.756724156439304352e-02
4.176907241344451904e-03
7.779490202665328979e-03
-1.739986613392829895e-02
7.947692647576332092e-03
-8.579914458096027374e-03
7.099227979779243469e-03
5.693648010492324829e-03
-9.963684715330600739e-03
3.954127430915832520e-03
3.670270787551999092e-03
1.738916523754596710e-02
1.367048360407352448e-02
-8.709110319614410400e-03
-9.403040632605552673e-03
2.790902275592088699e-03
1.267047785222530365e-02
3.960767760872840881e-03
-6.244704127311706543e-04
-1.150007732212543488e-02
-5.497969686985015869e-03
9.785262867808341980e-03
-9.603940881788730621e-03
-9.717802517116069794e-03
1.856994442641735077e-02
1.879425160586833954e-02
9.163180366158485413e-03
1.982003683224320412e-03
1.842726580798625946e-02
-1.378252869471907616e-03
-1.497989334166049957e-02
-5.876339972019195557e-03
-9.184917435050010681e-03
1.795637421309947968e-02
-4.623308777809143066e-03
1.558960415422916412e-02
-1.563939265906810760e-02
-5.266859196126461029e-03
3.500850871205329895e-03
1.092186314053833485e-03
8.945668116211891174e-03
1.027891226112842560e-02
-1.289786957204341888e-02
5.457606166601181030e-03
-3.551540430635213852e-03
9.855374693870544434e-03
1.404680497944355011e-02
1.243014447391033173e-02
-2.011706866323947906e-02
-3.220603102818131447e-03
-1.748336851596832275e-02
5.477203056216239929e-03
-1.154240127652883530e-02
-1.469832845032215118e-03
2.174902241677045822e-03
-1.181186456233263016e-02
3.900276264175772667e-03
1.532562635838985443e-02
1.367902942001819611e-02
-1.566516794264316559e-02
-1.175732072442770004e-02
-2.006155624985694885e-02
-1.474856305867433548e-02
1.340511254966259003e-02
2.256243955343961716e-03
-1.703981123864650726e-02
-2.991929650306701660e-03
1.159394904971122742e-02
-1.110409200191497803e-02
5.765790119767189026e-03
-1.402736082673072815e-02
-8.711826056241989136e-03
1.730381883680820465e-02
4.152999259531497955e-03
1.192718371748924255e-02
-4.136282019317150116e-03
8.037015795707702637e-03
1.040372811257839203e-02
-1.011951733380556107e-02
1.784873194992542267e-02
-1.262593083083629608e-02
6.740991026163101196e-03
9.371118620038032532e-03
-9.006823413074016571e-03
-4.873693920671939850e-03
-2.327815629541873932e-03
-1.218143105506896973e-02
3.520122263580560684e-03
-3.598397597670555115e-03
1.481139101088047028e-02
-1.358140492811799049e-03
-1.287911087274551392e-02
1.369936205446720123e-02
1.266719587147235870e-02
1.912887557409703732e-03
-1.434650830924510956e-02
2.295451005920767784e-03
-1.341768447309732437e-02
5.867965519428253174e-03
-7.608566433191299438e-03
-3.374390769749879837e-03
1.520164869725704193e-02
-1.450427109375596046e-03
-1.003703847527503967e-02
1.294969208538532257e-02
1.266037859022617340e-02
-1.506485627032816410e-03
1.556557975709438324e-02
-1.690523698925971985e-02
-7.285271771252155304e-03
-1.486527919769287109e-02
8.199401199817657471e-03
-9.706682525575160980e-03
1.028324477374553680e-02
5.748730152845382690e-03
9.327049483545124531e-04
3.655539476312696934e-04
-4.032476339489221573e-03
-3.864856669679284096e-03
2.216242719441652298e-04
-1.659655570983886719e-02
-6.544411182403564453e-03
-1.063010748475790024e-02
-1.732352375984191895e-02
1.075992733240127563e-02
-1.793720573186874390e-02
7.677130401134490967e-03
1.181328482925891876e-02
6.232732906937599182e-03
-9.059195406734943390e-03
-2.980003599077463150e-03
8.500183001160621643e-03
3.333895234391093254e-03
-1.267695333808660507e-02
-1.504803821444511414e-02
5.831482354551553726e-03
1.535644521936774254e-03
1.845026575028896332e-02
-3.320776391774415970e-03
-8.402699604630470276e-03
6.154414266347885132e-03
-2.978837001137435436e-04
-6.595661863684654236e-03
-1.214697025716304779e-02
1.504220650531351566e-03
1.116345077753067017e-02
5.174594931304454803e-03
-1.619798317551612854e-02
-8.631954900920391083e-03
-2.471446292474865913e-03
6.006266921758651733e-03
-1.002289121970534325e-03
1.772247022017836571e-03
-3.860974451526999474e-03
1.306693069636821747e-02
-4.693524911999702454e-03
-1.410153135657310486e-02
1.542150415480136871e-02
5.756907165050506592e-03
-3.525508567690849304e-03
-1.014560740441083908e-02
6.305046379566192627e-03
1.536405272781848907e-02
1.107096113264560699e-02
1.863498357124626637e-03
1.323437504470348358e-02
1.102994941174983978e-02
4.228744655847549438e-03
7.864816114306449890e-03
-1.496594678610563278e-02
-1.985732652246952057e-02
-6.966064684092998505e-03
-1.945432834327220917e-02
1.635037176311016083e-02
8.690856397151947021e-03
-9.027549996972084045e-03
6.932592019438743591e-03
1.665101014077663422e-02
-1.145387906581163406e-02
1.388012804090976715e-02
2.428124193102121353e-03
-1.205201633274555206e-02
7.921738550066947937e-03
-1.954532694071531296e-03
4.023379588034003973e-04
-1.770679093897342682e-02
1.966048963367938995e-02
1.498195342719554901e-03
6.740324199199676514e-03
1.386578194797039032e-02
2.223695628345012665e-03
1.297554746270179749e-02
6.096618250012397766e-03
-8.913034573197364807e-03
7.048241794109344482e-03
-1.209813542664051056e-02
-1.144763082265853882e-02
-2.445653313770890236e-03
-2.476600231602787971e-03
-1.160317379981279373e-02
1.994763873517513275e-02
-1.033129263669252396e-02
1.889569126069545746e-02
-5.731050856411457062e-03
-1.273847371339797974e-02
-1.324946060776710510e-02
-5.026644095778465271e-03
-9.939011186361312866e-03
1.272737607359886169e-02
1.258283667266368866e-02
5.505507811903953552e-03
-9.728477336466312408e-03
1.914145238697528839e-02
1.186089962720870972e-02
1.473229378461837769e-02
1.556067494675517082e-03
1.566981337964534760e-02
2.481947652995586395e-03
3.427877556532621384e-03
9.414888918399810791e-03
8.741458877921104431e-03
-7.614569738507270813e-03
-2.039271173998713493e-03
4.529058933258056641e-03
1.976194791495800018e-02
5.159972934052348137e-04
1.843325980007648468e-02
5.838235840201377869e-03
-4.941122606396675110e-03
-1.736284978687763214e-02
-6.690151058137416840e-03
6.151879206299781799e-03
-7.006208412349224091e-03
-5.071540363132953644e-03
1.398782990872859955e-02
-1.225672755390405655e-02
3.899961011484265327e-04
1.088057272136211395e-02
-1.173713477328419685e-03
1.243017427623271942e-02
-5.774820689111948013e-03
1.576752401888370514e-02
-6.634136196225881577e-03
-1.865754276514053345e-02
-2.529053948819637299e-03
1.025995798408985138e-02
-1.658204942941665649e-02
-1.241979654878377914e-02
1.402341388165950775e-02
-1.520304754376411438e-02
-1.018658163957297802e-03
1.201318018138408661e-02
-1.785406470298767090e-02
-1.580150611698627472e-02
-8.662812411785125732e-03
-1.318769808858633041e-02
1.026376523077487946e-02
2.729778178036212921e-03
-1.685141399502754211e-02
-1.720087230205535889e-02
-6.924941204488277435e-03
1.164104230701923370e-02
1.007918082177639008e-02
1.533212326467037201e-02
-1.222718879580497742e-02
-8.396806195378303528e-03
-3.062454052269458771e-03
-1.625758036971092224e-02
-1.289669796824455261e-02
-1.097394246608018875e-02
-7.909568026661872864e-03
-2.353349700570106506e-03
-3.817567368969321251e-03
-1.457598805427551270e-02
8.384939283132553101e-03
-7.219891995191574097e-03
4.214770626276731491e-03
-1.651647873222827911e-02
-3.705600509420037270e-03
-1.693420927040278912e-03
1.469360850751399994e-02
-1.669777557253837585e-02
1.876252703368663788e-02
-4.061601357534527779e-04
-7.934742607176303864e-03
1.156394928693771362e-02
-2.418311545625329018e-03
-2.313174307346343994e-03
-1.146040484309196472e-02
-1.358812116086483002e-02
1.006092131137847900e-02
9.687118232250213623e-03
-1.637755334377288818e-02
-1.097402162849903107e-02
1.953063183464109898e-03
-1.598984003067016602e-02
-1.051450520753860474e-02
1.628939621150493622e-02
1.306214742362499237e-02
4.292722791433334351e-03
6.942030042409896851e-03
-8.947755559347569942e-04
7.937619462609291077e-03
9.197067469358444214e-03
-2.314323093742132187e-03
1.183843426406383514e-02
-9.342062403447926044e-04
2.025524713099002838e-02
5.421491339802742004e-03
1.186037808656692505e-02
-1.712519116699695587e-02
3.657127730548381805e-03
6.451299414038658142e-03
-3.342163283377885818e-03
4.856005776673555374e-03
1.905747689306735992e-02
-4.454184323549270630e-03
-1.574119552969932556e-02
-1.086056604981422424e-02
2.136636292561888695e-03
-1.573598757386207581e-02
1.420087181031703949e-02
2.137901261448860168e-03
1.304709352552890778e-02
-7.243292406201362610e-03
4.094540607184171677e-03
-5.967973731458187103e-03
1.633962802588939667e-02
3.712161676958203316e-03
-1.228491682559251785e-02
2.083589695394039154e-02
1.586859859526157379e-02
-5.791920237243175507e-03
-1.473745517432689667e-02
-1.375007629394531250e-02
-1.614703983068466187e-02
-1.546419598162174225e-02
-1.224793121218681335e-02
1.809823699295520782e-02
1.635291986167430878e-02
-7.353596389293670654e-03
1.156387515948154032e-04
-3.198605030775070190e-03
3.742268774658441544e-03
1.765424571931362152e-02
-2.999599673785269260e-04
-1.509541273117065430e-02
6.651178002357482910e-03
2.323162276297807693e-03
-1.207050809171050787e-05
-1.166067831218242645e-02
-1.699551381170749664e-02
-1.837924681603908539e-02
-1.323155034333467484e-02
-2.984068589285016060e-03
8.913502097129821777e-03
1.339868642389774323e-02
6.576142041012644768e-04
-1.500155404210090637e-02
-1.852750033140182495e-02
7.127981632947921753e-03
-1.900471374392509460e-02
2.870469586923718452e-03
1.223930157721042633e-02
-2.017704397439956665e-02
1.464352570474147797e-02
9.760087355971336365e-03
1.277402602136135101e-02
6.268501281738281250e-03
-1.135587599128484726e-02
7.887953892350196838e-03
1.000281795859336853e-02
-4.283234011381864548e-03
6.423017010092735291e-03
3.210006514564156532e-03
1.360566355288028717e-02
-1.681843400001525879e-02
-1.194861996918916702e-02
-9.226710535585880280e-03
-2.037687925621867180e-03
-1.757144182920455933e-02
1.212801225483417511e-02
-5.634184926748275757e-03
6.456250324845314026e-03
9.948624297976493835e-03
-1.209961436688899994e-02
-5.864340811967849731e-03
1.658194698393344879e-03
3.989702090620994568e-03
1.485516875982284546e-02
4.504236858338117599e-03
8.039383217692375183e-03
2.059791469946503639e-03
1.026228815317153931e-02
4.081056918948888779e-03
2.600034931674599648e-03
-1.868849503807723522e-03
-1.305984682403504848e-03
1.700896071270108223e-03
1.360815577208995819e-02
2.491688646841794252e-04
-6.121505983173847198e-03
6.758974865078926086e-03
-4.340518498793244362e-04
1.219541579484939575e-02
1.303727552294731140e-02
-2.684215549379587173e-03
9.256279096007347107e-03
-9.506688453257083893e-03
1.427543349564075470e-02
4.637973615899682045e-04
-1.702220179140567780e-02
1.703027519397437572e-03
-1.722422242164611816e-02
1.424165628850460052e-02
2.569340635091066360e-03
-1.217071432620286942e-02
-1.624836213886737823e-02
-1.270080730319023132e-02
-4.218199755996465683e-03
8.087301626801490784e-03
4.174547269940376282e-03
-1.651513576507568359e-02
3.756904625333845615e-04
1.148178987205028534e-02
-1.051961793564260006e-03
-5.006502615287899971e-04
-1.954533532261848450e-02
5.662165582180023193e-03
-2.022879943251609802e-02
-9.801719337701797485e-03
-9.110667742788791656e-03
1.250697113573551178e-02
1.031518168747425079e-02
1.636308617889881134e-03
-6.758965551853179932e-03
-2.507330616936087608e-03
1.911169383674860001e-04
-1.213563885539770126e-02
-1.921186409890651703e-02
-6.000410765409469604e-03
8.003005757927894592e-03
1.557992212474346161e-02
-7.351023145020008087e-03
-1.669647521339356899e-03
5.507225636392831802e-03
1.203732751309871674e-02
-3.702042857185006142e-03
-1.515609584748744965e-02
8.080026134848594666e-03
8.540470153093338013e-03
1.843292079865932465e-02
1.889870874583721161e-02
1.690720953047275543e-02
-1.202615164220333099e-02
-2.338030375540256500e-03
9.289393201470375061e-03
1.611907209735363722e-04
2.792218467220664024e-03
-1.268418785184621811e-02
-1.502835378050804138e-02
1.889499090611934662e-02
-1.451115310192108154e-02
4.835935309529304504e-03
1.873480342328548431e-02
-1.313522644340991974e-02
-3.236927557736635208e-03
9.560231119394302368e-03
4.286374896764755249e-03
1.069775037467479706e-02
1.025137491524219513e-02
1.082420162856578827e-02
-1.138608995825052261e-02
1.207691244781017303e-02
-2.044473960995674133e-02
3.774681594222784042e-03
-2.038953825831413269e-02
-1.812665909528732300e-02
4.705112427473068237e-03
-6.510222330689430237e-03
6.414672359824180603e-03
3.266180166974663734e-03
-8.745866827666759491e-03
-1.944446377456188202e-02
1.137717999517917633e-02
1.390599273145198822e-02
-1.842275145463645458e-03
-2.083451673388481140e-02
4.589160904288291931e-03
4.548799246549606323e-03
8.065376459853723645e-05
9.883055463433265686e-03
1.276438869535923004e-02
-2.774628577753901482e-03
2.626477507874369621e-03
-1.193968206644058228e-02
2.858910011127591133e-03
1.533508487045764923e-02
7.614785805344581604e-03
-5.437778308987617493e-03
1.506101898849010468e-02
1.742138154804706573e-02
5.347314290702342987e-03
1.233101822435855865e-02
1.468723826110363007e-02
1.508726738393306732e-02
1.544122584164142609e-02
1.371486857533454895e-02
-4.646806046366691589e-04
1.143332570791244507e-02
-9.240144863724708557e-03
1.917568035423755646e-02
6.713179871439933777e-03
1.442459784448146820e-02
3.127411240711808205e-03
1.690312661230564117e-02
9.281339123845100403e-03
-1.011445187032222748e-02
-1.384126767516136169e-02
1.253023743629455566e-02
-1.038958318531513214e-02
2.788014709949493408e-03
-1.504848338663578033e-02
-6.480662152171134949e-03
2.062630606815218925e-03
-1.700595952570438385e-02
-7.519759237766265869e-03
8.539307862520217896e-03
9.190464392304420471e-03
-3.707714786287397146e-04
3.975884988903999329e-03
-2.526561496779322624e-03
4.431361332535743713e-03
-1.702835783362388611e-02
-1.531867124140262604e-02
-1.455833390355110168e-02
1.617411337792873383e-02
1.372086582705378532e-03
1.625891588628292084e-02
5.955936387181282043e-03
-4.053235519677400589e-03
1.183432154357433319e-02
-4.502976371441036463e-04
-1.152714714407920837e-02
-4.766712896525859833e-03
-6.154144182801246643e-03
8.889276534318923950e-03
-2.054410614073276520e-02
-1.514405570924282074e-02
1.318209432065486908e-02
-1.341427396982908249e-02
-1.391941122710704803e-02
1.324879191815853119e-02
-6.345325149595737457e-03
-1.096304599195718765e-02
1.156883500516414642e-02
-1.285981759428977966e-02
-2.868173876777291298e-03
-6.078821606934070587e-03
7.993897423148155212e-03
-1.832347130402922630e-03
5.039859097450971603e-03
1.553751341998577118e-02
-1.643193699419498444e-02
-5.536832846701145172e-03
8.574225008487701416e-03
1.292109116911888123e-02
-1.478271558880805969e-02
1.010273769497871399e-02
-8.920579217374324799e-03
1.379265449941158295e-02
-1.618445664644241333e-02
-8.514811284840106964e-03
1.680393703281879425e-02
-7.521044462919235229e-03
9.656308218836784363e-03
5.612375680357217789e-03
1.550854928791522980e-02
7.734522223472595215e-03
-1.076368149369955063e-02
1.893381960690021515e-02
-1.810870133340358734e-02
1.531320624053478241e-02
8.936928585171699524e-03
-1.430042739957571030e-02
-9.904218837618827820e-03
-1.613423787057399750e-02
-8.996886201202869415e-03
-1.938058063387870789e-02
-6.390788592398166656e-03
-1.874198322184383869e-03
-4.841268528252840042e-03
-1.996453106403350830e-02
1.014583371579647064e-02
1.858465839177370071e-04
-7.694984786212444305e-03
-4.617670550942420959e-03
1.436432637274265289e-02
-1.609828881919384003e-02
-1.290928572416305542e-02
-1.720738783478736877e-02
-1.156481169164180756e-02
-8.735700510442256927e-03
-1.114012766629457474e-02
2.249745419248938560e-03
6.930501549504697323e-04
4.315782338380813599e-03
4.683308303356170654e-03
1.040016673505306244e-02
-3.990726079791784286e-03
-1.261483784765005112e-02
1.196117140352725983e-02
-1.256056968122720718e-02
-3.499927232041954994e-03
-3.809295361861586571e-03
-1.517959218472242355e-02
9.471664205193519592e-03
-1.722352392971515656e-02
1.295733638107776642e-02
1.441065408289432526e-02
8.705185726284980774e-03
4.789653699845075607e-03
-1.260404847562313080e-02
-2.669894834980368614e-03
1.672927103936672211e-02
-2.087423810735344887e-03
-7.161081768572330475e-03
5.691037513315677643e-03
6.027730647474527359e-03
-4.049978218972682953e-03
-7.355555891990661621e-03
1.507881097495555878e-02
-1.521403342485427856e-02
5.633158143609762192e-03
1.523915491998195648e-02
-4.794775508344173431e-03
-6.276939995586872101e-03
1.199414208531379700e-02
-1.110498607158660889e-02
-4.857496358454227448e-03
-1.035935478284955025e-03
1.423105970025062561e-02
-5.795185454189777374e-03
5.398286506533622742e-03
-1.747384667396545410e-02
1.150706969201564789e-02
-1.799372397363185883e-02
1.559531874954700470e-02
1.241398043930530548e-02
-1.489564683288335800e-02
-5.623077973723411560e-03
8.446969091892242432e-03
1.656542159616947174e-02
1.864666934125125408e-03
1.524057053029537201e-02
-1.486191526055335999e-02
-1.773431897163391113e-02
-4.071894101798534393e-03
-1.688211970031261444e-02
9.149227291345596313e-03
1.081527327187359333e-03
-1.492707617580890656e-02
8.389674127101898193e-03
7.973244413733482361e-03
-1.053862739354372025e-02
6.403690204024314880e-03
-1.342678349465131760e-02
-1.285417471081018448e-02
1.576649211347103119e-02
1.267900690436363220e-02
-1.066424883902072906e-02
1.050970144569873810e-02
-1.422673463821411133e-02
-1.526441797614097595e-02
1.507122942712157965e-05
-7.183654233813285828e-03
-1.340142078697681427e-02
1.135030761361122131e-02
1.353936269879341125e-02
5.237875971943140030e-03
-7.765776477754116058e-03
1.719171367585659027e-02
-1.232707314193248749e-02
1.586051471531391144e-02
1.114633306860923767e-02
-1.896022702567279339e-03
1.432125270366668701e-02
-7.742634043097496033e-03
2.981782890856266022e-03
-3.118424792774021626e-04
-2.758207265287637711e-03
-8.519450202584266663e-03
-1.477295253425836563e-02
-1.790823973715305328e-02
1.055752299726009369e-02
2.645837841555476189e-03
-1.660387217998504639e-02
-3.719279309734702110e-03
-7.699106819927692413e-03
3.167241811752319336e-03
-1.720275729894638062e-02
-1.756868325173854828e-02
1.241909153759479523e-02
-3.778862766921520233e-03
1.274153776466846466e-02
9.532952681183815002e-03
-9.434262290596961975e-03
-8.444961160421371460e-03
-2.782617521006613970e-04
8.122559636831283569e-03
1.256922073662281036e-02
8.597972337156534195e-04
1.142708398401737213e-02
3.238689387217164040e-03
-9.559536352753639221e-03
-4.943676758557558060e-03
-1.850604638457298279e-02
6.573952734470367432e-03
1.450592838227748871e-02
-1.177789643406867981e-02
8.276350796222686768e-03
-1.547859609127044678e-02
-3.716001228895038366e-04
1.455524377524852753e-02
7.804006338119506836e-03
1.547821797430515289e-03
1.799661852419376373e-02
2.607986330986022949e-03
-3.369481768459081650e-03
-1.107053086161613464e-02
-5.195640027523040771e-03
1.261105388402938843e-02
1.378605328500270844e-02
-1.769230468198657036e-03
1.913421787321567535e-02
1.621209271252155304e-02
-1.486471109092235565e-02
4.050972871482372284e-03
4.279891494661569595e-03
-6.853926926851272583e-03
-1.527260988950729370e-02
-2.940081525593996048e-03
-1.480167545378208160e-02
2.034538891166448593e-03
-7.523049600422382355e-03
3.460398584138602018e-04
-1.450208760797977448e-02
-5.313734523952007294e-03
-1.694305450655519962e-03
1.081718504428863525e-02
4.651791241485625505e-04
1.982021145522594452e-02
9.266564622521400452e-03
1.806590519845485687e-02
1.716769672930240631e-02
-1.082126796245574951e-02
1.697486080229282379e-02
1.573831401765346527e-02
5.032153800129890442e-03
-1.757856458425521851e-02
1.718168519437313080e-02
-1.052850205451250076e-02
2.030977280810475349e-03
1.034178072586655617e-03
5.389763042330741882e-03
-5.734317470341920853e-03
9.826147928833961487e-03
-5.028971005231142044e-03
1.063796691596508026e-02
-1.499487739056348801e-02
-1.241647079586982727e-02
-7.090918719768524170e-03
-1.904953457415103912e-02
-9.782106615602970123e-03
-1.762222684919834137e-02
-9.140196256339550018e-03
1.554910652339458466e-02
-4.588960669934749603e-03
-5.961125716567039490e-03
-1.321211084723472595e-02
-2.059606648981571198e-02
-1.722613163292407990e-02
-1.450631581246852875e-02
1.045451499521732330e-02
1.093879900872707367e-02
1.335746608674526215e-02
-1.348914392292499542e-02
-1.303876377642154694e-02
1.008350774645805359e-02
1.026052283123135567e-03
-1.698466017842292786e-02
-1.662218011915683746e-02
1.406678371131420135e-02
1.621936820447444916e-02
1.005690731108188629e-02
-1.016389671713113785e-02
-1.221668720245361328e-02
1.203043200075626373e-02
-3.319293726235628128e-03
5.827652756124734879e-03
3.788613714277744293e-03
-1.011352706700563431e-02
6.089317321311682463e-05
-1.070084609091281891e-02
1.594126783311367035e-02
-1.577820442616939545e-02
1.840987615287303925e-02
4.739795345813035965e-03
1.585624180734157562e-02
2.030967443715780973e-04
-1.120798941701650620e-02
7.591741159558296204e-03
-7.452713325619697571e-03
-1.792083308100700378e-02
8.639770094305276871e-04
-1.833196543157100677e-02
-1.331868302077054977e-02
-1.654972694814205170e-02
1.091755367815494537e-02
1.441668905317783356e-02
9.184222668409347534e-03
8.111700415611267090e-03
-4.834584891796112061e-03
-1.504700724035501480e-02
-2.289782278239727020e-03
-1.975826174020767212e-02
-1.102129928767681122e-02
-5.929361097514629364e-03
-8.909197524189949036e-03
1.034262217581272125e-02
1.641004718840122223e-02
-1.862540096044540405e-02
-1.591964811086654663e-02
1.081549003720283508e-02
2.258892171084880829e-03
-1.019108295440673828e-02
-9.342062287032604218e-03
-4.506092518568038940e-03
3.104736097157001495e-03
9.872481226921081543e-03
1.925341971218585968e-02
-1.876694965176284313e-03
1.523668505251407623e-02
-4.567108117043972015e-04
5.475933663547039032e-03
1.079624705016613007e-02
-1.391033455729484558e-02
-1.184831000864505768e-02
1.029236614704132080e-02
-2.380653750151395798e-04
1.845216192305088043e-02
2.124584652483463287e-02
-1.422728039324283600e-02
2.710983389988541603e-03
1.091498509049415588e-02
1.948491297662258148e-02
1.202400587499141693e-02
7.270442321896553040e-03
7.795650511980056763e-03
1.988678239285945892e-02
-1.395533047616481781e-02
-2.986245322972536087e-03
-1.781122013926506042e-02
1.196317560970783234e-02
-1.932600699365139008e-02
-8.292713202536106110e-03
-1.559807453304529190e-02
-7.893687114119529724e-03
1.600697077810764313e-02
-6.090569659136235714e-04
-1.120594330132007599e-02
1.653027720749378204e-02
-1.625368557870388031e-02
-6.358169019222259521e-03
1.596500165760517120e-02
-6.749506108462810516e-03
1.389654912054538727e-02
8.589267730712890625e-03
1.028636842966079712e-02
9.247632697224617004e-03
-1.525977812707424164e-02
1.274866401217877865e-03
-1.361854188144207001e-02
-1.681962795555591583e-02
-7.578397169709205627e-03
8.297285065054893494e-03
9.944435209035873413e-03
-9.437782689929008484e-03
9.355831891298294067e-03
-5.230582319200038910e-03
1.414591632783412933e-02
-1.812504045665264130e-02
-9.642138029448688030e-04
8.320985361933708191e-03
5.513473413884639740e-03
1.861338876187801361e-02
2.013879455626010895e-02
-1.619975641369819641e-02
6.386406719684600830e-03
-5.508023314177989960e-03
2.046128176152706146e-02
3.369011450558900833e-03
-8.151064394041895866e-04
5.291117355227470398e-03
-3.347854595631361008e-03
-1.396995037794113159e-02
-1.169363502413034439e-03
-3.419791115447878838e-03
-1.442835293710231781e-02
1.742012239992618561e-02
4.473799839615821838e-03
6.183164194226264954e-03
-1.042074151337146759e-02
-8.769026957452297211e-03
2.352838404476642609e-03
-7.911659777164459229e-03
1.126719266176223755e-02
5.314335227012634277e-03
-2.596098929643630981e-03
1.181663386523723602e-02
-1.805894635617733002e-02
-8.527057245373725891e-03
3.855002811178565025e-03
6.928617134690284729e-03
2.651014132425189018e-03
-1.458518207073211670e-02
-5.799947306513786316e-03
3.790247719734907150e-03
-1.817617099732160568e-03
4.476506263017654419e-03
7.443742826581001282e-03
3.823874285444617271e-03
-3.244148800149559975e-03
1.530638523399829865e-02
1.645362190902233124e-02
-1.533010043203830719e-02
8.720122277736663818e-03
-1.901469007134437561e-02
-1.493726670742034912e-02
-5.176740232855081558e-04
9.409045800566673279e-03
-4.010771401226520538e-03
-1.262974180281162262e-02
-1.186893694102764130e-02
-9.621595032513141632e-03
-1.407869346439838409e-02
-1.229361817240715027e-02
1.323084719479084015e-02
1.615064777433872223e-02
5.890613421797752380e-03
-9.139084257185459137e-03
-3.465684829279780388e-03
-1.725738751702010632e-03
-1.357544027268886566e-02
2.533279825001955032e-03
4.340618907008320093e-04
-9.849632158875465393e-03
-1.424098759889602661e-02
2.108194492757320404e-02
1.477906852960586548e-02
7.092440500855445862e-03
-7.483535446226596832e-03
-1.594241522252559662e-02
-9.871745482087135315e-03
3.598482580855488777e-03
1.234792172908782959e-02
-6.108475645305588841e-05
-7.624661666341125965e-04
6.365636363625526428e-03
-1.651200279593467712e-02
1.320853829383850098e-02
1.430828496813774109e-02
-1.598514802753925323e-02
1.845071278512477875e-02
-1.214213203638792038e-03
1.785177551209926605e-02
5.387201905250549316e-03
1.717160083353519440e-02
-1.878710836172103882e-02
1.042168959975242615e-02
-1.699951849877834320e-02
-1.038304995745420456e-02
-1.730624772608280182e-02
7.496813312172889709e-03
9.079912677407264709e-03
-3.500245744362473488e-03
1.297230459749698639e-02
5.288328975439071655e-03
1.399175496771931648e-03
1.123925484716892242e-02
8.517114445567131042e-03
5.893953144550323486e-03
6.457531824707984924e-03
-7.257436402142047882e-03
-1.840553991496562958e-02
6.480779498815536499e-03
-4.320459440350532532e-03
-1.247469708323478699e-02
-7.968747988343238831e-03
6.986616179347038269e-03
-1.982525456696748734e-03
-1.237559877336025238e-02
1.767145283520221710e-02
-2.353526651859283447e-03
1.632852666079998016e-02
1.617203094065189362e-02
-1.649025082588195801e-02
-1.664661243557929993e-02
1.300294697284698486e-02
7.261725142598152161e-03
1.849861256778240204e-02
1.241112872958183289e-02
-1.442925259470939636e-02
-1.463456265628337860e-02
1.017033308744430542e-02
-2.816271269693970680e-03
1.882380805909633636e-02
2.123896963894367218e-02
8.150752633810043335e-03
-7.682907395064830780e-03
-7.344693876802921295e-03
5.471440032124519348e-03
-1.491825561970472336e-02
-1.344747468829154968e-02
5.275843665003776550e-03
1.250165048986673355e-03
3.825135296210646629e-03
-1.549675595015287399e-02
6.933864206075668335e-03
-2.046170830726623535e-02
-5.102312192320823669e-03
-1.157572492957115173e-03
3.771945368498563766e-03
7.082322612404823303e-03
1.157923974096775055e-02
-1.176422089338302612e-02
1.571575738489627838e-02
8.567295968532562256e-03
-1.213056873530149460e-02
9.837919846177101135e-03
3.680407302454113960e-03
-1.593857444822788239e-02
1.320230029523372650e-02
-7.361991330981254578e-03
-1.975609548389911652e-02
-2.863573143258690834e-03
2.422301331534981728e-03
-1.789619028568267822e-02
1.152017735876142979e-03
1.420603878796100616e-02
9.748954325914382935e-03
1.593006309121847153e-03
-1.659582927823066711e-02
5.566157866269350052e-03
-2.468141959980130196e-03
6.437107920646667480e-03
1.240199245512485504e-02
-4.556355997920036316e-03
8.172640576958656311e-03
1.215812377631664276e-02
1.148435473442077637e-02
2.075278945267200470e-02
6.781404837965965271e-03
1.614502631127834320e-02
-1.567544788122177124e-02
-1.355058699846267700e-02
1.115280017256736755e-02
2.059383131563663483e-02
1.707059331238269806e-02
-5.816711112856864929e-03
2.951332600787281990e-03
2.058765478432178497e-02
5.628200713545084000e-03
8.570039644837379456e-03
-8.734271395951509476e-04
-1.491547562181949615e-02
6.066183559596538544e-03
9.698621928691864014e-03
-8.581708185374736786e-03
7.875192910432815552e-03
7.493868470191955566e-03
1.757417060434818268e-02
-1.776396110653877258e-02
-1.351853366941213608e-02
-1.068028807640075684e-02
-1.256701070815324783e-02
6.710728630423545837e-03
-1.857881143223494291e-04
-5.729449330829083920e-04
-1.432908326387405396e-02
-2.311292104423046112e-03
1.432721503078937531e-02
-5.902261473238468170e-03
5.331061780452728271e-03
1.009634928777813911e-03
-7.984883268363773823e-04
-1.153756305575370789e-02
9.530182927846908569e-03
-1.768597774207592010e-02
2.394029870629310608e-03
-1.413410878740251064e-03
-2.134725684300065041e-03
-7.680224371142685413e-04
-1.295659225434064865e-02
-5.017383955419063568e-03
1.534012146294116974e-02
1.177394576370716095e-02
1.263857819139957428e-02
1.484801643528044224e-03
-1.957234926521778107e-02
9.717393550090491772e-04
-1.538449712097644806e-02
1.402326114475727081e-02
8.276438340544700623e-03
-1.004723925143480301e-02
-1.177038415335118771e-03
-1.114176958799362183e-02
1.397672481834888458e-02
9.019449353218078613e-03
-1.312040910124778748e-02
-3.451888216659426689e-03
9.319411590695381165e-03
1.609956659376621246e-02
-1.728242821991443634e-02
-1.716110110282897949e-02
1.267528720200061798e-02
-1.797480508685112000e-02
-6.576810963451862335e-03
6.050175579730421305e-05
2.521755173802375793e-03
-7.072864100337028503e-03
8.960297331213951111e-03
-9.638964198529720306e-03
2.207677345722913742e-03
-1.633786223828792572e-02
-2.024221420288085938e-02
4.345567896962165833e-03
1.026743464171886444e-02
-1.570993848145008087e-02
1.529867760837078094e-02
-1.615092903375625610e-02
1.253800652921199799e-02
1.632220111787319183e-02
1.054020971059799194e-02
-1.978918153326958418e-04
-6.055087782442569733e-03
1.054440066218376160e-02
-8.201034739613533020e-03
5.150813958607614040e-04
5.863035097718238831e-03
-4.002690315246582031e-03
6.537191569805145264e-03
-5.254755378700792789e-04
-9.470251388847827911e-03
1.711702533066272736e-02
2.397984266281127930e-03
-1.548704691231250763e-02
1.887340657413005829e-02
1.909716986119747162e-02
-1.234779134392738342e-02
-1.492163911461830139e-02
-1.458661281503736973e-03
-1.652502641081809998e-02
-1.016230322420597076e-02
2.610587747767567635e-03
-1.699387282133102417e-02
7.844060659408569336e-03
1.403378322720527649e-02
-1.572602801024913788e-02
-9.789511561393737793e-03
6.828553974628448486e-03
6.553823128342628479e-03
7.712695747613906860e-03
-1.244005281478166580e-02
-5.929928272962570190e-03
-9.715049527585506439e-03
-1.533946581184864044e-02
1.194589026272296906e-02
-9.167082607746124268e-03
4.113980103284120560e-03
7.269700989127159119e-03
-5.888259969651699066e-03
1.658423803746700287e-02
7.336126640439033508e-03
9.443763643503189087e-03
-1.440126076340675354e-02
-6.195401772856712341e-03
1.910220948047935963e-03
-1.927788183093070984e-02
-1.081347465515136719e-02
-8.095436729490756989e-03
1.290396042168140411e-02
-3.485640510916709900e-03
-8.741103112697601318e-03
-1.812477037310600281e-02
7.014334201812744141e-03
-1.319589093327522278e-02
-1.089284755289554596e-02
-7.373556494712829590e-03
1.292587141506373882e-03
1.453060470521450043e-02
3.658968256786465645e-03
1.292811892926692963e-02
-1.777370087802410126e-02
-1.951799727976322174e-02
-2.530473284423351288e-03
-1.563650369644165039e-02
3.682734095491468906e-04
-4.657155834138393402e-03
-9.672263637185096741e-03
-3.248893888667225838e-03
-1.379684545099735260e-02
1.109020598232746124e-02
1.604300457984209061e-03
2.163436030969023705e-03
-7.341468706727027893e-03
1.086147874593734741e-02
1.872638054192066193e-02
8.364427834749221802e-03
1.529040001332759857e-02
1.474046893417835236e-02
-8.738631382584571838e-03
-4.788407124578952789e-03
1.710449345409870148e-02
-1.076634041965007782e-02
-4.005940631031990051e-03
1.726375333964824677e-02
6.662463769316673279e-03
1.542308367788791656e-02
-3.205335815437138081e-04
1.013440638780593872e-02
-1.563341170549392700e-02
-1.331564155407249928e-03
7.369326427578926086e-03
-9.127379395067691803e-03
2.954963129013776779e-03
-1.832520402967929840e-02
9.216537699103355408e-03
1.182534359395503998e-02
-2.032204531133174896e-02
-1.804326288402080536e-02
6.666775792837142944e-03
-1.611731387674808502e-02
-1.147286966443061829e-02
-3.620278555899858475e-03
-1.036904938519001007e-02
2.204780932515859604e-03
1.041992940008640289e-02
-6.427703425288200378e-03
4.584921523928642273e-03
9.006127715110778809e-03
-8.221202529966831207e-03
1.894499175250530243e-02
1.159917563199996948e-02
9.171418845653533936e-03
-7.178308442234992981e-03
-1.222521625459194183e-02
-9.253423777408897877e-04
6.046453490853309631e-03
-1.349901221692562103e-02
-1.008736668154597282e-03
-1.319993473589420319e-02
3.635490778833627701e-03
-1.068588811904191971e-02
1.069843210279941559e-02
6.135025992989540100e-03
1.835075579583644867e-02
3.720114473253488541e-03
-1.515041477978229523e-02
1.388827152550220490e-02
-4.612614400684833527e-03
-1.283667050302028656e-02
-1.016931701451539993e-02
7.286310195922851562e-03
1.214794442057609558e-02
1.001802459359169006e-02
-1.625347137451171875e-02
-3.043151227757334709e-03
1.592797972261905670e-02
-7.854757830500602722e-03
-1.528099738061428070e-02
-1.296003535389900208e-02
8.312131976708769798e-04
-1.970992190763354301e-03
4.203908145427703857e-03
1.733314129523932934e-03
1.830550900194793940e-05
-9.126972407102584839e-03
6.476432085037231445e-03
-2.018167451024055481e-02
6.225921213626861572e-03
-9.423860465176403522e-04
6.743492558598518372e-03
-2.061131037771701813e-02
2.446659142151474953e-03
-1.403987966477870941e-02
3.493922529742121696e-03
8.952645584940910339e-03
1.430230401456356049e-02
-1.454574149101972580e-02
6.097406148910522461e-03
-8.804298005998134613e-03
2.245129784569144249e-03
2.344777807593345642e-03
6.274748593568801880e-04
-8.011464029550552368e-03
9.026886895298957825e-03
-1.966174133121967316e-02
-1.536868419498205185e-02
-3.435118822380900383e-03
8.673371747136116028e-03
-1.500866934657096863e-02
-1.643842644989490509e-02
1.955014280974864960e-02
-3.999493084847927094e-03
2.630002330988645554e-03
1.049119047820568085e-02
1.111827231943607330e-02
-1.560041122138500214e-02
-7.338466122746467590e-03
-1.774805830791592598e-03
-7.364823482930660248e-03
-1.510019414126873016e-02
1.591139100492000580e-02
1.126557588577270508e-03
6.186565733514726162e-04
-2.926100511103868484e-03
-1.301132887601852417e-02
3.016271861270070076e-03
1.264065853320062160e-03
-7.015196606516838074e-03
1.795012690126895905e-02
6.734047085046768188e-03
1.425866596400737762e-02
-8.151974529027938843e-03
1.488970476202666759e-03
1.765834353864192963e-02
-3.339346149004995823e-04
1.566125266253948212e-02
-2.954571391455829144e-04
1.593849994242191315e-02
-1.240914687514305115e-02
1.221105642616748810e-02
9.277826175093650818e-03
9.307714179158210754e-03
-1.249107252806425095e-02
-9.629046544432640076e-03
-8.280685171484947205e-03
7.239833474159240723e-03
-3.207274712622165680e-03
3.452141536399722099e-03
1.216139830648899078e-02
-2.155033499002456665e-02
7.268333807587623596e-03
-1.526555232703685760e-02
-1.037060096859931946e-02
-1.597847789525985718e-02
-1.584455370903015137e-02
-3.299763659015297890e-03
1.524252630770206451e-02
-7.795776240527629852e-03
-1.254122145473957062e-02
1.363643072545528412e-02
9.070945903658866882e-03
1.602946082130074501e-03
-4.552454687654972076e-03
6.177915260195732117e-03
1.130445301532745361e-02
8.211256936192512512e-03
-6.537175737321376801e-03
3.910076804459095001e-03
1.380571909248828888e-02
-5.319074727594852448e-03
1.026461273431777954e-02
6.591536104679107666e-03
-5.242252373136579990e-04
7.753632962703704834e-03
-1.420949399471282959e-02
9.808791801333427429e-03
-8.846915327012538910e-03
2.069765888154506683e-02
-2.246629213914275169e-03
3.989868797361850739e-03
-1.498068124055862427e-02
1.629536622203886509e-03
-5.709468387067317963e-03
-7.199696265161037445e-03
9.220190258929505944e-05
1.450413255952298641e-03
2.935982774943113327e-03
-4.630104638636112213e-03
-7.420307956635951996e-03
-1.153083890676498413e-02
1.766553707420825958e-02
-9.066234342753887177e-03
2.801598049700260162e-03
8.612008765339851379e-03
1.218211464583873749e-02
-2.004791796207427979e-02
4.495441913604736328e-03
-8.858568966388702393e-03
-7.389818318188190460e-03
-7.787695154547691345e-03
-1.690273545682430267e-02
-1.024880353361368179e-02
1.408720947802066803e-02
1.125854812562465668e-02
-9.009459987282752991e-03
8.817121386528015137e-03
-1.913316175341606140e-02
-3.431589109823107719e-03
-4.905839450657367706e-03
1.564805023372173309e-02
-1.867270655930042267e-02
-1.455896440893411636e-02
-4.305555019527673721e-03
1.027382677420973778e-03
1.142049767076969147e-02
9.146314114332199097e-03
9.886197745800018311e-03
-1.064367592334747314e-02
7.541934028267860413e-03
-8.940536645241081715e-04
-7.546538487076759338e-03
-3.779637161642313004e-03
8.430143818259239197e-03
-6.080497987568378448e-03
5.299731157720088959e-03
-1.546670310199260712e-02
8.884489536285400391e-03
2.176465932279825211e-03
1.242083869874477386e-02
2.019214443862438202e-02
-3.452363191172480583e-03
1.945821009576320648e-02
1.653575338423252106e-02
1.186677813529968262e-02
1.840859837830066681e-02
-1.886784215457737446e-03
-7.960818475112318993e-04
-1.765396073460578918e-02
-1.759240776300430298e-02
1.128262956626713276e-03
3.701509558595716953e-04
9.997416287660598755e-03
-1.881833374500274658e-02
1.317258365452289581e-02
-1.814743503928184509e-02
-1.284039113670587540e-02
1.474811811931431293e-03
2.321635838598012924e-04
6.719708442687988281e-03
1.524688117206096649e-02
-1.945572532713413239e-02
-2.087790705263614655e-02
7.300302386283874512e-03
-1.429896056652069092e-02
7.136194035410881042e-03
-9.587337262928485870e-03
-1.575705409049987793e-02
1.059325970709323883e-02
1.527758501470088959e-02
3.678920911625027657e-03
-2.063209563493728638e-02
5.916975438594818115e-03
-1.723717153072357178e-02
-1.681246794760227203e-02
-1.910603418946266174e-02
-1.019171159714460373e-02
-2.014206722378730774e-02
-3.309452673420310020e-03
-1.397166401147842407e-03
-7.979231886565685272e-03
-5.293617025017738342e-03
1.726130582392215729e-02
1.223480142652988434e-02
-2.063285792246460915e-03
-1.345064304769039154e-02
-1.229957584291696548e-02
-1.107839960604906082e-02
-5.538706667721271515e-03
7.534943521022796631e-03
2.108298474922776222e-03
1.831863261759281158e-02
-4.352211020886898041e-03
1.890075393021106720e-02
8.472770452499389648e-03
-1.619251258671283722e-02
1.978600956499576569e-02
-1.250669080764055252e-02
1.120739057660102844e-02
-3.598739393055438995e-03
2.115711383521556854e-02
1.715323142707347870e-02
2.028818987309932709e-02
-7.090347819030284882e-03
-1.350629702210426331e-02
1.260293275117874146e-02
-3.237046534195542336e-03
-1.332909986376762390e-02
1.217415370047092438e-02
-1.049065962433815002e-02
-1.017176732420921326e-02
7.560973986983299255e-03
8.842797949910163879e-03
1.277671195566654205e-02
-1.264046691358089447e-02
-1.055657211691141129e-02
-1.461052708327770233e-02
-7.318005897104740143e-03
-5.334910820238292217e-04
-1.855938136577606201e-02
1.107810251414775848e-02
-1.329579763114452362e-02
-1.438937894999980927e-02
-1.365278102457523346e-02
6.517447531223297119e-03
-9.335901588201522827e-03
-1.397105515934526920e-03
-1.290283352136611938e-02
1.493324898183345795e-02
-3.500868799164891243e-03
-1.386997848749160767e-02
-8.874453604221343994e-03
1.629018969833850861e-02
7.831196999177336693e-04
-2.090369584038853645e-03
-1.553503982722759247e-02
1.078109606169164181e-03
-6.334154866635799408e-03
1.062416355125606060e-03
-1.638987474143505096e-02
-5.777176469564437866e-03
1.679594162851572037e-03
6.289754528552293777e-04
-1.645107939839363098e-02
-8.403330110013484955e-03
1.919721998274326324e-02
6.562542170286178589e-03
-5.636387504637241364e-03
5.777003243565559387e-03
4.777444992214441299e-04
1.917677558958530426e-02
1.276041939854621887e-02
-1.081100665032863617e-02
-1.050580292940139771e-03
1.822449453175067902e-02
-9.364832192659378052e-03
-1.443378254771232605e-02
8.929803967475891113e-03
-9.737661108374595642e-03
1.161150448024272919e-02
-1.038995198905467987e-02
2.553342375904321671e-03
-1.039670128375291824e-02
-7.949362508952617645e-03
6.509037688374519348e-03
5.577160045504570007e-03
1.662564836442470551e-02
7.764233276247978210e-03
-1.390091516077518463e-02
-1.577437296509742737e-02
-5.038667935878038406e-03
1.272890530526638031e-02
-1.448696572333574295e-02
8.141847327351570129e-03
-4.910690709948539734e-03
-1.162464264780282974e-03
4.891399294137954712e-03
-1.801682636141777039e-02
-1.122603472322225571e-02
-3.329153638333082199e-03
-1.618925295770168304e-02
1.581944338977336884e-02
-9.224634617567062378e-03
-1.835742779076099396e-02
7.493295124731957912e-04
9.634805843234062195e-03
6.145756691694259644e-03
7.698867470026016235e-03
-6.208649836480617523e-03
1.717534475028514862e-02
5.258960300125181675e-04
-1.629871502518653870e-02
-1.677477615885436535e-03
-6.458220072090625763e-03
1.537841279059648514e-03
3.856314113363623619e-03
1.727502606809139252e-02
-1.540347747504711151e-02
-1.466903835535049438e-02
1.099537685513496399e-02
2.279485110193490982e-03
7.156973704695701599e-03
1.078922301530838013e-02
-9.568763896822929382e-03
1.110192388296127319e-02
7.173374295234680176e-03
5.431868601590394974e-03
1.266418490558862686e-03
-1.316016726195812225e-02
-8.861297741532325745e-03
1.323423162102699280e-02
4.039741586893796921e-03
1.327389851212501526e-02
5.923567805439233780e-03
-5.390208214521408081e-03
1.793864183127880096e-02
9.140815585851669312e-03
-5.143075715750455856e-03
9.374719113111495972e-03
-5.433821119368076324e-03
6.691472604870796204e-03
-1.481658220291137695e-02
1.645305939018726349e-02
1.368397288024425507e-02
1.627549529075622559e-03
-1.028377329930663109e-03
-6.588325835764408112e-03
-9.061125107109546661e-03
-1.055161748081445694e-02
-1.357144862413406372e-02
-7.337200455367565155e-03
-1.208025123924016953e-02
5.722522735595703125e-03
1.466861180961132050e-02
1.617062650620937347e-02
5.208790302276611328e-03
6.617737933993339539e-03
-9.333103895187377930e-03
6.004599854350090027e-03
-2.743749879300594330e-03
-1.203805301338434219e-02
-1.908543705940246582e-02
-7.925366982817649841e-03
1.226587034761905670e-02
-5.573970265686511993e-03
-1.230614911764860153e-02
5.820751190185546875e-03
9.438939392566680908e-03
-1.062292791903018951e-02
-1.521534658968448639e-02
-1.596987619996070862e-02
7.311426103115081787e-03
4.107526037842035294e-03
8.947320282459259033e-03
1.276993565261363983e-02
-1.477500796318054199e-02
1.221788302063941956e-02
-8.104676380753517151e-03
-1.127034798264503479e-02
1.017498201690614223e-03
1.697540096938610077e-02
-5.918364971876144409e-03
-1.515804603695869446e-02
-7.487148046493530273e-03
-5.734180100262165070e-03
-1.430180855095386505e-02
1.852407865226268768e-02
-9.204613976180553436e-03
-1.050359802320599556e-03
-1.558821834623813629e-02
-8.275538682937622070e-03
1.717352680861949921e-02
2.030909247696399689e-02
1.283556781709194183e-02
-1.366322580724954605e-02
1.277324371039867401e-02
-1.543409563601016998e-02
-9.368196129798889160e-03
-1.490394398570060730e-02
-1.991167291998863220e-02
5.396755412220954895e-03
1.423568092286586761e-02
-1.095294114202260971e-02
-1.631511189043521881e-02
-1.206720946356654167e-03
5.393112660385668278e-04
4.836296662688255310e-03
1.146898232400417328e-02
-8.567731827497482300e-03
-1.205148361623287201e-02
1.144011504948139191e-02
1.030980609357357025e-02
-3.678228240460157394e-03
-5.926975980401039124e-03
-2.781360410153865814e-03
-4.983339924365282059e-03
1.142062433063983917e-02
-6.343271117657423019e-03
8.472720161080360413e-03
-5.188232753425836563e-04
1.081293262541294098e-02
-2.795009640976786613e-03
1.408533938229084015e-02
-8.348500356078147888e-03
1.823043264448642731e-02
5.002438090741634369e-03
1.915586180984973907e-02
-7.597956806421279907e-03
3.436935832723975182e-03
3.376662498340010643e-03
6.195330992341041565e-03
5.262141581624746323e-03
6.255729123950004578e-03
-6.059206090867519379e-03
7.809346541762351990e-03
1.998856198042631149e-03
-1.580388098955154419e-02
9.390657651238143444e-04
-9.770439937710762024e-03
2.143658138811588287e-02
9.255705401301383972e-03
-4.128397442400455475e-03
8.936062455177307129e-03
1.811434887349605560e-02
-2.065163338556885719e-03
-1.057831756770610809e-02
-1.662840694189071655e-02
8.931947872042655945e-03
-1.219189260154962540e-02
1.192337274551391602e-02
-1.086711138486862183e-02
-1.995311118662357330e-02
3.009307896718382835e-03
6.791008636355400085e-03
-1.126314327120780945e-02
1.208926178514957428e-02
-5.149349104613065720e-03
-8.121835067868232727e-03
1.370467059314250946e-02
-1.650132425129413605e-02
-1.956952176988124847e-02
1.387428678572177887e-02
-1.730607077479362488e-02
1.332820393145084381e-02
1.154988072812557220e-02
1.114367158152163029e-03
-3.019481955561786890e-04
1.557668484747409821e-02
4.458514973521232605e-03
-1.069120597094297409e-02
-9.357219561934471130e-03
-1.805174164474010468e-02
-6.924931891262531281e-03
-1.734355650842189789e-02
3.413415281102061272e-03
-4.411036206874996424e-04
1.285422407090663910e-02
1.629552431404590607e-02
1.419105567038059235e-02
-1.527212560176849365e-02
1.091010170057415962e-03
1.276125200092792511e-02
1.169791677966713905e-03
6.208628416061401367e-03
6.448170170187950134e-03
5.979111883789300919e-03
-1.146528497338294983e-02
-5.499641411006450653e-03
-8.798200637102127075e-03
1.110601611435413361e-02
-9.879583492875099182e-03
-1.313953101634979248e-02
-6.985801272094249725e-03
1.190494373440742493e-02
-1.106218714267015457e-02
1.272356370463967323e-03
-1.096324180252850056e-03
5.607615225017070770e-03
4.448259249329566956e-03
1.284489594399929047e-02
-1.578885130584239960e-02
-6.028823554515838623e-03
1.218331605195999146e-02
1.994695328176021576e-02
1.940008811652660370e-02
1.784407906234264374e-02
-5.813133902847766876e-03
2.025438472628593445e-03
5.376992630772292614e-04
-8.306357078254222870e-03
1.425631530582904816e-02
-1.799067854881286621e-02
1.434601144865155220e-03
-1.064404193311929703e-02
1.527469418942928314e-02
1.264304108917713165e-02
-1.392690092325210571e-02
-5.774395540356636047e-03
4.995719791622832417e-05
-5.544418003410100937e-03
-4.395751748234033585e-03
-1.034574862569570541e-02
-1.394028589129447937e-02
-1.958264969289302826e-02
-1.518685184419155121e-02
4.986638203263282776e-03
1.279293186962604523e-02
-1.155965868383646011e-02
-7.144199917092919350e-04
-1.243058824911713600e-03
7.608668878674507141e-03
-1.384934596717357635e-02
-1.104043889790773392e-02
1.399832405149936676e-02
-7.276010699570178986e-03
-1.577051170170307159e-02
-6.382663734257221222e-03
-2.676579868420958519e-03
-1.690301112830638885e-02
7.957084104418754578e-03
6.485663354396820068e-03
-7.950246334075927734e-03
-2.303520683199167252e-03
9.848903864622116089e-03
1.394653879106044769e-02
9.654991328716278076e-03
-6.156616844236850739e-03
-7.133848033845424652e-03
-9.029407985508441925e-03
1.342425309121608734e-02
2.019725553691387177e-02
1.569544337689876556e-02
8.778410032391548157e-03
1.832530833780765533e-02
3.828629152849316597e-03
1.168373227119445801e-02
1.853730715811252594e-02
6.611576303839683533e-03
-1.134679652750492096e-02
1.650572381913661957e-02
-1.282497774809598923e-02
-1.269048638641834259e-02
1.889537461102008820e-02
1.138426363468170166e-02
1.199167035520076752e-02
1.142068952322006226e-02
1.405499316751956940e-02
-3.473132965154945850e-04
-1.477636210620403290e-02
1.587123237550258636e-02
-2.212254563346505165e-03
7.439916953444480896e-03
-1.392239937558770180e-03
1.317868940532207489e-02
1.079117064364254475e-03
2.923609572462737560e-04
-1.310060080140829086e-02
-2.296252176165580750e-03
-1.134591642767190933e-02
-1.005987069220282137e-04
-1.030381210148334503e-02
1.196185685694217682e-02
9.195892140269279480e-03
7.280895486474037170e-03
-9.288168512284755707e-03
9.423315525054931641e-03
8.287208154797554016e-03
-1.431701425462961197e-02
8.247958496212959290e-03
-1.428244402632117271e-03
1.549214310944080353e-02
-3.218876663595438004e-03
-1.656161993741989136e-02
-8.059442974627017975e-03
-1.453277841210365295e-02
3.764307126402854919e-03
-1.419064588844776154e-02
-1.122575998306274414e-02
-1.139774452894926071e-02
1.504914648830890656e-02
-5.368014797568321228e-03
1.326396502554416656e-02
-1.650532335042953491e-02
-7.436877116560935974e-03
2.002809382975101471e-02
-1.334377378225326538e-02
2.872447483241558075e-03
1.276174560189247131e-02
1.090522296726703644e-02
3.668298479169607162e-03
-5.194852128624916077e-03
-1.078225672245025635e-02
2.960889600217342377e-03
9.487697854638099670e-03
1.122499257326126099e-02
-4.241734743118286133e-03
-4.720105789601802826e-03
-1.524582877755165100e-02
-1.300029642879962921e-02
-3.033655520994216204e-04
-1.817606762051582336e-02
-2.500560600310564041e-03
6.109353154897689819e-03
-1.585827209055423737e-02
9.813008829951286316e-03
1.317108236253261566e-02
1.360993646085262299e-02
5.394782871007919312e-03
-3.122489899396896362e-03
-8.013281621970236301e-04
-1.339330710470676422e-02
-1.382275111973285675e-02
4.771899431943893433e-03
-4.678456578403711319e-03
-1.322249299846589565e-03
-7.538744248449802399e-03
1.463914476335048676e-02
8.322108536958694458e-03
2.603432629257440567e-03
-6.623180815950036049e-04
2.069250913336873055e-03
-9.408353827893733978e-03
-7.859136909246444702e-03
7.002877071499824524e-03
-2.328269474674016237e-04
-1.045226771384477615e-02
1.394570805132389069e-02
-5.420810543000698090e-03
3.281320445239543915e-03
1.787533424794673920e-02
-9.626442566514015198e-03
8.342882618308067322e-03
-1.538208127021789551e-02
1.136289560236036777e-03
-1.673604920506477356e-02
1.833158545196056366e-02
2.416694071143865585e-03
7.645906880497932434e-03
8.576558902859687805e-03
-1.572927646338939667e-02
1.856406219303607941e-02
-1.500607281923294067e-02
1.790736429393291473e-02
-3.648526617325842381e-04
1.410019584000110626e-02
-1.739776576869189739e-03
1.785979978740215302e-02
9.018916636705398560e-03
1.520826108753681183e-02
6.410254165530204773e-03
1.668983371928334236e-03
1.929673366248607635e-02
1.348694041371345520e-02
1.871747779659926891e-03
-2.204725053161382675e-03
-7.175103761255741119e-03
-1.409540791064500809e-02
-1.727399602532386780e-02
3.097474575042724609e-03
-9.599820710718631744e-03
1.577770151197910309e-02
4.952942952513694763e-03
-4.384860862046480179e-03
-9.370031766593456268e-03
-2.929928945377469063e-03
-7.695908658206462860e-03
-1.105492934584617615e-02
-1.069846842437982559e-02
-1.744523830711841583e-02
1.816515810787677765e-03
-3.668840276077389717e-03
1.369173265993595123e-02
-1.977209001779556274e-02
1.021504588425159454e-02
-7.195573300123214722e-03
-3.647688718046993017e-04
1.642855815589427948e-02
5.256373435258865356e-03
-1.469548232853412628e-02
-6.905577145516872406e-03
1.295618154108524323e-02
-9.358588606119155884e-03
9.973557665944099426e-03
-5.620177835226058960e-03
-1.371393632143735886e-02
4.529116675257682800e-03
1.771255768835544586e-02
6.964495405554771423e-04
1.278792275115847588e-03
-1.391161885112524033e-02
-1.232436858117580414e-03
5.635976791381835938e-03
2.562589477747678757e-03
-8.260577917098999023e-03
-3.415368264541029930e-03
9.811490774154663086e-03
3.917920868843793869e-03
1.949932612478733063e-02
6.923152133822441101e-03
9.362040087580680847e-03
1.599532924592494965e-02
1.430485397577285767e-02
-1.138457842171192169e-02
-9.007228654809296131e-04
1.334330812096595764e-02
1.268952526152133942e-02
6.014569662511348724e-03
-1.135199703276157379e-02
-1.549753174185752869e-02
-1.438918709754943848e-02
1.138895004987716675e-02
-1.503029838204383850e-02
1.576495997142046690e-04
1.268614269793033600e-02
1.570001430809497833e-02
9.913416579365730286e-03
7.508046925067901611e-03
-7.933295331895351410e-03
-4.818530753254890442e-03
-1.492300070822238922e-02
-1.624257303774356842e-02
5.541143938899040222e-03
-9.882439859211444855e-03
-8.094893768429756165e-03
-1.888034120202064514e-02
-2.743883756920695305e-03
1.491374336183071136e-02
8.620409294962882996e-03
-4.433707799762487411e-03
6.660757586359977722e-03
-6.984946317970752716e-03
1.038867980241775513e-03
5.072973668575286865e-03
-2.157394960522651672e-02
-6.622876971960067749e-04
1.942352508194744587e-03
5.985457450151443481e-03
2.263638889417052269e-03
-1.961039565503597260e-02
-6.098032929003238678e-03
2.103008329868316650e-03
1.066823117434978485e-02
-1.103282347321510315e-02
-4.730272106826305389e-03
2.842403715476393700e-03
1.823990978300571442e-02
1.012276113033294678e-02
-1.313135027885437012e-02
1.148662902414798737e-02
-1.752115669660270214e-03
1.346006430685520172e-02
1.008456759154796600e-02
6.966441869735717773e-03
1.565681211650371552e-02
-3.018190036527812481e-04
8.019316941499710083e-03
-5.831511691212654114e-03
9.345104917883872986e-03
1.084471493959426880e-02
-1.032785326242446899e-02
-1.292538177222013474e-02
7.809136062860488892e-03
-7.050339132547378540e-03
1.122073084115982056e-02
-6.499220617115497589e-03
5.136279389262199402e-03
-1.709934510290622711e-02
-9.013140574097633362e-03
-1.603828929364681244e-02
5.523547530174255371e-03
7.995817810297012329e-03
-1.318450458347797394e-02
1.611084677278995514e-02
6.431834772229194641e-04
-1.655739615671336651e-03
-6.200421601533889771e-03
-1.208029221743345261e-02
2.366347238421440125e-03
-1.820361427962779999e-02
7.980894297361373901e-03
1.279268600046634674e-02
3.028522944077849388e-03
-1.405959762632846832e-02
-1.559258997440338135e-02
1.582193560898303986e-02
-1.652131229639053345e-02
-9.603929705917835236e-03
-1.449990959372371435e-04
4.247879842296242714e-04
3.161571919918060303e-03
-1.223020814359188080e-02
-1.847805455327033997e-02
9.674752131104469299e-03
2.004444040358066559e-02
-1.264778152108192444e-02
-2.732445485889911652e-03
-3.174426965415477753e-03
1.784654892981052399e-02
1.406230404973030090e-02
-1.524850539863109589e-02
-1.577130984514951706e-03
1.111046224832534790e-02
2.363126259297132492e-03
-9.957628324627876282e-03
8.422475308179855347e-03
-1.358396001160144806e-02
-7.885917089879512787e-03
1.296681165695190430e-02
-2.083817962557077408e-04
-7.177236839197576046e-04
-6.911046802997589111e-03
1.642909087240695953e-02
1.381750404834747314e-02
1.593458093702793121e-02
-2.399554476141929626e-03
-4.981061443686485291e-03
1.228758506476879120e-02
1.656849752180278301e-03
6.178669631481170654e-03
2.161265583708882332e-03
-1.586901023983955383e-02
3.665571333840489388e-03
-7.132087834179401398e-03
7.480882108211517334e-03
-1.898760534822940826e-02
-1.322325877845287323e-02
-1.637921109795570374e-02
3.660238580778241158e-03
-8.350312709808349609e-03
2.163117751479148865e-03
-7.008077576756477356e-03
7.553132250905036926e-03
1.679458282887935638e-02
1.183843426406383514e-02
6.864620372653007507e-03
-1.954641938209533691e-02
-7.533386349678039551e-03
-2.541886875405907631e-03
1.169940270483493805e-02
-1.246706675738096237e-02
-1.818492263555526733e-02
4.255030304193496704e-03
8.754068985581398010e-03
8.118156110867857933e-04
5.192944779992103577e-03
6.625119596719741821e-03
-1.403404213488101959e-02
-1.262498181313276291e-02
4.849830642342567444e-03
6.919246166944503784e-03
6.614616140723228455e-03
-5.359984934329986572e-03
-1.600522920489311218e-02
8.850742131471633911e-03
-1.401904225349426270e-02
9.312421083450317383e-03
2.474262146279215813e-03
7.557393983006477356e-03
-5.809077993035316467e-04
5.551847163587808609e-03
-1.513283816166222095e-03
1.970070786774158478e-02
-9.048394858837127686e-03
-1.469468697905540466e-02
4.853687249124050140e-03
-8.372011594474315643e-03
-1.310032419860363007e-02
7.796101272106170654e-03
-3.289926098659634590e-03
7.889846339821815491e-03
1.759654097259044647e-02
5.670444108545780182e-03
-1.445813104510307312e-02
-4.959791549481451511e-04
5.382275674492120743e-03
1.920846290886402130e-02
8.037686347961425781e-03
1.429144479334354401e-02
1.782096363604068756e-02
-9.589052759110927582e-03
1.458468846976757050e-02
1.520566083490848541e-02
8.194973692297935486e-03
-9.597250260412693024e-03
-1.201769243925809860e-02
-1.067311037331819534e-02
1.707641594111919403e-02
-1.984294317662715912e-02
2.618429018184542656e-03
7.097599445842206478e-04
1.692636497318744659e-02
-1.377211697399616241e-02
9.502930566668510437e-03
1.964739058166742325e-04
-2.753936132648959756e-05
2.854492777260020375e-05
-1.849705725908279419e-02
7.677173241972923279e-03
-1.603675261139869690e-02
7.553433999419212341e-03
-5.384589894674718380e-04
-4.966269712895154953e-03
-1.374970749020576477e-02
-1.486121490597724915e-02
1.718374900519847870e-03
-4.127075895667076111e-03
1.190865784883499146e-02
1.105000637471675873e-02
-1.226371712982654572e-02
1.215187646448612213e-02
-6.929807364940643311e-03
-1.705818693153560162e-03
8.486317470669746399e-03
1.993982307612895966e-02
-7.830033078789710999e-03
-6.289815530180931091e-03
-1.133728865534067154e-02
-1.337660290300846100e-02
2.984596183523535728e-03
-1.070785336196422577e-02
1.458215527236461639e-02
-8.446626365184783936e-03
2.063573338091373444e-03
-1.407006988301873207e-03
-3.400284331291913986e-03
-1.271535456180572510e-02
-1.562115550041198730e-02
6.440961733460426331e-03
-8.936105296015739441e-03
-8.179624564945697784e-03
-6.034320220351219177e-03
1.275396905839443207e-02
-3.726393450051546097e-03
1.168059371411800385e-02
-2.839032327756285667e-03
-2.035356126725673676e-02
1.031567528843879700e-02
1.455882005393505096e-02
-1.269919984042644501e-02
-1.546454336494207382e-02
1.550924219191074371e-02
3.210457274690270424e-03
1.304620690643787384e-02
-3.780043683946132660e-03
1.968880183994770050e-03
4.279557615518569946e-03
-4.404189065098762512e-03
-3.425723174586892128e-03
-1.897090300917625427e-02
1.230051182210445404e-02
1.056854613125324249e-02
6.530055776238441467e-03
9.136661887168884277e-03
6.853545346530154347e-05
8.424676954746246338e-03
-3.312997054308652878e-03
1.021812111139297485e-02
1.072886399924755096e-02
-3.436631290242075920e-03
8.572764694690704346e-03
-1.426069252192974091e-02
-1.146173104643821716e-02
6.361247505992650986e-04
-5.526268854737281799e-03
1.781569980084896088e-02
1.757346279919147491e-02
-9.944688528776168823e-03
-1.660501398146152496e-02
1.426625414751470089e-03
2.031874842941761017e-02
-4.221784882247447968e-03
9.733481332659721375e-03
1.277434453368186951e-02
-2.214622218161821365e-04
-9.016721509397029877e-03
-1.416111737489700317e-02
-1.036072336137294769e-02
1.369055733084678650e-02
1.419506408274173737e-02
2.524980111047625542e-03
-6.103637628257274628e-03
1.411730237305164337e-02
9.152748971246182919e-04
1.604033447802066803e-02
-1.512508094310760498e-02
-9.914156049489974976e-03
1.907282881438732147e-02
1.539317332208156586e-02
1.689912937581539154e-02
1.894347951747477055e-03
-1.761013455688953400e-02
7.843507453799247742e-03
-1.088931690901517868e-02
-1.725968345999717712e-02
-1.129510998725891113e-02
-9.623695164918899536e-03
1.232241652905941010e-02
-3.255145566072314978e-04
-1.058520469814538956e-02
6.039351224899291992e-03
-1.779918372631072998e-02
-1.812488771975040436e-02
-3.121353220194578171e-03
9.682836011052131653e-03
-1.306695048697292805e-03
-3.055481007322669029e-03
1.293098367750644684e-02
1.082752831280231476e-02
5.303433164954185486e-03
-1.598068885505199432e-02
1.025591278448700905e-03
1.320659555494785309e-02
-1.551854982972145081e-02
1.035756664350628853e-03
3.120402339845895767e-03
1.676368643529713154e-03
1.867167465388774872e-02
1.365044526755809784e-02
-8.397893048822879791e-03
7.687060162425041199e-03
3.025443525984883308e-03
6.128257140517234802e-03
-2.168971113860607147e-04
9.848774789134040475e-05
8.338944986462593079e-03
-2.096917014569044113e-03
-1.157347112894058228e-02
4.532043356448411942e-03
2.734424924710765481e-05
-1.416594348847866058e-02
-8.241214789450168610e-03
6.711184978485107422e-03
6.424140185117721558e-03
-1.354704052209854126e-02
6.680304184556007385e-03
1.445477269589900970e-02
1.227876730263233185e-02
1.160494633950293064e-03
6.285063922405242920e-03
5.896494258195161819e-03
-9.764207527041435242e-03
2.552233170717954636e-03
-7.548117078840732574e-03
9.171103010885417461e-04
-1.354266330599784851e-02
5.043532699346542358e-03
8.247723802924156189e-03
-5.798277445137500763e-03
-3.446697723120450974e-03
-1.243359129875898361e-02
4.765709862112998962e-03
-1.735657826066017151e-02
-1.911785453557968140e-02
-3.868977772071957588e-03
-1.285475445911288261e-03
-1.224911119788885117e-02
-3.244158287998288870e-04
7.758852094411849976e-03
-6.938215810805559158e-04
-1.613665558397769928e-02
-1.266088616102933884e-02
-1.818998157978057861e-02
-2.161262556910514832e-03
-1.556261721998453140e-02
-9.443907067179679871e-03
-1.291819941252470016e-02
-4.646608605980873108e-03
-1.176126766949892044e-02
-1.624788157641887665e-02
-1.073571853339672089e-02
-7.756937295198440552e-03
1.064065843820571899e-02
1.864048279821872711e-02
-7.822073064744472504e-03
1.998713053762912750e-02
1.483697257936000824e-02
-4.246289841830730438e-03
9.785605594515800476e-03
1.780538074672222137e-02
1.003231853246688843e-02
4.737006034702062607e-03
1.133175380527973175e-02
9.338952600955963135e-03
1.665231399238109589e-02
1.829001121222972870e-02
2.166313061024993658e-05
1.944996230304241180e-02
2.037050761282444000e-02
1.771507225930690765e-02
-1.210435666143894196e-02
9.011005167849361897e-04
7.471032440662384033e-03
-1.208969578146934509e-02
-1.587543822824954987e-02
2.090289629995822906e-02
-4.170745611190795898e-03
-1.063011772930622101e-02
9.835837408900260925e-03
-6.359303370118141174e-03
-6.701929494738578796e-03
-1.263264566659927368e-02
-1.253721117973327637e-02
6.893994286656379700e-03
-1.403896510601043701e-02
1.191622577607631683e-02
1.583803631365299225e-02
5.658356472849845886e-03
9.675842593424022198e-04
-5.771865136921405792e-03
-1.029440853744745255e-02
1.110523752868175507e-02
-1.619706675410270691e-02
-4.536914173513650894e-03
1.445657573640346527e-02
1.194992291857488453e-04
-3.822166705504059792e-03
1.523553766310214996e-02
1.326587400399148464e-03
1.317495666444301605e-02
3.160424530506134033e-03
-1.595847681164741516e-02
-2.043984271585941315e-02
-7.312729954719543457e-03
-1.359033584594726562e-02
1.266189478337764740e-02
-6.004573777318000793e-03
-1.009112130850553513e-02
4.743300843983888626e-03
-1.685980334877967834e-02
1.297415420413017273e-02
1.349580287933349609e-02
1.467570848762989044e-02
-2.982283476740121841e-03
1.743915118277072906e-02
1.988599076867103577e-03
-6.746595725417137146e-03
-3.999104723334312439e-03
-2.065889071673154831e-03
-1.341169234365224838e-02
1.079025305807590485e-02
9.828763082623481750e-03
-1.447384012863039970e-03
-1.273658685386180878e-02
8.230887353420257568e-03
-9.083542972803115845e-03
-1.995091326534748077e-03
5.559029057621955872e-03
1.935289986431598663e-02
-3.059510840103030205e-03
1.469488604925572872e-03
1.395041309297084808e-02
-4.647909663617610931e-03
1.595252566039562225e-02
3.321612719446420670e-03
-6.272889673709869385e-03
-1.353717595338821411e-02
1.729479990899562836e-02
3.493978583719581366e-04
6.804915145039558411e-03
1.435281150043010712e-02
-1.796516031026840210e-02
3.307296428829431534e-03
-4.485277459025382996e-03
-8.532916195690631866e-03
-8.841776871122419834e-04
1.583169586956501007e-02
-1.871000858955085278e-03
1.705230586230754852e-02
-9.137656539678573608e-03
5.269022658467292786e-03
6.214536726474761963e-03
1.536610536277294159e-02
-1.315678586252033710e-03
-2.061094716191291809e-02
-3.853241680189967155e-03
-2.020780183374881744e-02
1.050183735787868500e-02
1.630951650440692902e-03
1.319443248212337494e-02
-1.343248039484024048e-02
-1.997485291212797165e-03
9.454524144530296326e-03
-1.130755990743637085e-02
-1.418456155806779861e-02
2.098061377182602882e-04
-2.902022097259759903e-03
-4.752178676426410675e-03
-7.153199985623359680e-03
8.886775001883506775e-03
9.135425090789794922e-03
-1.705226837657392025e-03
6.632823497056961060e-03
1.882071979343891144e-02
-9.856093674898147583e-03
-1.476129889488220215e-02
-1.117858570069074631e-02
3.522940387483686209e-04
-8.729365654289722443e-03
1.925767399370670319e-02
-1.354536227881908417e-02
1.003526896238327026e-02
6.817640736699104309e-03
-1.378999650478363037e-02
-1.474834606051445007e-02
5.016474751755595207e-04
4.411688540130853653e-03
1.186241768300533295e-02
2.492532599717378616e-03
-1.191529631614685059e-02
-1.165636628866195679e-02
-4.737299866974353790e-03
1.322045177221298218e-02
-1.320735923945903778e-02
-9.388623759150505066e-03
5.169106181710958481e-03
1.339057460427284241e-03
-1.757500320672988892e-02
-1.521630026400089264e-02
-1.096579711884260178e-02
-1.106507238000631332e-02
-1.814680919051170349e-02
2.041512634605169296e-04
-1.388318277895450592e-02
1.448783837258815765e-02
-1.139485556632280350e-02
-1.575868017971515656e-02
-1.539506111294031143e-02
4.781289026141166687e-03
-1.209415309131145477e-02
-1.931972429156303406e-02
-5.335597787052392960e-03
-2.053838782012462616e-02
-1.088107121177017689e-03
-7.399269088637083769e-05
-1.741337776184082031e-02
1.459614746272563934e-02
1.165046356618404388e-02
1.083510927855968475e-02
-4.282934125512838364e-03
-1.940305717289447784e-02
1.262598298490047455e-02
-4.791826475411653519e-03
-6.062955595552921295e-03
-1.400373037904500961e-02
1.210611127316951752e-02
-1.811948837712407112e-03
-1.251856796443462372e-02
1.132751256227493286e-02
-2.376602496951818466e-04
-1.535903289914131165e-02
-1.424079388380050659e-02
4.009260796010494232e-03
1.909309439361095428e-02
1.389520615339279175e-02
-1.338812988251447678e-02
1.157891191542148590e-02
1.156231947243213654e-02
7.483096793293952942e-03
-1.316946092993021011e-02
6.095529068261384964e-03
1.643669418990612030e-02
-1.525147072970867157e-02
-1.543263718485832214e-02
-7.901667617261409760e-03
1.828019134700298309e-02
7.692746818065643311e-03
1.844044961035251617e-02
-1.002132848952896893e-04
1.578250341117382050e-02
1.292164251208305359e-02
1.707701571285724640e-02
-1.734143472276628017e-03
-9.889882057905197144e-03
1.839086599647998810e-02
1.317290775477886200e-02
1.498241163790225983e-02
-1.297401450574398041e-02
-7.085018791258335114e-03
-1.817594096064567566e-02
9.190281853079795837e-03
8.789209648966789246e-03
-1.176145672798156738e-02
-1.632735948078334332e-03
-1.085756532847881317e-02
1.310639642179012299e-02
-3.402495989575982094e-03
-4.165980033576488495e-03
1.287361420691013336e-02
-2.082406170666217804e-02
2.846461953595280647e-03
-2.726844279095530510e-03
-1.904621347784996033e-02
4.943027743138372898e-04
-1.138220634311437607e-02
-1.964685879647731781e-02
-1.964084617793560028e-02
-1.434493251144886017e-02
6.122725084424018860e-03
-7.145015522837638855e-03
2.296258229762315750e-03
1.741702668368816376e-02
1.454293914139270782e-02
-1.148843951523303986e-02
-7.280563004314899445e-03
-2.034834120422601700e-03
-6.984433159232139587e-03
2.732916502282023430e-03
-6.928429007530212402e-03
1.886195503175258636e-02
6.579933688044548035e-04
-6.946226581931114197e-03
9.991189464926719666e-03
2.008901722729206085e-02
-1.270960900001227856e-03
-4.181620664894580841e-03
9.790813550353050232e-03
1.522889174520969391e-02
2.332111180294305086e-04
-3.016798524186015129e-03
5.446153227239847183e-03
3.491391660645604134e-03
3.453397192060947418e-03
-8.794273249804973602e-03
1.548345945775508881e-02
2.804399700835347176e-03
-5.081243813037872314e-03
9.296029806137084961e-03
1.524884812533855438e-02
9.343132260255515575e-04
-8.204074692912399769e-04
6.695443764328956604e-03
5.705967545509338379e-03
-1.863276213407516479e-02
1.207579486072063446e-02
1.464384607970714569e-02
-1.227344386279582977e-02
-1.358453743159770966e-02
1.823944738134741783e-03
-2.068432606756687164e-02
7.307410240173339844e-03
1.367934606969356537e-02
1.489826105535030365e-02
-1.105627790093421936e-02
-1.905739540234208107e-03
9.560167789459228516e-03
-3.707535099238157272e-03
4.015631275251507759e-04
-1.369712501764297485e-02
-1.949674263596534729e-02
-1.937521994113922119e-02
1.595465652644634247e-02
-1.707024127244949341e-02
1.214072667062282562e-02
7.062632590532302856e-03
2.222266513854265213e-03
1.753211207687854767e-02
4.905456677079200745e-03
-1.664816960692405701e-02
-3.316733520478010178e-03
-9.909409098327159882e-03
-1.640071347355842590e-02
-1.543257944285869598e-02
2.453059190884232521e-03
7.643317803740501404e-03
2.081078011542558670e-03
1.440919004380702972e-02
1.792112551629543304e-02
-7.851117989048361778e-04
-4.802490584552288055e-03
-9.423132985830307007e-03
1.035241968929767609e-02
9.860521182417869568e-03
-2.523057628422975540e-04
-9.992307052016258240e-03
1.677904836833477020e-02
-1.549217291176319122e-02
8.752330904826521873e-04
3.490316681563854218e-03
-1.696697808802127838e-02
3.545545274391770363e-03
-6.855200976133346558e-03
2.498558489605784416e-03
1.064859516918659210e-02
-7.404052652418613434e-03
6.337540224194526672e-03
-6.024407222867012024e-03
4.336588084697723389e-03
-1.579852588474750519e-02
-1.355615258216857910e-02
9.509239345788955688e-03
8.753823116421699524e-03
1.529739983379840851e-02
3.187138587236404419e-03
-7.592943147756159306e-04
5.982117727398872375e-03
9.080402553081512451e-03
-2.642836479935795069e-04
-1.081255357712507248e-02
-5.737339961342513561e-04
1.573665626347064972e-02
7.666930556297302246e-03
-6.305388174951076508e-03
1.435798592865467072e-02
-1.450047921389341354e-02
-1.027360092848539352e-02
1.636541448533535004e-02
3.005489241331815720e-03
1.346695236861705780e-02
1.748951710760593414e-02
-7.157768704928457737e-04
1.761082746088504791e-02
6.271099555306136608e-04
5.799619480967521667e-03
1.044927537441253662e-02
4.024216439574956894e-03
-1.333861611783504486e-02
-4.233150975778698921e-04
-1.284945756196975708e-02
1.485569216310977936e-02
7.457531988620758057e-03
2.044901438057422638e-02
1.742257736623287201e-02
1.557004265487194061e-02
-7.685348391532897949e-03
6.047233007848262787e-03
1.855423860251903534e-02
2.124120853841304779e-02
2.086799405515193939e-02
9.948769584298133850e-03
1.139272190630435944e-02
-5.222799518378451467e-05
1.246815547347068787e-02
-1.633519120514392853e-02
1.793121360242366791e-02
-1.112355943769216537e-02
9.885579347610473633e-03
9.371766820549964905e-03
1.109353080391883850e-02
2.386883366852998734e-03
-4.171360284090042114e-03
-1.500939577817916870e-02
2.187115605920553207e-03
-3.976203035563230515e-03
6.594875827431678772e-03
-1.193941477686166763e-02
-1.354326121509075165e-02
-5.725936498492956161e-03
-6.059446372091770172e-03
1.048981584608554840e-02
-1.467700488865375519e-02
-6.238786503672599792e-03
-5.220789462327957153e-03
9.622436016798019409e-03
-9.342879988253116608e-03
1.335147581994533539e-02
-1.578450575470924377e-02
-9.821217507123947144e-03
-1.637861877679824829e-02
7.144296541810035706e-03
-1.571363583207130432e-02
-3.623966360464692116e-03
1.355726458132266998e-02
-1.866814307868480682e-02
-1.921342313289642334e-02
1.406543771736323833e-03
-5.769378505647182465e-03
-1.449233666062355042e-02
3.157170955091714859e-03
-1.073195785284042358e-02
-5.286503583192825317e-03
6.746286526322364807e-03
2.018834464251995087e-02
2.836971543729305267e-03
1.695993728935718536e-02
6.733443588018417358e-03
1.655302755534648895e-02
-3.960784524679183960e-03
1.551575027406215668e-02
2.581046894192695618e-03
-4.564999602735042572e-03
6.802877411246299744e-03
2.092604897916316986e-02
-3.460396779701113701e-03
1.761665754020214081e-02
9.270128211937844753e-04
-4.255272448062896729e-03
1.310005411505699158e-02
-5.315984599292278290e-03
-1.573452167212963104e-02
-8.763178251683712006e-03
1.261980389244854450e-03
1.569311507046222687e-02
1.416130550205707550e-02
1.605856977403163910e-02
1.096022874116897583e-02
-1.816971413791179657e-02
6.961496546864509583e-03
8.957717567682266235e-03
5.076516419649124146e-03
1.365806721150875092e-02
-1.285593397915363312e-02
1.568843983113765717e-02
2.789462916553020477e-03
-1.246268115937709808e-02
-3.758842824026942253e-03
-1.898340880870819092e-02
8.763460442423820496e-03
3.990968689322471619e-03
-1.819588616490364075e-02
-1.089979987591505051e-02
-1.653526723384857178e-02
-8.576351217925548553e-03
-2.028622105717658997e-02
3.601913340389728546e-03
8.037794381380081177e-03
-1.439643837511539459e-02
1.027397625148296356e-02
-1.215588301420211792e-03
1.225832849740982056e-02
1.260030432604253292e-03
-2.804312855005264282e-03
1.369027234613895416e-02
-2.515571191906929016e-03
6.368085741996765137e-03
1.094221509993076324e-02
-1.556022837758064270e-02
1.346789300441741943e-02
-1.455483213067054749e-02
1.263547874987125397e-02
1.052353717386722565e-02
1.385143958032131195e-03
-2.505063312128186226e-03
1.869484968483448029e-02
7.035996764898300171e-03
9.471487253904342651e-03
5.702271126210689545e-03
-1.453897729516029358e-02
1.654210127890110016e-02
-5.433155223727226257e-03
-4.893198609352111816e-03
1.050530187785625458e-02
-1.184837520122528076e-02
-1.030536741018295288e-02
-7.430403493344783783e-03
1.835616421885788441e-03
1.852707378566265106e-02
1.512166671454906464e-02
-4.650134593248367310e-03
-7.799089886248111725e-03
7.757708430290222168e-03
8.174672722816467285e-03
9.331500157713890076e-03
5.970466881990432739e-03
-3.538797143846750259e-03
-1.208447664976119995e-02
-2.036565449088811874e-03
-1.833057403564453125e-02
3.802570980042219162e-03
1.054600812494754791e-02
-1.909865811467170715e-02
6.129648536443710327e-04
7.961213588714599609e-03
-1.212431769818067551e-02
-1.934416964650154114e-02
8.038757368922233582e-03
5.432305857539176941e-03
-8.659237064421176910e-03
-8.041825145483016968e-03
-1.453331951051950455e-02
1.040200702846050262e-02
-1.267595589160919189e-02
-5.397197790443897247e-03
-6.005004048347473145e-03
1.219809986650943756e-02
8.173972368240356445e-03
-1.337900012731552124e-02
1.845632679760456085e-02
1.604456268250942230e-02
1.353533193469047546e-02
1.404768787324428558e-02
-9.290839661844074726e-04
-1.396618038415908813e-02
-1.648914255201816559e-02
-1.597351953387260437e-02
-2.065357984974980354e-03
9.977525100111961365e-03
-1.440839841961860657e-02
4.915877245366573334e-03
-1.909429323859512806e-03
1.467857882380485535e-02
1.206379383802413940e-02
-1.611128821969032288e-02
-1.629192009568214417e-02
-1.030956627801060677e-03
1.299334806390106678e-03
-1.065443921834230423e-02
1.694469712674617767e-02
3.208405105397105217e-03
-2.985921222716569901e-03
-9.353791363537311554e-03
-9.656326728872954845e-04
1.318201655521988869e-03
1.331045664846897125e-02
-4.607371520251035690e-03
-8.583763614296913147e-03
8.069155737757682800e-03
1.064863614737987518e-02
1.097074337303638458e-02
-1.614287309348583221e-02
-2.041248790919780731e-02
-4.949878202751278877e-04
-1.589379087090492249e-02
-2.010760456323623657e-02
2.986285369843244553e-03
-2.974532777443528175e-03
-2.898609265685081482e-03
-9.906258434057235718e-03
9.516723453998565674e-03
-2.625267952680587769e-03
-1.799558103084564209e-02
1.067952369339764118e-03
6.415413692593574524e-03
3.292339155450463295e-03
4.015723243355751038e-03
-7.628294639289379120e-03
-1.313714019488543272e-04
-1.843980699777603149e-02
-1.286031678318977356e-02
-4.241111688315868378e-03
1.326207071542739868e-02
1.380502828396856785e-03
-1.716325804591178894e-02
-1.426905393600463867e-02
-1.792024588212370872e-03
-4.231934435665607452e-03
-1.803604187443852425e-03
9.759293752722442150e-04
1.342562399804592133e-02
1.729153655469417572e-02
-1.497774035669863224e-03
1.320612616837024689e-02
-1.916645676828920841e-03
3.916182089596986771e-03
1.667231507599353790e-02
-1.640539057552814484e-02
1.002177782356739044e-02
-8.486993610858917236e-03
1.187480054795742035e-02
2.087294124066829681e-02
1.135229319334030151e-02
-6.982826627790927887e-03
1.550699211657047272e-02
-1.610204344615340233e-03
1.841687969863414764e-02
4.084252752363681793e-03
-1.110524311661720276e-02
-1.673051528632640839e-02
1.056632772088050842e-02
1.820536889135837555e-02
1.733409054577350616e-02
1.689325086772441864e-02
1.381790963932871819e-03
3.540593199431896210e-03
-6.580548360943794250e-03
1.452423445880413055e-02
-1.851336658000946045e-02
8.822506293654441833e-03
2.633894560858607292e-03
4.632929340004920959e-03
-7.240824401378631592e-03
7.278263568878173828e-03
-1.457090955227613449e-02
-3.608439816161990166e-03
-1.941977627575397491e-02
-1.826983131468296051e-02
-1.825261395424604416e-03
-2.142378594726324081e-03
-1.665724255144596100e-02
-1.180373132228851318e-02
-1.409639511257410049e-02
-1.659319549798965454e-02
-1.462088152766227722e-02
-7.683698087930679321e-03
-1.089533697813749313e-02
-8.327754214406013489e-03
1.382311107590794563e-03
-1.277053728699684143e-03
1.528617925941944122e-02
-1.370821706950664520e-02
1.260966435074806213e-02
4.130363930016756058e-03
1.484861038625240326e-02
-1.635287515819072723e-02
7.915191352367401123e-03
-1.067663659341633320e-03
2.625155029818415642e-03
8.933167904615402222e-03
-4.315841943025588989e-03
1.923677511513233185e-02
9.875345975160598755e-03
-7.679541595280170441e-03
2.066943980753421783e-02
-5.593861453235149384e-03
1.884781010448932648e-02
-9.342461824417114258e-03
1.985330320894718170e-02
-1.904684002511203289e-03
-7.662307471036911011e-03
-3.916428424417972565e-03
1.507958956062793732e-02
-1.537380553781986237e-02
1.496335258707404137e-03
-9.169357828795909882e-03
1.546649076044559479e-02
3.962047863751649857e-03
1.545060612261295319e-02
3.989899531006813049e-03
-4.668092820793390274e-03
1.484677754342556000e-02
-1.733816787600517273e-02
2.353347837924957275e-03
1.666267402470111847e-02
1.762693515047430992e-03
5.121652036905288696e-03
-1.020697527565062046e-03
-7.511707022786140442e-03
-1.770032756030559540e-02
-1.454052142798900604e-02
-1.674819923937320709e-02
-1.953693106770515442e-02
-8.616157807409763336e-03
5.520198494195938110e-03
-1.520089246332645416e-02
1.347752846777439117e-02
-1.907120272517204285e-02
-6.488533690571784973e-03
1.056807674467563629e-02
2.655875636264681816e-03
1.255306764505803585e-03
-1.593946106731891632e-02
-1.088449032977223396e-03
-1.178443152457475662e-02
6.812803447246551514e-03
4.027131944894790649e-03
5.225723609328269958e-03
1.428127521649003029e-03
2.258484717458486557e-03
-7.726792246103286743e-03
9.848017245531082153e-03
-2.368186134845018387e-03
1.963578164577484131e-03
-7.135103456676006317e-03
-7.633980363607406616e-03
1.985977031290531158e-02
-7.099677808582782745e-03
5.324212834239006042e-03
-1.283565163612365723e-02
3.075037850067019463e-03
1.130211353302001953e-02
7.229488343000411987e-03
3.941602539271116257e-03
1.739154569804668427e-02
-3.268297994509339333e-03
7.594270631670951843e-03
1.088497973978519440e-02
-1.373936794698238373e-02
8.376386016607284546e-03
-9.834608994424343109e-03
-5.770266056060791016e-03
-1.028347387909889221e-02
-1.382822915911674500e-02
2.050312049686908722e-02
-7.637164671905338764e-04
-3.337138914503157139e-04
-1.645171642303466797e-02
-1.679932884871959686e-02
1.740687899291515350e-02
-3.213023766875267029e-03
9.539555758237838745e-03
1.387628354132175446e-02
1.595099829137325287e-02
1.642418466508388519e-02
-2.262608846649527550e-03
-1.884553395211696625e-02
-1.095015648752450943e-02
2.676793141290545464e-03
-1.380044501274824142e-02
1.355634303763508797e-03
-9.696987457573413849e-03
6.384402513504028320e-03
7.624778896570205688e-03
9.033631533384323120e-03
-1.978481933474540710e-02
-9.850841015577316284e-03
-1.304088253527879715e-02
6.912956014275550842e-03
-1.502250973135232925e-02
3.469531191512942314e-03
-3.950973041355609894e-03
-6.412646733224391937e-03
3.374511841684579849e-03
3.426163457334041595e-03
-7.735201157629489899e-03
-1.373154856264591217e-02
1.309849508106708527e-02
-6.916983984410762787e-03
-1.385040674358606339e-02
2.013550139963626862e-02
-1.123597472906112671e-02
1.552283531054854393e-03
1.124816201627254486e-02
-9.551592171192169189e-03
-9.974357672035694122e-03
-1.340650580823421478e-02
5.364987999200820923e-03
7.351331412792205811e-03
-3.037699265405535698e-03
6.828047335147857666e-04
1.122670248150825500e-02
5.888158339075744152e-04
-1.416912116110324860e-02
1.795135624706745148e-02
2.020928077399730682e-02
2.010136609897017479e-03
1.726657338440418243e-02
5.117499269545078278e-03
9.956298395991325378e-03
7.659513503313064575e-03
2.688787411898374557e-03
-1.091190986335277557e-02
8.144726976752281189e-03
1.161603815853595734e-02
-1.727879513055086136e-03
-1.080130576156079769e-03
-1.852807961404323578e-02
3.650113241747021675e-03
7.168449810706079006e-04
1.111104525625705719e-02
-9.803787805140018463e-03
-1.556075876578688622e-03
-1.341743022203445435e-02
-1.329090539366006851e-02
1.653458364307880402e-02
2.591908443719148636e-03
-4.549636505544185638e-03
1.123872236348688602e-03
1.605168916285037994e-02
-3.186828456819057465e-03
-1.705672219395637512e-02
-1.441269647330045700e-02
-1.917811110615730286e-02
-1.288003195077180862e-02
-7.821884006261825562e-03
4.717228002846240997e-04
-2.054272219538688660e-02
-5.556270480155944824e-03
1.696836017072200775e-02
-2.960076089948415756e-03
-1.605226285755634308e-02
-7.668880745768547058e-03
1.140543445944786072e-02
-3.053712425753474236e-03
-1.304532401263713837e-02
1.185617037117481232e-02
1.808383874595165253e-02
-8.305120281875133514e-03
-7.849165238440036774e-03
3.392013255506753922e-03
2.504696836695075035e-03
-2.581941429525613785e-03
-1.244310848414897919e-02
2.027290128171443939e-02
-1.563951559364795685e-02
7.071429863572120667e-03
1.856425963342189789e-02
-1.327224262058734894e-02
-1.536794751882553101e-02
-1.541473087854683399e-03
-1.423824951052665710e-02
1.801169849932193756e-02
-1.636082865297794342e-02
3.782382933422923088e-03
5.348821636289358139e-03
-1.650810800492763519e-02
-1.281500793993473053e-02
1.714575453661382198e-03
-6.647309637628495693e-04
-1.928532868623733521e-02
-1.356465369462966919e-02
-1.726650632917881012e-02
-1.939357141964137554e-03
-9.448014199733734131e-03
-5.911440122872591019e-03
-8.997621014714241028e-03
-7.354160770773887634e-03
-1.611884869635105133e-02
-3.639693139120936394e-03
-1.877231709659099579e-02
-1.276731118559837341e-02
-1.916944421827793121e-02
-1.801625080406665802e-02
-6.704455881845206022e-05
1.002180017530918121e-02
1.249216310679912567e-02
-1.847380213439464569e-02
-1.277817320078611374e-02
-1.711145043373107910e-03
-3.495334647595882416e-03
4.470681771636009216e-03
9.970127139240503311e-04
-3.382167080417275429e-03
1.512955687940120697e-02
-9.575275704264640808e-03
3.794173710048198700e-03
5.223304033279418945e-03
8.656986057758331299e-03
4.097269382327795029e-03
2.734419889748096466e-03
1.115534640848636627e-02
-5.286187864840030670e-03
-6.014593876898288727e-03
6.115445867180824280e-03
8.583633229136466980e-03
4.130042158067226410e-03
-3.381971735507249832e-03
-8.580920286476612091e-03
1.668567396700382233e-02
-1.172333862632513046e-02
-9.911684319376945496e-03
-1.126460381783545017e-03
1.578385359607636929e-03
6.457781884819269180e-03
-1.166392862796783447e-02
1.913553290069103241e-02
9.970128303393721581e-04
-2.158016432076692581e-04
-4.906854592263698578e-03
1.069737412035465240e-02
1.017869822680950165e-02
-1.497969403862953186e-02
2.046093158423900604e-02
-2.435189904645085335e-03
-1.269106287509202957e-02
-1.722295954823493958e-02
4.723567515611648560e-03
3.260916331782937050e-03
-1.985525339841842651e-02
-1.481437683105468750e-02
-1.110652089118957520e-02
1.281358860433101654e-02
1.250348985195159912e-03
1.786952139809727669e-03
-1.129932142794132233e-02
9.481569868512451649e-04
1.155631057918071747e-02
-1.572016812860965729e-02
6.671983748674392700e-03
7.855029776692390442e-03
-1.082505006343126297e-02
9.643385186791419983e-03
-1.852858625352382660e-02
-1.893517933785915375e-02
-1.476915366947650909e-02
-1.108581293374300003e-02
-7.338560186326503754e-03
-1.948473509401082993e-03
2.551453653723001480e-03
-1.632594689726829529e-02
4.005737602710723877e-03
4.074137657880783081e-03
1.591717265546321869e-02
1.472848467528820038e-02
1.563056372106075287e-02
-3.412639722228050232e-03
1.144473440945148468e-02
4.459001123905181885e-03
-1.914400048553943634e-02
-7.130893878638744354e-03
2.324037021026015282e-03
-4.586005583405494690e-03
1.283703744411468506e-02
1.165659911930561066e-02
1.502347551286220551e-02
2.041140105575323105e-03
1.419252343475818634e-02
7.248675450682640076e-03
-1.097789593040943146e-02
-1.272944360971450806e-02
6.822817027568817139e-03
-2.834100159816443920e-04
-5.300592631101608276e-03
-7.497886195778846741e-03
3.339226357638835907e-03
1.763554103672504425e-02
-1.086201332509517670e-02
-9.118239395320415497e-03
-6.012227386236190796e-03
7.127894088625907898e-03
1.330915279686450958e-02
1.959122903645038605e-02
1.436438597738742828e-02
1.723847724497318268e-02
9.840268641710281372e-03
1.391083933413028717e-02
-1.538055017590522766e-02
4.078496247529983521e-03
1.389539055526256561e-02
1.665037684142589569e-02
-3.780424594879150391e-03
1.117921061813831329e-02
9.493421763181686401e-03
9.956032037734985352e-03
1.404810510575771332e-02
-1.824656128883361816e-02
6.852237507700920105e-03
-5.669914651662111282e-03
1.557826809585094452e-02
-4.948817659169435501e-03
-1.398680498823523521e-03
-2.449248218908905983e-03
1.647618482820689678e-04
-1.685437373816967010e-02
-1.711651333607733250e-03
1.553132198750972748e-02
-2.257948508486151695e-03
6.789224222302436829e-03
4.915885627269744873e-03
-3.813350049313157797e-04
8.258018642663955688e-03
4.364937543869018555e-03
-1.786851137876510620e-02
-4.776798654347658157e-03
-9.448649361729621887e-03
7.014349102973937988e-03
7.435606792569160461e-03
1.502848230302333832e-02
1.984823308885097504e-02
1.471994258463382721e-02
9.406799450516700745e-03
-3.254605690017342567e-03
-5.424008704721927643e-03
1.358649693429470062e-02
-1.573773287236690521e-02
1.263214834034442902e-02
-4.006774164736270905e-03
5.623667966574430466e-03
-1.615047268569469452e-02
8.809567661955952644e-04
-1.299460418522357941e-02
-3.360048402100801468e-03
1.691678538918495178e-03
-5.307243205606937408e-03
-1.649257913231849670e-02
-4.707340151071548462e-03
-1.550733670592308044e-02
-6.394552066922187805e-03
1.079491525888442993e-02
-1.017434336245059967e-02
-4.056968726217746735e-03
-6.386023946106433868e-03
9.563256055116653442e-03
3.473467077128589153e-04
-1.749737001955509186e-02
3.361436072736978531e-03
1.312965340912342072e-02
4.103967919945716858e-03
-1.640092767775058746e-02
-8.467269130051136017e-03
7.424922659993171692e-03
6.235225126147270203e-03
-1.453844271600246429e-02
1.057114638388156891e-02
-3.810866968706250191e-03
-1.110905213863588870e-04
-5.599353462457656860e-03
7.911411812528967857e-04
9.105704724788665771e-03
9.968679398298263550e-03
-1.574373058974742889e-02
-2.008756063878536224e-02
-1.018645334988832474e-02
9.014170616865158081e-03
1.688774116337299347e-02
6.493801251053810120e-03
1.830975152552127838e-02
7.113416213542222977e-04
1.243673078715801239e-02
-1.041452959179878235e-02
